{"learner":{"attributes":{"scikit_learn":"{\"_estimator_type\": \"classifier\"}"},"feature_names":[],"feature_types":[],"gradient_booster":{"model":{"cats":{"enc":[],"feature_segments":[],"sorted_idx":[]},"gbtree_model_param":{"num_parallel_tree":"1","num_trees":"200"},"iteration_indptr":[0,1,2,3,4,5,6,7,8,9,10,11,12,13,14,15,16,17,18,19,20,21,22,23,24,25,26,27,28,29,30,31,32,33,34,35,36,37,38,39,40,41,42,43,44,45,46,47,48,49,50,51,52,53,54,55,56,57,58,59,60,61,62,63,64,65,66,67,68,69,70,71,72,73,74,75,76,77,78,79,80,81,82,83,84,85,86,87,88,89,90,91,92,93,94,95,96,97,98,99,100,101,102,103,104,105,106,107,108,109,110,111,112,113,114,115,116,117,118,119,120,121,122,123,124,125,126,127,128,129,130,131,132,133,134,135,136,137,138,139,140,141,142,143,144,145,146,147,148,149,150,151,152,153,154,155,156,157,158,159,160,161,162,163,164,165,166,167,168,169,170,171,172,173,174,175,176,177,178,179,180,181,182,183,184,185,186,187,188,189,190,191,192,193,194,195,196,197,198,199,200],"tree_info":[0,0,0,0,0,0,0,0,0,0,0,0,0,0,0,0,0,0,0,0,0,0,0,0,0,0,0,0,0,0,0,0,0,0,0,0,0,0,0,0,0,0,0,0,0,0,0,0,0,0,0,0,0,0,0,0,0,0,0,0,0,0,0,0,0,0,0,0,0,0,0,0,0,0,0,0,0,0,0,0,0,0,0,0,0,0,0,0,0,0,0,0,0,0,0,0,0,0,0,0,0,0,0,0,0,0,0,0,0,0,0,0,0,0,0,0,0,0,0,0,0,0,0,0,0,0,0,0,0,0,0,0,0,0,0,0,0,0,0,0,0,0,0,0,0,0,0,0,0,0,0,0,0,0,0,0,0,0,0,0,0,0,0,0,0,0,0,0,0,0,0,0,0,0,0,0,0,0,0,0,0,0,0,0,0,0,0,0,0,0,0,0,0,0,0,0,0,0,0,0],"trees":[{"base_weights":[-4.682744E-4,-1.5629691E0,1.9985773E-1,-1.898773E0,1.6755162E0,1.904762E-1,-1.947205E0,-1.2542373E0,1.9422151E-1,-1.9676166E0,-1.4477612E0,1E-1,-1.4909092E-1,-1.9688717E-1,-6.666667E-1,-1.5953307E0,1.4666668E-1,-1E-1,-0E0,-1.7636363E-1,-5.365854E-2],"categories":[],"categories_nodes":[],"categories_segments":[],"categories_sizes":[],"default_left":[0,0,0,0,0,0,0,0,0,0,0,0,0,0,0,0,0,0,0,0,0],"id":0,"left_children":[1,3,-1,5,7,-1,9,11,-1,13,15,-1,-1,-1,17,19,-1,-1,-1,-1,-1],"loss_changes":[1.0008508E4,1.959043E3,0E0,3.039756E2,1.3487683E2,0E0,1.3563965E1,9.360247E0,0E0,1.2084961E0,3.1155243E1,0E0,0E0,0E0,6.666666E-1,1.0502533E1,0E0,0E0,0E0,0E0,0E0],"parents":[2147483647,0,0,1,1,3,3,4,4,6,6,7,7,9,9,10,10,14,14,15,15],"right_children":[2,4,-1,6,8,-1,10,12,-1,14,16,-1,-1,-1,18,20,-1,-1,-1,-1,-1],"split_conditions":[1E0,2.3E1,1.9985773E-1,1E0,2E0,1.904762E-1,2.7E1,1E0,1.9422151E-1,2.4E-1,6.9767445E-2,1E-1,-1.4909092E-1,-1.9688717E-1,1.9E1,2E0,1.4666668E-1,-1E-1,-0E0,-1.7636363E-1,-5.365854E-2],"split_indices":[18,10,0,27,1,0,0,27,0,6,6,0,0,0,0,1,0,0,0,0,0],"split_type":[0,0,0,0,0,0,0,0,0,0,0,0,0,0,0,0,0,0,0,0,0],"sum_hessian":[3.20225E3,1.7975E3,1.40475E3,1.629E3,1.685E2,2E1,1.609E3,1.375E1,1.5475E2,1.543E3,6.6E1,1E0,1.275E1,1.541E3,2E0,6.325E1,2.75E0,1E0,1E0,5.4E1,9.25E0],"tree_param":{"num_deleted":"0","num_feature":"30","num_nodes":"21","size_leaf_vector":"1"}},{"base_weights":[5.646403E-3,-1.4115857E0,1.8175451E-1,-1.7171365E0,1.5033834E0,1.7497954E-1,-1.7678083E0,-1.2701105E0,1.7542189E0,-1.7718999E0,4.5239618E-1,-1.3551664E-1,-1.9528953E-2,1.8034755E-1,1.21359E0,-1.7941003E0,-1.4291706E0,-5.6494266E-2,1.18551314E-1,-3.3151116E-2,1.3645631E0,-1.7951946E-1,-8.151933E-2,-1.6828309E-1,-1.0622981E-2,5.4097097E-2,1.4492011E-1],"categories":[],"categories_nodes":[],"categories_segments":[],"categories_sizes":[],"default_left":[0,0,0,0,0,0,0,0,0,0,0,0,0,0,0,0,0,0,0,0,0,0,0,0,0,0,0],"id":1,"left_children":[1,3,-1,5,7,-1,9,11,13,15,17,-1,-1,-1,19,21,23,-1,-1,-1,25,-1,-1,-1,-1,-1,-1],"loss_changes":[8.172285E3,1.5930857E3,0E0,2.8712305E2,1.2046573E2,0E0,1.5281738E1,1.0770416E0,1.972992E0,9.543457E0,3.4507449E0,0E0,0E0,0E0,4.2096443E0,1.328125E-1,3.395613E1,0E0,0E0,0E0,2.5248718E-1,0E0,0E0,0E0,0E0,0E0,0E0],"parents":[2147483647,0,0,1,1,3,3,4,4,6,6,7,7,8,8,9,9,10,10,14,14,15,15,16,16,20,20],"right_children":[2,4,-1,6,8,-1,10,12,14,16,18,-1,-1,-1,20,22,24,-1,-1,-1,26,-1,-1,-1,-1,-1,-1],"split_conditions":[3E0,2.3E1,1.8175451E-1,1E0,1E0,1.7497954E-1,4.2417E0,2.631579E-2,8.4375E-1,1.8E1,6.896552E-2,-1.3551664E-1,-1.9528953E-2,1.8034755E-1,8.4615386E-1,2.4E-1,1E0,-5.6494266E-2,1.18551314E-1,-3.3151116E-2,2.6E1,-1.7951946E-1,-8.151933E-2,-1.6828309E-1,-1.0622981E-2,5.4097097E-2,1.4492011E-1],"split_indices":[4,10,0,27,11,0,9,6,7,10,6,0,0,0,7,6,11,0,0,0,10,0,0,0,0,0,0],"split_type":[0,0,0,0,0,0,0,0,0,0,0,0,0,0,0,0,0,0,0,0,0,0,0,0,0,0,0],"sum_hessian":[3.1805027E3,1.7847369E3,1.3957657E3,1.6157797E3,1.6895717E2,2.2792639E1,1.592987E3,1.3676154E1,1.5528102E2,1.5902583E3,2.7287374E0,1.2431554E1,1.2445997E0,1.4017393E2,1.5107084E1,1.4895385E3,1.0071987E2,1.2389104E0,1.4898269E0,1.2382855E0,1.3868799E1,1.4870422E3,2.4962564E0,8.428673E1,1.6433144E1,1.981257E0,1.1887542E1],"tree_param":{"num_deleted":"0","num_feature":"30","num_nodes":"27","size_leaf_vector":"1"}},{"base_weights":[3.574607E-3,-1.3041062E0,1.6815148E-1,-1.5910971E0,1.3683337E0,1.6186748E-1,-1.6368624E0,-1.1153877E0,1.6220183E0,-1.6430446E0,-4.4118345E-1,1.1055894E-1,-1.374397E-1,1.6751511E-1,1.151176E0,-1.6585813E0,-1.3774832E0,-1.1728206E0,1.1212295E-1,2.1881615E-1,1.3443933E-1,-1.6602209E-1,-6.4800054E-2,9.561139E-2,-1.4606705E-1,-1.3521922E-1,-5.425151E-2,-3.654867E-2,7.236964E-2],"categories":[],"categories_nodes":[],"categories_segments":[],"categories_sizes":[],"default_left":[0,0,0,0,0,0,0,0,0,0,0,0,0,0,0,0,0,0,0,0,0,0,0,0,0,0,0,0,0],"id":2,"left_children":[1,3,-1,5,7,-1,9,11,13,15,17,-1,-1,-1,19,21,23,25,-1,27,-1,-1,-1,-1,-1,-1,-1,-1,-1],"loss_changes":[6.770522E3,1.3322087E3,0E0,2.327539E2,1.08108154E2,0E0,1.06953125E1,1.0854244E1,1.9112549E0,4.055176E0,1.196195E1,0E0,0E0,0E0,3.0854664E0,1.3212891E0,1.9029114E1,3.885746E-2,0E0,1.5668855E0,0E0,0E0,0E0,0E0,0E0,0E0,0E0,0E0,0E0],"parents":[2147483647,0,0,1,1,3,3,4,4,6,6,7,7,8,8,9,9,10,10,14,14,15,15,16,16,17,17,19,19],"right_children":[2,4,-1,6,8,-1,10,12,14,16,18,-1,-1,-1,20,22,24,26,-1,28,-1,-1,-1,-1,-1,-1,-1,-1,-1],"split_conditions":[3E0,2.3E1,1.6815148E-1,1E0,2E0,1.6186748E-1,4.1647E0,1E0,8.3870965E-1,2.6E1,2E0,1.1055894E-1,-1.374397E-1,1.6751511E-1,3.3E1,2.4E-1,7.692308E-1,8.367347E-1,1.1212295E-1,4.036E0,1.3443933E-1,-1.6602209E-1,-6.4800054E-2,9.561139E-2,-1.4606705E-1,-1.3521922E-1,-5.425151E-2,-3.654867E-2,7.236964E-2],"split_indices":[4,10,0,27,1,0,9,27,7,0,1,0,0,0,0,6,7,7,0,9,0,0,0,0,0,0,0,0,0],"split_type":[0,0,0,0,0,0,0,0,0,0,0,0,0,0,0,0,0,0,0,0,0,0,0,0,0,0,0,0,0],"sum_hessian":[3.083631E3,1.7331477E3,1.3504834E3,1.565441E3,1.6770663E2,2.1523314E1,1.5439177E3,1.5227145E1,1.5247949E2,1.5356038E3,8.313945E0,1.248955E0,1.397819E1,1.3471915E2,1.776034E1,1.4457732E3,8.983066E1,5.832221E0,2.4817235E0,3.414817E0,1.4345522E1,1.4427896E3,2.9835892E0,2.7308364E0,8.709982E1,3.6486082E0,2.1836128E0,1.7108852E0,1.7039319E0],"tree_param":{"num_deleted":"0","num_feature":"30","num_nodes":"29","size_leaf_vector":"1"}},{"base_weights":[-3.485208E-3,-1.2147784E0,1.5758687E-1,-1.488513E0,1.2857081E0,1.5121245E-1,-1.5281801E0,-1.0165434E0,1.5135359E0,-1.5394828E0,-6.571739E-1,1.0463854E-1,-1.2673122E-1,1.569711E-1,1.0573694E0,-1.5440944E0,-6.893707E-1,-1.2599976E0,9.9464816E-1,5.5439036E-2,1.3786265E-1,-1.5451445E-1,-1.6189842E-2,-1.0231852E-1,4.19066E-2,-1.4106767E-1,-2.9346008E-2,1.466348E-1,-3.0019501E-2,-4.78367E-2,7.549723E-2],"categories":[],"categories_nodes":[],"categories_segments":[],"categories_sizes":[],"default_left":[0,0,0,0,0,0,0,0,0,0,0,0,0,0,0,0,0,0,0,0,0,0,0,0,0,0,0,0,0,0,0],"id":3,"left_children":[1,3,-1,5,7,-1,9,11,13,15,17,-1,-1,-1,19,21,23,25,27,29,-1,-1,-1,-1,-1,-1,-1,-1,-1,-1,-1],"loss_changes":[5.7095996E3,1.1580398E3,0E0,1.835747E2,8.923767E1,0E0,1.3789795E1,9.424282E0,2.249237E0,4.751709E0,2.2169498E1,0E0,0E0,0E0,6.293352E0,1.8898926E0,4.0588355E0,1.8915043E0,4.211764E0,2.5443594E0,0E0,0E0,0E0,0E0,0E0,0E0,0E0,0E0,0E0,0E0,0E0],"parents":[2147483647,0,0,1,1,3,3,4,4,6,6,7,7,8,8,9,9,10,10,14,14,15,15,16,16,17,17,18,18,19,19],"right_children":[2,4,-1,6,8,-1,10,12,14,16,18,-1,-1,-1,20,22,24,26,28,30,-1,-1,-1,-1,-1,-1,-1,-1,-1,-1,-1],"split_conditions":[3E0,2.3E1,1.5758687E-1,1E0,2E0,1.5121245E-1,4.1054E0,1E0,8.3870965E-1,2.2E1,2E0,1.0463854E-1,-1.2673122E-1,1.569711E-1,2.6E1,2.7272728E-1,2E0,4.209E0,8.039216E-1,4.036E0,1.3786265E-1,-1.5451445E-1,-1.6189842E-2,-1.0231852E-1,4.19066E-2,-1.4106767E-1,-2.9346008E-2,1.466348E-1,-3.0019501E-2,-4.78367E-2,7.549723E-2],"split_indices":[4,10,0,27,1,0,9,27,7,10,1,0,0,0,10,6,1,9,7,9,0,0,0,0,0,0,0,0,0,0,0],"split_type":[0,0,0,0,0,0,0,0,0,0,0,0,0,0,0,0,0,0,0,0,0,0,0,0,0,0,0,0,0,0,0],"sum_hessian":[2.9825356E3,1.688083E3,1.2944526E3,1.5218833E3,1.661997E2,1.9371822E1,1.5025115E3,1.4654167E1,1.5154555E2,1.4825061E3,2.0005362E1,1.2444112E0,1.3409756E1,1.3275606E2,1.8789478E1,1.4736954E3,8.81063E0,1.4830322E1,5.17504E0,4.846592E0,1.3942886E1,1.472459E3,1.236501E0,6.8304863E0,1.9801435E0,1.2432614E1,2.3977072E0,3.6961231E0,1.4789165E0,2.928244E0,1.9183476E0],"tree_param":{"num_deleted":"0","num_feature":"30","num_nodes":"31","size_leaf_vector":"1"}},{"base_weights":[-7.98791E-3,-1.162658E0,1.4917383E-1,-1.3940125E0,1.2632836E0,1.4409362E-1,-1.4358497E0,-9.4280094E-1,1.4411353E0,-1.4614673E0,-9.2028594E-1,-1.224512E-1,-6.666209E-1,1.4850448E-1,9.687637E-1,-1.4639361E0,7.2930916E-3,8.4162205E-1,-1.166824E0,-7.840384E-1,-4.3151408E-4,-1.9900498E-1,1.23421565E-1,-1.4656535E-1,-2.7350325E-2,-1.0147735E-1,1.4355561E-1,-1.2635982E-1,-5.6255E-2,-1.0253842E-1,-4.7329355E-2,-8.019278E-2,4.9824636E-2],"categories":[],"categories_nodes":[],"categories_segments":[],"categories_sizes":[],"default_left":[0,0,0,0,0,0,0,0,0,0,0,0,0,0,0,0,0,0,0,0,0,0,0,0,0,0,0,0,0,0,0,0,0],"id":4,"left_children":[1,3,-1,5,7,-1,9,11,13,15,17,-1,19,-1,21,23,-1,25,27,29,-1,31,-1,-1,-1,-1,-1,-1,-1,-1,-1,-1,-1],"loss_changes":[4.910549E3,9.0097656E2,0E0,1.7560669E2,5.6294296E1,0E0,1.7704834E1,4.3453217E-2,1.257019E0,5.305908E0,3.1812737E1,0E0,6.012323E-1,0E0,4.563692E0,2.4003906E0,0E0,1.1703454E1,2.954773E0,9.55534E-3,0E0,1.8461794E0,0E0,0E0,0E0,0E0,0E0,0E0,0E0,0E0,0E0,0E0,0E0],"parents":[2147483647,0,0,1,1,3,3,4,4,6,6,7,7,8,8,9,9,10,10,12,12,14,14,15,15,17,17,18,18,19,19,21,21],"right_children":[2,4,-1,6,8,-1,10,12,14,16,18,-1,20,-1,22,24,-1,26,28,30,-1,32,-1,-1,-1,-1,-1,-1,-1,-1,-1,-1,-1],"split_conditions":[1E0,2.4E1,1.4917383E-1,1E0,1E0,1.4409362E-1,2.7E1,8.4615386E-1,8.4375E-1,4.187E0,8.039216E-1,-1.224512E-1,3.5E1,1.4850448E-1,2.6E1,2.4E-1,7.2930916E-3,1E0,1E0,3.9387E0,-4.3151408E-4,4.0091E0,1.23421565E-1,-1.4656535E-1,-2.7350325E-2,-1.0147735E-1,1.4355561E-1,-1.2635982E-1,-5.6255E-2,-1.0253842E-1,-4.7329355E-2,-8.019278E-2,4.9824636E-2],"split_indices":[18,10,0,27,17,0,0,7,7,9,7,0,0,0,10,6,0,17,17,9,0,9,0,0,0,0,0,0,0,0,0,0,0],"split_type":[0,0,0,0,0,0,0,0,0,0,0,0,0,0,0,0,0,0,0,0,0,0,0,0,0,0,0,0,0,0,0,0,0],"sum_hessian":[2.8336978E3,1.601158E3,1.2325398E3,1.4621432E3,1.3901471E2,2.0777658E1,1.4413656E3,1.0050207E1,1.2896451E2,1.3713888E3,6.997677E1,3.275433E0,6.774774E0,1.16034615E2,1.2929888E1,1.3692316E3,2.1572068E0,8.293404E0,6.1683365E1,5.598447E0,1.1763273E0,2.4411526E0,1.0488735E1,1.3670283E3,2.2032378E0,1.8384855E0,6.454919E0,5.222798E1,9.455383E0,1.8566687E0,3.7417781E0,1.2286204E0,1.2125322E0],"tree_param":{"num_deleted":"0","num_feature":"30","num_nodes":"33","size_leaf_vector":"1"}},{"base_weights":[-6.9473586E-3,-1.0989598E0,1.4234203E-1,-1.3381733E0,1.052156E0,1.3644563E-1,-1.3753018E0,-9.508523E-1,1.3480086E0,-1.3898069E0,-9.8599535E-1,1.0010153E-1,-1.128495E0,1.422511E-1,8.681981E-1,-1.4111869E-1,-1.2753145E0,8.967311E-1,-1.1218606E0,-1.2539734E-1,-6.881875E-2,3.7886238E-1,1.2484496E-1,3.9180417E-2,-1.2863542E-1,3.3346295E-2,1.0712308E-1,-1.22154E-1,-4.2678203E-2,1.1304569E-1,-1.1745161E-2],"categories":[],"categories_nodes":[],"categories_segments":[],"categories_sizes":[],"default_left":[0,0,0,0,0,0,0,0,0,0,0,0,0,0,0,0,0,0,0,0,0,0,0,0,0,0,0,0,0,0,0],"id":5,"left_children":[1,3,-1,5,7,-1,9,11,13,15,17,-1,19,-1,21,-1,23,25,27,-1,-1,29,-1,-1,-1,-1,-1,-1,-1,-1,-1],"loss_changes":[4.2300664E3,7.916454E2,0E0,1.4059863E2,9.2687485E1,0E0,6.333496E0,8.215923E0,3.5839996E0,1.4135742E0,1.4421291E1,0E0,1.9794655E-1,0E0,3.3759327E0,0E0,4.4970093E0,4.4365644E-2,2.8985252E0,0E0,0E0,4.0424323E0,0E0,0E0,0E0,0E0,0E0,0E0,0E0,0E0,0E0],"parents":[2147483647,0,0,1,1,3,3,4,4,6,6,7,7,8,8,9,9,10,10,12,12,14,14,16,16,17,17,18,18,21,21],"right_children":[2,4,-1,6,8,-1,10,12,14,16,18,-1,20,-1,22,-1,24,26,28,-1,-1,30,-1,-1,-1,-1,-1,-1,-1,-1,-1],"split_conditions":[3E0,3E1,1.4234203E-1,1E0,2E0,1.3644563E-1,2.7E1,1E0,8.333333E-1,2.3E1,7.6E-1,1.0010153E-1,8.7234044E-1,1.422511E-1,3.6E1,-1.4111869E-1,6.4102566E-1,2.9E1,2E0,-1.2539734E-1,-6.881875E-2,1E0,1.2484496E-1,3.9180417E-2,-1.2863542E-1,3.3346295E-2,1.0712308E-1,-1.22154E-1,-4.2678203E-2,1.1304569E-1,-1.1745161E-2],"split_indices":[4,0,0,27,1,0,0,27,7,0,7,0,7,0,0,0,7,0,1,0,0,27,0,0,0,0,0,0,0,0,0],"split_type":[0,0,0,0,0,0,0,0,0,0,0,0,0,0,0,0,0,0,0,0,0,0,0,0,0,0,0,0,0,0,0],"sum_hessian":[2.7061438E3,1.534706E3,1.1714377E3,1.3814596E3,1.5324643E2,1.823675E1,1.3632229E3,1.943718E1,1.3380925E2,1.3117778E3,5.1445E1,1.2347907E0,1.8202389E1,1.1412397E2,1.9685282E1,1.0958206E3,2.1595737E2,3.085677E0,4.835932E1,1.2727398E1,5.4749904E0,9.480902E0,1.020438E1,1.1937857E0,2.1476358E2,1.418349E0,1.6673278E0,4.1631634E1,6.727691E0,3.2625475E0,6.2183537E0],"tree_param":{"num_deleted":"0","num_feature":"30","num_nodes":"31","size_leaf_vector":"1"}},{"base_weights":[-2.8842567E-3,-1.0497026E0,1.367047E-1,-1.2795329E0,9.784685E-1,1.3120468E-1,-1.3181983E0,-8.5143906E-1,1.2891525E0,-1.3229742E0,4.1356874E-1,9.528207E-2,-1.0041995E0,1.3642444E-1,8.3333206E-1,-1.3549738E-1,-1.1886623E0,7.264661E-2,-2.3739632E-2,-1.1502252E-1,-5.172072E-1,3.5349408E-1,1.1974672E0,-1.2104137E-1,6.708336E-2,-8.533398E-2,-2.6952583E-2,1.01547696E-1,7.5047277E-4,2.2801958E-2,1.274196E-1],"categories":[],"categories_nodes":[],"categories_segments":[],"categories_sizes":[],"default_left":[0,0,0,0,0,0,0,0,0,0,0,0,0,0,0,0,0,0,0,0,0,0,0,0,0,0,0,0,0,0,0],"id":6,"left_children":[1,3,-1,5,7,-1,9,11,13,15,17,-1,19,-1,21,-1,23,-1,-1,-1,25,27,29,-1,-1,-1,-1,-1,-1,-1,-1],"loss_changes":[3.6250752E3,6.6917346E2,0E0,1.3074121E2,8.4337006E1,0E0,1.1042969E1,6.9798183E0,3.1608887E0,3.8295898E0,1.0385394E0,0E0,8.72427E-1,0E0,3.1286802E0,0E0,1.0992279E1,0E0,0E0,0E0,3.1755173E-1,2.3262424E0,5.3803444E-1,0E0,0E0,0E0,0E0,0E0,0E0,0E0,0E0],"parents":[2147483647,0,0,1,1,3,3,4,4,6,6,7,7,8,8,9,9,10,10,12,12,14,14,16,16,20,20,21,21,22,22],"right_children":[2,4,-1,6,8,-1,10,12,14,16,18,-1,20,-1,22,-1,24,-1,-1,-1,26,28,30,-1,-1,-1,-1,-1,-1,-1,-1],"split_conditions":[3E0,3E1,1.367047E-1,1E0,2E0,1.3120468E-1,4.209E0,1E0,8.333333E-1,2.3E1,2.8E1,9.528207E-2,8.7234044E-1,1.3642444E-1,3.6E1,-1.3549738E-1,1.3095239E-1,7.264661E-2,-2.3739632E-2,-1.1502252E-1,3.8925E0,1E0,3.8996E0,-1.2104137E-1,6.708336E-2,-8.533398E-2,-2.6952583E-2,1.01547696E-1,7.5047277E-4,2.2801958E-2,1.274196E-1],"split_indices":[4,0,0,27,1,0,9,27,7,0,0,0,7,0,0,0,6,0,0,0,9,27,9,0,0,0,0,0,0,0,0],"split_type":[0,0,0,0,0,0,0,0,0,0,0,0,0,0,0,0,0,0,0,0,0,0,0,0,0,0,0,0,0,0,0],"sum_hessian":[2.525824E3,1.4318923E3,1.0939315E3,1.286479E3,1.4541338E2,1.8427534E1,1.2680514E3,2.085258E1,1.2456079E2,1.2647994E3,3.2520452E0,1.2188883E0,1.9633692E1,1.05231926E2,1.9328867E1,1.0141033E3,2.5069612E2,2.1180062E0,1.1340389E0,1.4056828E1,5.576864E0,9.189806E0,1.0139062E1,2.4814255E2,2.5535839E0,1.3285515E0,4.2483125E0,2.4902349E0,6.6995716E0,1.0349182E0,9.104143E0],"tree_param":{"num_deleted":"0","num_feature":"30","num_nodes":"31","size_leaf_vector":"1"}},{"base_weights":[3.6957636E-3,-1.009313E0,1.3199669E-1,-1.2288703E0,1.0558865E0,1.2548448E-1,-1.261723E0,-8.722621E-1,1.2658942E0,-1.2731868E0,-4.2606527E-1,-5.184779E-1,-1.1070596E0,1.3121654E-1,8.661094E-1,-1.2787095E0,-4.0605712E-1,-9.8998684E-1,8.307938E-1,-7.5328755E-1,2.1798937E-2,-1.2063201E-1,-2.86322E-2,3.0778676E-1,1.0734208E-1,-1.306355E-1,-1.1565413E-1,-7.3879726E-2,4.3316748E-2,-1.2253574E-1,-5.1432908E-2,1.3000433E-1,-2.7007898E-2,-8.8725634E-2,-2.8616965E-2,-4.129422E-3,6.5707654E-2],"categories":[],"categories_nodes":[],"categories_segments":[],"categories_sizes":[],"default_left":[0,0,0,0,0,0,0,0,0,0,0,0,0,0,0,0,0,0,0,0,0,0,0,0,0,0,0,0,0,0,0,0,0,0,0,0,0],"id":7,"left_children":[1,3,-1,5,7,-1,9,11,13,15,17,19,21,-1,23,25,27,29,31,33,-1,-1,-1,35,-1,-1,-1,-1,-1,-1,-1,-1,-1,-1,-1,-1,-1],"loss_changes":[3.1857153E3,6.134824E2,0E0,1.0120044E2,5.385791E1,0E0,1.1005005E1,5.381241E-1,1.0443573E0,5.1729736E0,1.3449255E1,1.413046E0,2.3842621E-1,0E0,1.425622E0,2.4764404E0,2.8297577E0,7.976217E-1,3.4822817E0,1.02810144E-1,0E0,0E0,0E0,6.989582E-1,0E0,0E0,0E0,0E0,0E0,0E0,0E0,0E0,0E0,0E0,0E0,0E0,0E0],"parents":[2147483647,0,0,1,1,3,3,4,4,6,6,7,7,8,8,9,9,10,10,11,11,12,12,14,14,15,15,16,16,17,17,18,18,19,19,23,23],"right_children":[2,4,-1,6,8,-1,10,12,14,16,18,20,22,-1,24,26,28,30,32,34,-1,-1,-1,36,-1,-1,-1,-1,-1,-1,-1,-1,-1,-1,-1,-1,-1],"split_conditions":[3E0,2.3E1,1.3199669E-1,1E0,2E0,1.2548448E-1,4.1072E0,4.0091E0,8.3870965E-1,3E1,2E0,3.9573E0,3.6E1,1.3121654E-1,2.6E1,2.3E1,2E0,8.4210527E-1,8.039216E-1,3.3E1,2.1798937E-2,-1.2063201E-1,-2.86322E-2,4.036E0,1.0734208E-1,-1.306355E-1,-1.1565413E-1,-7.3879726E-2,4.3316748E-2,-1.2253574E-1,-5.1432908E-2,1.3000433E-1,-2.7007898E-2,-8.8725634E-2,-2.8616965E-2,-4.129422E-3,6.5707654E-2],"split_indices":[4,10,0,27,1,0,9,9,7,0,1,9,0,0,10,0,1,7,7,0,0,0,0,9,0,0,0,0,0,0,0,0,0,0,0,0,0],"split_type":[0,0,0,0,0,0,0,0,0,0,0,0,0,0,0,0,0,0,0,0,0,0,0,0,0,0,0,0,0,0,0,0,0,0,0,0,0],"sum_hessian":[2.3871785E3,1.3491213E3,1.0380571E3,1.2198414E3,1.2927989E2,1.5438991E1,1.2044025E3,1.2388016E1,1.1689187E2,1.1875874E3,1.6815063E1,6.2216516E0,6.1663647E0,1.0272075E2,1.4171124E1,1.1795997E3,7.9876137E0,1.175377E1,5.061293E0,4.7002277E0,1.5214237E0,5.08195E0,1.0844142E0,4.509903E0,9.661222E0,9.540213E2,2.2557845E2,5.8054895E0,2.1821241E0,6.80855E0,4.94522E0,3.4218159E0,1.6394771E0,2.9536872E0,1.7465404E0,2.6966457E0,1.8132571E0],"tree_param":{"num_deleted":"0","num_feature":"30","num_nodes":"37","size_leaf_vector":"1"}},{"base_weights":[1.4871334E-3,-9.7025836E-1,1.2801851E-1,-1.1841263E0,9.710249E-1,1.22044876E-1,-1.21948E0,-8.68187E-1,1.209903E0,-1.2459618E0,-8.56837E-1,9.316779E-2,-1.0918211E-1,4.6062407E-1,1.251174E-1,-1.2481604E0,-2.1839885E-1,-1.0770915E0,6.420469E-2,9.6072264E-2,-8.041697E-2,-1.2645824E-1,-1.14781596E-1,-7.466199E-2,3.313191E-2,-1.1009153E-1,1.4709117E-2,1.0157787E-1,-4.9189728E-2,5.6456424E-2,-6.652179E-2],"categories":[],"categories_nodes":[],"categories_segments":[],"categories_sizes":[],"default_left":[0,0,0,0,0,0,0,0,0,0,0,0,0,0,0,0,0,0,0,0,0,0,0,0,0,0,0,0,0,0,0],"id":8,"left_children":[1,3,-1,5,7,-1,9,11,13,15,17,-1,-1,19,-1,21,23,25,27,-1,29,-1,-1,-1,-1,-1,-1,-1,-1,-1,-1],"loss_changes":[2.7721348E3,5.2744385E2,0E0,9.859534E1,5.6559326E1,0E0,9.748291E0,7.0973816E0,2.8945007E0,2.0933838E0,1.626736E1,0E0,0E0,2.0909045E0,0E0,2.7038574E-1,1.2486616E0,2.0429E0,9.153352E0,0E0,2.0719492E0,0E0,0E0,0E0,0E0,0E0,0E0,0E0,0E0,0E0,0E0],"parents":[2147483647,0,0,1,1,3,3,4,4,6,6,7,7,8,8,9,9,10,10,13,13,15,15,16,16,17,17,18,18,20,20],"right_children":[2,4,-1,6,8,-1,10,12,14,16,18,-1,-1,20,-1,22,24,26,28,-1,30,-1,-1,-1,-1,-1,-1,-1,-1,-1,-1],"split_conditions":[3E0,2.3E1,1.2801851E-1,1E0,2E0,1.22044876E-1,2.6E1,1E0,3.9647E0,2.4E-1,2E0,9.316779E-2,-1.0918211E-1,8.367347E-1,1.251174E-1,2.3E1,1.7E1,4.2222E0,8.039216E-1,9.6072264E-2,3.8731E0,-1.2645824E-1,-1.14781596E-1,-7.466199E-2,3.313191E-2,-1.1009153E-1,1.4709117E-2,1.0157787E-1,-4.9189728E-2,5.6456424E-2,-6.652179E-2],"split_indices":[4,10,0,27,1,0,0,27,9,6,1,0,0,7,0,0,0,9,7,0,9,0,0,0,0,0,0,0,0,0,0],"split_type":[0,0,0,0,0,0,0,0,0,0,0,0,0,0,0,0,0,0,0,0,0,0,0,0,0,0,0,0,0,0,0],"sum_hessian":[2.228971E3,1.2666344E3,9.6233655E2,1.1412904E3,1.2534399E2,1.6051212E1,1.1252391E3,1.4105561E1,1.1123843E2,1.0463914E3,7.884778E1,1.2090145E0,1.2896546E1,6.4421306E0,1.04796295E2,1.0439431E3,2.4483016E0,6.3494514E1,1.5353266E1,2.9446342E0,3.4974964E0,8.871515E2,1.5679163E2,1.0658982E0,1.3824035E0,6.2381207E1,1.1133102E0,5.358117E0,9.995149E0,1.6796274E0,1.817869E0],"tree_param":{"num_deleted":"0","num_feature":"30","num_nodes":"31","size_leaf_vector":"1"}},{"base_weights":[5.4367956E-5,-9.4087523E-1,1.2462846E-1,-1.1510801E0,9.6225446E-1,1.17915116E-1,-1.1837293E0,-8.7418735E-1,1.1802951E0,-1.2130617E0,-7.879314E-1,-9.1364376E-2,-2.0237578E-2,4.9727893E-1,1.2223353E-1,-1.2143469E0,-6.9189444E-3,-1.0295917E0,2.024916E-1,9.5784225E-2,-1.618262E-2,-1.23179905E-1,-1.103968E-1,-1.0611909E-1,-2.3585966E-2,1.0828044E-1,-4.241363E-2,-7.000475E-2,4.3590765E-2],"categories":[],"categories_nodes":[],"categories_segments":[],"categories_sizes":[],"default_left":[0,0,0,0,0,0,0,0,0,0,0,0,0,0,0,0,0,0,0,0,0,0,0,0,0,0,0,0,0],"id":9,"left_children":[1,3,-1,5,7,-1,9,11,13,15,17,-1,-1,19,-1,21,-1,23,25,-1,27,-1,-1,-1,-1,-1,-1,-1,-1],"loss_changes":[2.4235396E3,4.72219E2,0E0,8.211365E1,4.815303E1,0E0,1.1197266E1,1.6138554E-1,2.42482E0,1.3459473E0,1.8178272E1,0E0,0E0,1.8623422E0,0E0,5.115967E-1,0E0,1.2675629E0,9.043458E0,0E0,1.7508754E0,0E0,0E0,0E0,0E0,0E0,0E0,0E0,0E0],"parents":[2147483647,0,0,1,1,3,3,4,4,6,6,7,7,8,8,9,9,10,10,13,13,15,15,17,17,18,18,20,20],"right_children":[2,4,-1,6,8,-1,10,12,14,16,18,-1,-1,20,-1,22,-1,24,26,-1,28,-1,-1,-1,-1,-1,-1,-1,-1],"split_conditions":[3E0,2.3E1,1.2462846E-1,1E0,2E0,1.17915116E-1,2.6E1,3.8E1,3.9647E0,4.187E0,2E0,-9.1364376E-2,-2.0237578E-2,8.367347E-1,1.2223353E-1,2.3E1,-6.9189444E-3,4.1934E0,8.039216E-1,9.5784225E-2,3.3E1,-1.23179905E-1,-1.103968E-1,-1.0611909E-1,-2.3585966E-2,1.0828044E-1,-4.241363E-2,-7.000475E-2,4.3590765E-2],"split_indices":[4,10,0,27,1,0,0,0,9,9,1,0,0,7,0,0,0,9,7,0,0,0,0,0,0,0,0,0,0],"split_type":[0,0,0,0,0,0,0,0,0,0,0,0,0,0,0,0,0,0,0,0,0,0,0,0,0,0,0,0,0],"sum_hessian":[2.064782E3,1.1766398E3,8.8814233E2,1.05996E3,1.1667978E2,1.4160792E1,1.0457992E3,1.2063766E1,1.0461601E2,9.717204E2,7.407875E1,1.1054546E1,1.0092194E0,6.8096666E0,9.780635E1,9.705683E2,1.152068E0,5.951719E1,1.4561562E1,3.1335146E0,3.6761518E0,8.292892E2,1.4127911E2,5.6914406E1,2.6027815E0,5.7523856E0,8.8091755E0,1.2447633E0,2.4313886E0],"tree_param":{"num_deleted":"0","num_feature":"30","num_nodes":"29","size_leaf_vector":"1"}},{"base_weights":[3.8694362E-3,-9.1046715E-1,1.2171829E-1,-1.1174035E0,9.681476E-1,-1.1646196E0,-5.622233E-1,-5.935062E-1,1.1520363E0,-1.1939722E0,-9.972865E-1,7.256045E-1,-8.7283385E-1,-3.83939E-1,-9.6252136E-2,1.2085452E-1,7.396627E-1,-3.947534E-2,-1.19585894E-1,7.648099E-2,-1.0199733E-1,-5.517587E-1,1.1444799E-1,-9.5047307E-1,-3.8773358E-1,-7.5775556E-2,-1.1916814E-1,2.2950737E-1,1.1135749E-1,4.481928E-3,-9.081219E-2,-9.609724E-2,-3.0554896E-2,-8.098384E-2,-3.2592488E-3,3.2510825E-2,-2.6791811E-2,-1.6791282E-2,4.1494157E-2],"categories":[],"categories_nodes":[],"categories_segments":[],"categories_sizes":[],"default_left":[0,0,0,0,0,0,0,0,0,0,0,0,0,0,0,0,0,0,0,0,0,0,0,0,0,0,0,0,0,0,0,0,0,0,0,0,0,0,0],"id":10,"left_children":[1,3,-1,5,7,9,11,13,15,17,19,21,23,25,-1,-1,27,-1,-1,-1,-1,29,-1,31,33,-1,35,37,-1,-1,-1,-1,-1,-1,-1,-1,-1,-1,-1],"loss_changes":[2.1227136E3,4.252721E2,0E0,2.512207E1,3.1929108E1,3.2561035E0,3.223777E1,5.6790686E-1,1.38237E0,6.817627E-1,6.4239807E0,9.138381E0,2.0460129E0,8.3958244E-1,0E0,0E0,2.4817305E0,0E0,0E0,0E0,0E0,1.0188446E0,0E0,7.591629E-2,1.5527195E0,0E0,5.289737E-1,6.0977644E-1,0E0,0E0,0E0,0E0,0E0,0E0,0E0,0E0,0E0,0E0,0E0],"parents":[2147483647,0,0,1,1,3,3,4,4,5,5,6,6,7,7,8,8,9,9,10,10,11,11,12,12,13,13,16,16,21,21,23,23,24,24,26,26,27,27],"right_children":[2,4,-1,6,8,10,12,14,16,18,20,22,24,26,-1,-1,28,-1,-1,-1,-1,30,-1,32,34,-1,36,38,-1,-1,-1,-1,-1,-1,-1,-1,-1,-1,-1],"split_conditions":[1E0,2.3E1,1.2171829E-1,1.8E1,2E0,1.5E1,8.039216E-1,1E0,8.3870965E-1,5.3333336E-1,6.052632E-1,2E0,2E0,2.4E1,-9.6252136E-2,1.2085452E-1,2.8E1,-3.947534E-2,-1.19585894E-1,7.648099E-2,-1.0199733E-1,2E0,1.1444799E-1,1E0,2E1,-7.5775556E-2,8.7234044E-1,8.4615386E-1,1.1135749E-1,4.481928E-3,-9.081219E-2,-9.609724E-2,-3.0554896E-2,-8.098384E-2,-3.2592488E-3,3.2510825E-2,-2.6791811E-2,-1.6791282E-2,4.1494157E-2],"split_indices":[18,10,0,10,1,10,7,2,7,7,7,1,1,10,0,0,10,0,0,0,0,2,0,15,10,0,7,7,0,0,0,0,0,0,0,0,0,0,0],"split_type":[0,0,0,0,0,0,0,0,0,0,0,0,0,0,0,0,0,0,0,0,0,0,0,0,0,0,0,0,0,0,0,0,0,0,0,0,0,0,0],"sum_hessian":[1.9114297E3,1.090154E3,8.212757E2,9.8234973E2,1.0780427E2,9.043412E2,7.800855E1,1.1122255E1,9.6682014E1,7.641607E2,1.4018051E2,1.4899094E1,6.310946E1,8.3950615E0,2.7271936E0,8.333204E1,1.3349975E1,2.294762E0,7.618659E2,1.3660657E0,1.3881444E2,3.6008966E0,1.1298197E1,5.3575485E1,9.533977E0,2.708765E0,5.6862965E0,6.328858E0,7.0211167E0,1.6735249E0,1.9273717E0,5.223505E1,1.3404357E0,3.7712767E0,5.7626996E0,1.1289182E0,4.5573783E0,2.0435777E0,4.28528E0],"tree_param":{"num_deleted":"0","num_feature":"30","num_nodes":"39","size_leaf_vector":"1"}},{"base_weights":[5.9717763E-3,-8.8887084E-1,1.19204044E-1,-1.0829172E0,9.205393E-1,1.1602297E-1,-1.1204245E0,-5.712101E-1,1.1194296E0,-1.1314818E0,-2.3407859E-1,-8.0797054E-2,-2.0281175E-1,5.6241727E-1,1.1866714E-1,-1.1710818E0,-9.7298145E-1,-8.067261E-1,9.5264804E-1,4.095138E-2,-5.1336017E-2,9.810433E-2,1.560898E-1,-3.958442E-2,-1.17206596E-1,8.120122E-2,-9.951284E-2,-1.03543855E-1,-3.583135E-2,1.0764728E-1,2.6957396E-2,-3.6980376E-2,6.1369706E-2,7.548656E-2,-1.3071162E-2],"categories":[],"categories_nodes":[],"categories_segments":[],"categories_sizes":[],"default_left":[0,0,0,0,0,0,0,0,0,0,0,0,0,0,0,0,0,0,0,0,0,0,0,0,0,0,0,0,0,0,0,0,0,0,0],"id":11,"left_children":[1,3,-1,5,7,-1,9,11,13,15,17,-1,19,21,-1,23,25,27,29,31,-1,-1,33,-1,-1,-1,-1,-1,-1,-1,-1,-1,-1,-1,-1],"loss_changes":[1.882374E3,3.559328E2,0E0,7.81521E1,2.9849556E1,0E0,8.545166E0,9.0410066E-1,2.598915E0,4.4316406E0,9.152362E0,0E0,4.847266E-1,1.7680655E0,0E0,7.409668E-2,8.055893E0,5.3794384E-1,8.8226795E-2,1.2521785E0,0E0,0E0,1.2871563E0,0E0,0E0,0E0,0E0,0E0,0E0,0E0,0E0,0E0,0E0,0E0,0E0],"parents":[2147483647,0,0,1,1,3,3,4,4,6,6,7,7,8,8,9,9,10,10,12,12,13,13,15,15,16,16,17,17,18,18,19,19,22,22],"right_children":[2,4,-1,6,8,-1,10,12,14,16,18,-1,20,22,-1,24,26,28,30,32,-1,-1,34,-1,-1,-1,-1,-1,-1,-1,-1,-1,-1,-1,-1],"split_conditions":[3E0,3.1E1,1.19204044E-1,1E0,2E0,1.1602297E-1,4.1147E0,8.7234044E-1,4.036E0,2.3E1,2E0,-8.0797054E-2,4.0515E0,8.3870965E-1,1.1866714E-1,5.217391E-1,6.333333E-1,8.367347E-1,7.3333335E-1,3.9387E0,-5.1336017E-2,9.810433E-2,1E0,-3.958442E-2,-1.17206596E-1,8.120122E-2,-9.951284E-2,-1.03543855E-1,-3.583135E-2,1.0764728E-1,2.6957396E-2,-3.6980376E-2,6.1369706E-2,7.548656E-2,-1.3071162E-2],"split_indices":[4,0,0,27,1,0,9,7,9,0,1,0,9,7,0,7,7,7,7,9,0,0,27,0,0,0,0,0,0,0,0,0,0,0,0],"split_type":[0,0,0,0,0,0,0,0,0,0,0,0,0,0,0,0,0,0,0,0,0,0,0,0,0,0,0,0,0,0,0,0,0,0,0],"sum_hessian":[1.7715763E3,1.0098981E3,7.6167816E2,9.1244617E2,9.74519E1,1.451366E1,8.979325E2,1.1244212E1,8.620769E1,8.8659564E2,1.1336862E1,6.1186867E0,5.1255255E0,1.0294558E1,7.591313E1,7.0425464E2,1.8234099E2,7.8628845E0,3.473977E0,3.3578968E0,1.7676289E0,4.373878E0,5.920679E0,1.4041921E0,7.0285046E2,1.7975425E0,1.8054344E2,4.340101E0,3.5227838E0,2.4533248E0,1.0206522E0,2.1618314E0,1.1960655E0,1.3889189E0,4.53176E0],"tree_param":{"num_deleted":"0","num_feature":"30","num_nodes":"35","size_leaf_vector":"1"}},{"base_weights":[6.856233E-3,-8.682378E-1,1.1701953E-1,-1.0671878E0,7.901722E-1,1.1157147E-1,-1.1002287E0,-7.358675E-1,1.0835384E0,-1.1411048E0,-8.53429E-1,-4.298436E-1,-1.0158426E0,5.2926415E-1,1.129963E-1,-1.14326395E-1,-4.679885E-3,-9.00162E-1,9.892146E-2,-1.02847554E-1,1.6858427E-1,-1.10345915E-1,-2.5840629E-2,8.1213765E-2,6.2262653E-3,-9.6292846E-2,-4.7761098E-2,-1.967437E-2,5.6481857E-2,-4.7707032E-2,6.669254E-2],"categories":[],"categories_nodes":[],"categories_segments":[],"categories_sizes":[],"default_left":[0,0,0,0,0,0,0,0,0,0,0,0,0,0,0,0,0,0,0,0,0,0,0,0,0,0,0,0,0,0,0],"id":12,"left_children":[1,3,-1,5,7,-1,9,11,13,15,17,19,21,23,-1,-1,-1,25,-1,-1,27,-1,-1,-1,29,-1,-1,-1,-1,-1,-1],"loss_changes":[1.6799681E3,3.115766E2,0E0,6.190869E1,4.6216846E1,0E0,7.392273E0,1.0159645E0,1.6020126E0,1.6205444E0,1.1379028E1,3.6962216E0,2.5376034E-1,1.2508965E0,0E0,0E0,0E0,2.7044983E0,0E0,0E0,9.4736236E-1,0E0,0E0,0E0,1.5913666E0,0E0,0E0,0E0,0E0,0E0,0E0],"parents":[2147483647,0,0,1,1,3,3,4,4,6,6,7,7,8,8,9,9,10,10,11,11,12,12,13,13,17,17,20,20,24,24],"right_children":[2,4,-1,6,8,-1,10,12,14,16,18,20,22,24,-1,-1,-1,26,-1,-1,28,-1,-1,-1,30,-1,-1,-1,-1,-1,-1],"split_conditions":[3E0,3E1,1.1701953E-1,1E0,2E0,1.1157147E-1,2.4E1,4.0091E0,3.9647E0,2.4E-1,1.2765957E-1,3.8925E0,3.6E1,3.9073E0,1.129963E-1,-1.14326395E-1,-4.679885E-3,2E0,9.892146E-2,-1.02847554E-1,3.2E1,-1.10345915E-1,-2.5840629E-2,8.1213765E-2,3.3E1,-9.6292846E-2,-4.7761098E-2,-1.967437E-2,5.6481857E-2,-4.7707032E-2,6.669254E-2],"split_indices":[4,0,0,27,1,0,0,9,9,6,6,9,0,9,0,0,0,1,0,0,0,0,0,0,0,0,0,0,0,0,0],"split_type":[0,0,0,0,0,0,0,0,0,0,0,0,0,0,0,0,0,0,0,0,0,0,0,0,0,0,0,0,0,0,0],"sum_hessian":[1.6482151E3,9.407854E2,7.074297E2,8.403321E2,1.00453354E2,1.2041222E1,8.2829083E2,1.5954174E1,8.4499176E1,7.0748956E2,1.2080127E2,8.833787E0,7.1203866E0,7.4888325E0,7.7010345E1,7.060517E2,1.4378796E0,1.1831213E2,2.4891393E0,4.056887E0,4.7769E0,5.9726634E0,1.1477232E0,4.5015416E0,2.9872909E0,1.0189728E2,1.6414852E1,2.747329E0,2.0295708E0,1.8857844E0,1.1015065E0],"tree_param":{"num_deleted":"0","num_feature":"30","num_nodes":"31","size_leaf_vector":"1"}},{"base_weights":[-5.7799387E-4,-8.419549E-1,1.1510893E-1,-1.0289195E0,8.490355E-1,1.09041266E-1,-1.060012E0,-4.956798E-1,1.0572425E0,-1.0968775E0,-6.125599E-1,9.606141E-2,-7.360101E-1,1.1396944E-1,5.677043E-1,-1.1230283E-1,-9.461173E-1,-9.0709907E-1,3.2769012E-1,-1.0473048E-1,-2.89049E-1,1.7545748E-1,8.889176E-2,3.425198E-2,-9.623658E-2,-9.1964714E-2,-2.3843473E-2,9.485739E-2,-1.4377204E-2,3.604192E-4,-3.8548466E-2,7.1132384E-2,-6.4471955E-3],"categories":[],"categories_nodes":[],"categories_segments":[],"categories_sizes":[],"default_left":[0,0,0,0,0,0,0,0,0,0,0,0,0,0,0,0,0,0,0,0,0,0,0,0,0,0,0,0,0,0,0,0,0],"id":13,"left_children":[1,3,-1,5,7,-1,9,11,13,15,17,-1,19,-1,21,-1,23,25,27,-1,29,31,-1,-1,-1,-1,-1,-1,-1,-1,-1,-1,-1],"loss_changes":[1.4846719E3,2.807868E2,0E0,5.371875E1,2.5356186E1,0E0,1.230426E1,5.107196E0,2.4658356E0,1.7976685E0,1.7507158E1,0E0,1.2775264E0,0E0,1.4957438E0,0E0,2.708046E0,1.7998505E-1,4.6905174E0,0E0,1.7196244E-1,9.6488005E-1,0E0,0E0,0E0,0E0,0E0,0E0,0E0,0E0,0E0,0E0,0E0],"parents":[2147483647,0,0,1,1,3,3,4,4,6,6,7,7,8,8,9,9,10,10,12,12,14,14,16,16,17,17,18,18,20,20,21,21],"right_children":[2,4,-1,6,8,-1,10,12,14,16,18,-1,20,-1,22,-1,24,26,28,-1,30,32,-1,-1,-1,-1,-1,-1,-1,-1,-1,-1,-1],"split_conditions":[3E0,2.3E1,1.1510893E-1,1E0,2E0,1.09041266E-1,2.6E1,1E0,8.3870965E-1,2.3E1,2E0,9.606141E-2,8.7234044E-1,1.1396944E-1,2.8E1,-1.1230283E-1,6.111111E-1,1E0,8.039216E-1,-1.0473048E-1,3.3E1,1E0,8.889176E-2,3.425198E-2,-9.623658E-2,-9.1964714E-2,-2.3843473E-2,9.485739E-2,-1.4377204E-2,3.604192E-4,-3.8548466E-2,7.1132384E-2,-6.4471955E-3],"split_indices":[4,10,0,27,1,0,0,27,7,0,1,0,7,0,10,0,7,15,7,0,0,27,0,0,0,0,0,0,0,0,0,0,0],"split_type":[0,0,0,0,0,0,0,0,0,0,0,0,0,0,0,0,0,0,0,0,0,0,0,0,0,0,0,0,0,0,0,0,0],"sum_hessian":[1.5301906E3,8.843658E2,6.4582477E2,7.9667303E2,8.769275E1,1.1026308E1,7.856467E2,1.1572231E1,7.6120514E1,7.245037E2,6.1143E1,1.2146908E0,1.035754E1,6.401116E1,1.2109351E1,6.1191254E2,1.12591225E2,4.6585167E1,1.4557836E1,5.313608E0,5.043932E0,6.1480036E0,5.961348E0,1.151952E0,1.1143927E2,4.5358627E1,1.2265387E0,5.8464603E0,8.711375E0,1.4887254E0,3.5552068E0,1.2937586E0,4.8542447E0],"tree_param":{"num_deleted":"0","num_feature":"30","num_nodes":"33","size_leaf_vector":"1"}},{"base_weights":[6.2672575E-3,-8.2738775E-1,1.13434546E-1,-1.0194659E0,8.642816E-1,1.067441E-1,-1.0517262E0,-5.798985E-1,1.0560391E0,-1.066789E0,-1.9616424E-1,-3.5891458E-1,-8.873251E-2,6.391495E-1,1.1269075E-1,-1.0843793E0,-6.9157887E-1,-6.7039835E-1,7.121397E-1,-7.939755E-2,-8.161956E-2,9.736717E-2,3.182131E-1,-1.087482E-1,-5.0905785E-3,-8.338783E-2,-1.8999208E-2,-8.656109E-2,-7.710381E-3,4.2288466E-3,9.7988985E-2,2.2927864E-2,-4.9451705E-2,-7.234325E-3,8.2970396E-2],"categories":[],"categories_nodes":[],"categories_segments":[],"categories_sizes":[],"default_left":[0,0,0,0,0,0,0,0,0,0,0,0,0,0,0,0,0,0,0,0,0,0,0,0,0,0,0,0,0,0,0,0,0,0,0],"id":14,"left_children":[1,3,-1,5,7,-1,9,11,13,15,17,19,-1,21,-1,23,25,27,29,-1,31,-1,33,-1,-1,-1,-1,-1,-1,-1,-1,-1,-1,-1,-1],"loss_changes":[1.3203365E3,2.6321472E2,0E0,4.9965515E1,2.3559883E1,0E0,9.004395E0,3.8523674E-1,1.4513855E0,3.88562E0,6.333302E0,8.648126E-1,0E0,1.0847964E0,0E0,2.09021E0,2.2835407E0,1.0273452E0,8.8188887E-1,0E0,8.6058205E-1,0E0,1.6811652E0,0E0,0E0,0E0,0E0,0E0,0E0,0E0,0E0,0E0,0E0,0E0,0E0],"parents":[2147483647,0,0,1,1,3,3,4,4,6,6,7,7,8,8,9,9,10,10,11,11,13,13,15,15,16,16,17,17,18,18,20,20,22,22],"right_children":[2,4,-1,6,8,-1,10,12,14,16,18,20,-1,22,-1,24,26,28,30,-1,32,-1,34,-1,-1,-1,-1,-1,-1,-1,-1,-1,-1,-1,-1],"split_conditions":[1E0,2.3E1,1.13434546E-1,1E0,2E0,1.067441E-1,4.1054E0,1E0,4.0735E0,2.7E1,2E0,2.4E1,-8.873251E-2,1E0,1.1269075E-1,2.4E-1,2E0,4.209E0,1.4084507E-2,-7.939755E-2,4.0515E0,9.736717E-2,1E0,-1.087482E-1,-5.0905785E-3,-8.338783E-2,-1.8999208E-2,-8.656109E-2,-7.710381E-3,4.2288466E-3,9.7988985E-2,2.2927864E-2,-4.9451705E-2,-7.234325E-3,8.2970396E-2],"split_indices":[18,10,0,27,1,0,9,16,9,0,1,10,0,27,0,6,1,9,6,0,9,0,16,0,0,0,0,0,0,0,0,0,0,0,0],"split_type":[0,0,0,0,0,0,0,0,0,0,0,0,0,0,0,0,0,0,0,0,0,0,0,0,0,0,0,0,0,0,0,0,0,0,0],"sum_hessian":[1.401976E3,8.063478E2,5.9562823E2,7.244846E2,8.186317E1,1.0540449E1,7.1394415E2,9.358386E0,7.250478E1,7.013495E2,1.2594665E1,6.705693E0,2.6526933E0,1.1990194E1,6.0514587E1,6.681364E2,3.3213036E1,8.446559E0,4.1481056E0,1.8849772E0,4.8207154E0,4.874991E0,7.1152034E0,6.660845E2,2.0519795E0,2.5356855E1,7.856181E0,6.0100675E0,2.4364915E0,1.5152433E0,2.632862E0,3.0037208E0,1.8169948E0,4.521392E0,2.5938115E0],"tree_param":{"num_deleted":"0","num_feature":"30","num_nodes":"35","size_leaf_vector":"1"}},{"base_weights":[2.5450033E-3,-8.0555594E-1,1.11956716E-1,-1.0013322E0,7.4598783E-1,1.0298919E-1,-1.0284995E0,-5.554683E-1,1.0351121E0,-1.0929503E-1,-7.932867E-1,-8.1676774E-2,-2.3716962E-1,4.9863434E-1,1.09764695E-1,8.084039E-2,-8.249425E-1,-4.084538E-3,-7.5408824E-2,8.5972466E-2,4.879608E-2,-8.446959E-2,-3.03137E-3,2.408737E-2,-4.6404183E-2,6.1738115E-2,-2.4438506E-2],"categories":[],"categories_nodes":[],"categories_segments":[],"categories_sizes":[],"default_left":[0,0,0,0,0,0,0,0,0,0,0,0,0,0,0,0,0,0,0,0,0,0,0,0,0,0,0],"id":15,"left_children":[1,3,-1,5,7,-1,9,11,13,-1,15,-1,17,19,-1,-1,21,23,-1,-1,25,-1,-1,-1,-1,-1,-1],"loss_changes":[1.1643976E3,2.2810077E2,0E0,3.775824E1,3.2346462E1,0E0,9.089233E0,1.1369281E0,1.7821655E0,0E0,8.013863E0,0E0,1.0357397E0,1.4331496E0,0E0,0E0,2.2125473E0,8.945922E-1,0E0,0E0,1.0016923E0,0E0,0E0,0E0,0E0,0E0,0E0],"parents":[2147483647,0,0,1,1,3,3,4,4,6,6,7,7,8,8,10,10,12,12,13,13,16,16,17,17,20,20],"right_children":[2,4,-1,6,8,-1,10,12,14,-1,16,-1,18,20,-1,-1,22,24,-1,-1,26,-1,-1,-1,-1,-1,-1],"split_conditions":[3E0,2.2E1,1.11956716E-1,1E0,2E0,1.0298919E-1,2.3E1,2.4E1,4.0091E0,-1.0929503E-1,6.333333E-1,-8.1676774E-2,1E0,8.3870965E-1,1.09764695E-1,8.084039E-2,4.1647E0,4.0515E0,-7.5408824E-2,8.5972466E-2,1E0,-8.446959E-2,-3.03137E-3,2.408737E-2,-4.6404183E-2,6.1738115E-2,-2.4438506E-2],"split_indices":[4,10,0,27,1,0,0,10,9,0,7,0,16,7,0,0,9,9,0,0,27,0,0,0,0,0,0],"split_type":[0,0,0,0,0,0,0,0,0,0,0,0,0,0,0,0,0,0,0,0,0,0,0,0,0,0,0],"sum_hessian":[1.2879539E3,7.474766E2,5.4047723E2,6.6404144E2,8.343516E1,8.277097E0,6.5576434E2,1.4998797E1,6.8436356E1,5.1186185E2,1.439025E2,7.376885E0,7.621912E0,8.081331E0,6.0355026E1,2.3134165E0,1.4158908E2,5.9478526E0,1.6740596E0,3.9774227E0,4.1039085E0,1.3809328E2,3.495799E0,4.1917667E0,1.7560854E0,1.0199848E0,3.0839236E0],"tree_param":{"num_deleted":"0","num_feature":"30","num_nodes":"27","size_leaf_vector":"1"}},{"base_weights":[2.4787829E-5,-7.9075956E-1,1.1065072E-1,-9.874926E-1,7.240684E-1,1.0159727E-1,-1.016688E0,-4.5957235E-1,9.686339E-1,-1.071633E-1,-7.150303E-1,-2.5381002E-1,-7.8370196E-1,1.0971337E-1,4.1541386E-1,-8.601432E-1,-1.10780664E-1,-7.718291E-2,8.9131735E-2,-9.081397E-2,-1.6184028E-2,1.552146E-2,9.6301705E-2,-8.896791E-2,3.5793204E-2,-3.6313076E-2,1.2089367E-1,2.6012613E-2,-3.6412176E-2,7.467812E-2,-2.5338158E-2],"categories":[],"categories_nodes":[],"categories_segments":[],"categories_sizes":[],"default_left":[0,0,0,0,0,0,0,0,0,0,0,0,0,0,0,0,0,0,0,0,0,0,0,0,0,0,0,0,0,0,0],"id":16,"left_children":[1,3,-1,5,7,-1,9,11,13,-1,15,17,19,-1,21,23,25,-1,27,-1,-1,29,-1,-1,-1,-1,-1,-1,-1,-1,-1],"loss_changes":[1.0354281E3,2.0638654E2,0E0,3.6785095E1,2.357544E1,0E0,9.227417E0,7.588675E-1,4.274658E0,0E0,8.31427E0,1.8920882E0,2.4748492E-1,0E0,3.0841384E0,3.0954018E0,7.0064025E0,0E0,6.428012E-1,0E0,0E0,1.9974298E0,0E0,0E0,0E0,0E0,0E0,0E0,0E0,0E0,0E0],"parents":[2147483647,0,0,1,1,3,3,4,4,6,6,7,7,8,8,10,10,11,11,12,12,14,14,15,15,16,16,18,18,21,21],"right_children":[2,4,-1,6,8,-1,10,12,14,-1,16,18,20,-1,22,24,26,-1,28,-1,-1,30,-1,-1,-1,-1,-1,-1,-1,-1,-1],"split_conditions":[3E0,2.2E1,1.1065072E-1,1E0,2E0,1.0159727E-1,2.4E1,4.0608E0,8.333333E-1,-1.071633E-1,2E0,3.8925E0,3.5E1,1.0971337E-1,2.8E1,4.187E0,6.9767445E-2,-7.718291E-2,3.4E1,-9.081397E-2,-1.6184028E-2,1E0,9.6301705E-2,-8.896791E-2,3.5793204E-2,-3.6313076E-2,1.2089367E-1,2.6012613E-2,-3.6412176E-2,7.467812E-2,-2.5338158E-2],"split_indices":[4,10,0,27,1,0,0,9,7,0,1,9,0,0,10,9,6,0,0,0,0,27,0,0,0,0,0,0,0,0,0],"split_type":[0,0,0,0,0,0,0,0,0,0,0,0,0,0,0,0,0,0,0,0,0,0,0,0,0,0,0,0,0,0,0],"sum_hessian":[1.1813613E3,6.8913416E2,4.922272E2,6.1023065E2,7.8903496E1,8.279376E0,6.0195123E2,1.3360864E1,6.554263E1,5.0704413E2,9.4907135E1,9.263382E0,4.097482E0,5.239042E1,1.3152216E1,7.6187035E1,1.8720098E1,3.1916819E0,6.0717E0,3.0306726E0,1.0668098E0,8.195626E0,4.956589E0,7.464661E1,1.5404328E0,1.6323616E1,2.3964822E0,4.717912E0,1.3537878E0,1.7256697E0,6.469957E0],"tree_param":{"num_deleted":"0","num_feature":"30","num_nodes":"31","size_leaf_vector":"1"}},{"base_weights":[3.0267553E-3,-7.762075E-1,1.09493755E-1,-9.651331E-1,6.9136494E-1,9.904761E-2,-9.930408E-1,-5.056986E-1,9.768687E-1,-1.047393E0,-7.014313E-1,9.116019E-2,-6.9842637E-1,1.0825399E-1,5.203022E-1,-1.0486477E-1,-2.7555108E-2,5.8965045E-1,-7.569341E-1,-8.88994E-2,-4.5371643E-1,-6.7244996E-3,8.845659E-1,8.341493E-2,-9.508209E-3,-7.7582724E-2,-1.8380465E-3,3.3115596E-2,-6.207295E-2,5.3962916E-2,-2.355411E-2,1.8173939E-2,9.776854E-2],"categories":[],"categories_nodes":[],"categories_segments":[],"categories_sizes":[],"default_left":[0,0,0,0,0,0,0,0,0,0,0,0,0,0,0,0,0,0,0,0,0,0,0,0,0,0,0,0,0,0,0,0,0],"id":17,"left_children":[1,3,-1,5,7,-1,9,11,13,15,17,-1,19,-1,21,-1,-1,23,25,-1,27,29,31,-1,-1,-1,-1,-1,-1,-1,-1,-1,-1],"loss_changes":[9.24311E2,1.764331E2,0E0,3.1658325E1,2.5403152E1,0E0,8.056213E0,4.650502E0,2.292389E0,1.6177368E-1,6.907387E0,0E0,2.2627974E-1,0E0,2.5112212E0,0E0,0E0,7.955967E-1,1.1981163E0,0E0,1.2481285E0,9.179289E-1,3.278308E-1,0E0,0E0,0E0,0E0,0E0,0E0,0E0,0E0,0E0,0E0],"parents":[2147483647,0,0,1,1,3,3,4,4,6,6,7,7,8,8,9,9,10,10,12,12,14,14,17,17,18,18,20,20,21,21,22,22],"right_children":[2,4,-1,6,8,-1,10,12,14,16,18,-1,20,-1,22,-1,-1,24,26,-1,28,30,32,-1,-1,-1,-1,-1,-1,-1,-1,-1,-1],"split_conditions":[1E0,2.2E1,1.09493755E-1,1E0,2E0,9.904761E-2,2.4E1,1E0,8.333333E-1,2.5321102E-1,6.956522E-1,9.116019E-2,3.969E0,1.0825399E-1,2.6E1,-1.0486477E-1,-2.7555108E-2,4.2128E0,4.1647E0,-8.88994E-2,3.9929E0,3.882E0,3.9073E0,8.341493E-2,-9.508209E-3,-7.7582724E-2,-1.8380465E-3,3.3115596E-2,-6.207295E-2,5.3962916E-2,-2.355411E-2,1.8173939E-2,9.776854E-2],"split_indices":[18,10,0,27,1,0,0,27,7,6,7,0,9,0,10,0,0,9,9,0,9,9,9,0,0,0,0,0,0,0,0,0,0],"split_type":[0,0,0,0,0,0,0,0,0,0,0,0,0,0,0,0,0,0,0,0,0,0,0,0,0,0,0,0,0,0,0,0,0],"sum_hessian":[1.084334E3,6.329342E2,4.513998E2,5.610506E2,7.1883606E1,7.408584E0,5.53642E2,1.3694382E1,5.818922E1,4.6447763E2,8.916438E1,1.1927822E0,1.2501599E1,4.613934E1,1.2049882E1,4.6336584E2,1.1118065E0,3.2784634E0,8.588592E1,5.5481424E0,6.953457E0,5.325844E0,6.7240376E0,2.2550402E0,1.0234233E0,8.3694435E1,2.191478E0,1.047579E0,5.905878E0,1.1711348E0,4.154709E0,1.1319835E0,5.592054E0],"tree_param":{"num_deleted":"0","num_feature":"30","num_nodes":"33","size_leaf_vector":"1"}},{"base_weights":[6.203233E-3,-7.612384E-1,1.0846799E-1,-9.2982155E-1,7.236221E-1,9.85664E-2,-9.602798E-1,-4.615647E-1,9.43327E-1,-1.0324593E0,-6.164058E-1,-1.5247296E-1,-9.035128E-2,1.0652635E-1,3.5769117E-1,-1.0490085E-1,-8.5111395E-2,-7.7938086E-1,2.5638912E-2,-6.438651E-2,2.1949613E-1,-2.5566945E-2,5.380888E-1,-1.015925E-1,-7.004428E-2,-2.7480325E-2,9.987017E-2,-3.4136385E-2,4.9191922E-2,1.4597954E-2,8.659553E-2],"categories":[],"categories_nodes":[],"categories_segments":[],"categories_sizes":[],"default_left":[0,0,0,0,0,0,0,0,0,0,0,0,0,0,0,0,0,0,0,0,0,0,0,0,0,0,0,0,0,0,0],"id":18,"left_children":[1,3,-1,5,7,-1,9,11,13,15,17,19,-1,-1,21,-1,-1,23,25,-1,27,-1,29,-1,-1,-1,-1,-1,-1,-1,-1],"loss_changes":[8.371595E2,1.4860196E2,0E0,3.1934387E1,1.62712E1,0E0,1.2353088E1,1.2531402E0,3.3061104E0,4.0078735E-1,9.779747E0,1.4563851E0,0E0,0E0,1.2887093E0,0E0,0E0,6.7801285E-1,6.0778646E0,0E0,9.075384E-1,0E0,9.485011E-1,0E0,0E0,0E0,0E0,0E0,0E0,0E0,0E0],"parents":[2147483647,0,0,1,1,3,3,4,4,6,6,7,7,8,8,9,9,10,10,11,11,14,14,17,17,18,18,20,20,22,22],"right_children":[2,4,-1,6,8,-1,10,12,14,16,18,20,-1,-1,22,-1,-1,24,26,-1,28,-1,30,-1,-1,-1,-1,-1,-1,-1,-1],"split_conditions":[3E0,2.3E1,1.0846799E-1,1E0,1E0,9.85664E-2,2.4E1,4.0515E0,8.3870965E-1,3.9161E0,1E0,3.8925E0,-9.035128E-2,1.0652635E-1,3.914E0,-1.0490085E-1,-8.5111395E-2,8.2857144E-1,1E0,-6.438651E-2,2.4E1,-2.5566945E-2,2.8E1,-1.015925E-1,-7.004428E-2,-2.7480325E-2,9.987017E-2,-3.4136385E-2,4.9191922E-2,1.4597954E-2,8.659553E-2],"split_indices":[4,10,0,27,11,0,0,9,7,9,11,9,0,0,9,0,0,7,2,0,10,0,10,0,0,0,0,0,0,0,0],"split_type":[0,0,0,0,0,0,0,0,0,0,0,0,0,0,0,0,0,0,0,0,0,0,0,0,0,0,0,0,0,0,0],"sum_hessian":[1.0094703E3,5.899543E2,4.1951602E2,5.301389E2,5.9815353E1,7.8069606E0,5.22332E2,9.182109E0,5.0633244E1,4.3005963E2,9.22723E1,6.1946607E0,2.9874482E0,4.122973E1,9.403518E0,3.8971072E2,4.0348915E1,7.342131E1,1.8850986E1,2.35397E0,3.8406906E0,2.0423098E0,7.3612075E0,1.5401017E1,5.8020298E1,1.4952004E1,3.8989813E0,1.1728932E0,2.6677976E0,4.010329E0,3.350879E0],"tree_param":{"num_deleted":"0","num_feature":"30","num_nodes":"31","size_leaf_vector":"1"}},{"base_weights":[5.4525617E-3,-7.304186E-1,1.0754396E-1,-9.1679394E-1,6.793128E-1,9.638441E-2,-9.4595695E-1,-3.1280133E-1,9.321397E-1,-1.0247698E0,-6.894951E-1,8.692674E-2,-4.8929688E-1,1.865461E-1,1.057139E-1,-1.0269566E-1,-1.9938348E-2,-7.396816E-1,8.965061E-2,-8.435782E-2,-3.1884223E-1,8.013477E-2,-1.8968046E-1,-7.617405E-2,-5.8434336E-3,3.4829471E-3,-7.272804E-2,1.184157E-2,-2.9819548E-2],"categories":[],"categories_nodes":[],"categories_segments":[],"categories_sizes":[],"default_left":[0,0,0,0,0,0,0,0,0,0,0,0,0,0,0,0,0,0,0,0,0,0,0,0,0,0,0,0,0],"id":19,"left_children":[1,3,-1,5,7,-1,9,11,13,15,17,-1,19,21,-1,-1,-1,23,-1,-1,25,-1,27,-1,-1,-1,-1,-1,-1],"loss_changes":[7.296595E2,1.4488846E2,0E0,2.7533173E1,1.6518007E1,0E0,8.964813E0,3.3224144E0,4.630848E0,4.5217896E-1,9.85915E0,0E0,4.9930358E-1,2.1533058E0,0E0,0E0,0E0,1.6466599E0,0E0,0E0,1.4983293E0,0E0,2.4179947E-1,0E0,0E0,0E0,0E0,0E0,0E0],"parents":[2147483647,0,0,1,1,3,3,4,4,6,6,7,7,8,8,9,9,10,10,12,12,13,13,17,17,20,20,22,22],"right_children":[2,4,-1,6,8,-1,10,12,14,16,18,-1,20,22,-1,-1,-1,24,-1,-1,26,-1,28,-1,-1,-1,-1,-1,-1],"split_conditions":[3E0,2.2E1,1.0754396E-1,1E0,2E0,9.638441E-2,1.5E1,1E0,4.0091E0,2.173913E-1,1.21212125E-1,8.692674E-2,3.8925E0,1E0,1.057139E-1,-1.0269566E-1,-1.9938348E-2,4.1647E0,8.965061E-2,-8.435782E-2,4.0608E0,8.013477E-2,3.8731E0,-7.617405E-2,-5.8434336E-3,3.4829471E-3,-7.272804E-2,1.184157E-2,-2.9819548E-2],"split_indices":[4,10,0,27,1,0,10,27,9,6,6,0,9,27,0,0,0,9,0,0,9,0,9,0,0,0,0,0,0],"split_type":[0,0,0,0,0,0,0,0,0,0,0,0,0,0,0,0,0,0,0,0,0,0,0,0,0,0,0,0,0],"sum_hessian":[9.2470404E2,5.480834E2,3.7662064E2,4.8439322E2,6.3690155E1,6.907357E0,4.7748587E2,1.2886239E1,5.0803917E1,3.6295197E2,1.14533905E2,1.1641645E0,1.17220745E1,7.65225E0,4.3151665E1,3.6174933E2,1.202654E0,1.1153808E2,2.9958298E0,2.5250006E0,9.197074E0,2.4760735E0,5.1761765E0,1.07925285E2,3.6127934E0,5.4192247E0,3.7778494E0,1.3244778E0,3.8516986E0],"tree_param":{"num_deleted":"0","num_feature":"30","num_nodes":"29","size_leaf_vector":"1"}},{"base_weights":[-2.9564977E-3,-7.2462946E-1,1.0671791E-1,-9.071436E-1,6.403011E-1,-9.9999684E-1,-4.8956707E-1,-4.0128738E-1,8.970646E-1,-1.0969088E-2,-1.0034277E0,-6.8027097E-1,1.5381467E-1,-1.2527364E-1,-8.95968E-2,1.0852749E-1,9.9326855E-1,-1.0164714E-1,-7.6654077E-1,-7.134425E-1,2.375715E-2,1.1442041E-1,-1.439129E-1,-6.580114E-2,1.8334623E-1,4.4912097E-1,-2.13003E-1,5.328611E-1,1.0297861E-1,-8.496374E-2,-3.4716137E-2,-5.5399846E-2,-8.202043E-2,-6.0171515E-2,1.452429E-2,5.992064E-2,-1.0725872E-3,5.2276134E-2,1.42336665E-2,2.7880564E-2,-5.0320067E-2,7.458749E-2,-6.4223533E-4],"categories":[],"categories_nodes":[],"categories_segments":[],"categories_sizes":[],"default_left":[0,0,0,0,0,0,0,0,0,0,0,0,0,0,0,0,0,0,0,0,0,0,0,0,0,0,0,0,0,0,0,0,0,0,0,0,0,0,0,0,0,0,0],"id":20,"left_children":[1,3,-1,5,7,9,11,13,15,-1,17,19,21,23,-1,25,27,-1,29,31,-1,-1,33,-1,35,37,39,41,-1,-1,-1,-1,-1,-1,-1,-1,-1,-1,-1,-1,-1,-1,-1],"loss_changes":[6.550932E2,1.26785736E2,0E0,1.6852448E1,1.6496872E1,1.0046997E0,1.0327887E1,1.6113436E0,3.5877E0,0E0,3.4375E-1,2.1319351E0,6.022547E0,1.6439444E0,0E0,7.986958E-1,1.7918015E-1,0E0,5.077381E-1,6.087971E-1,0E0,0E0,2.226958E0,0E0,5.430155E-1,3.2880306E-3,7.084104E-1,6.083342E-1,0E0,0E0,0E0,0E0,0E0,0E0,0E0,0E0,0E0,0E0,0E0,0E0,0E0,0E0,0E0],"parents":[2147483647,0,0,1,1,3,3,4,4,5,5,6,6,7,7,8,8,10,10,11,11,12,12,13,13,15,15,16,16,18,18,19,19,22,22,24,24,25,25,26,26,27,27],"right_children":[2,4,-1,6,8,10,12,14,16,-1,18,20,22,24,-1,26,28,-1,30,32,-1,-1,34,-1,36,38,40,42,-1,-1,-1,-1,-1,-1,-1,-1,-1,-1,-1,-1,-1,-1,-1],"split_conditions":[3E0,2.2E1,1.0671791E-1,1.6E1,2E0,5.3333336E-1,2E0,4.0608E0,3.9647E0,-1.0969088E-2,3.9501E0,4.209E0,7.419355E-1,3.8925E0,-8.95968E-2,3.8731E0,4.0424E0,-1.0164714E-1,8.2051283E-1,3.8731E0,2.375715E-2,1.1442041E-1,1.8E1,-6.580114E-2,3.9073E0,8.5106385E-1,8.367347E-1,8.4E-1,1.0297861E-1,-8.496374E-2,-3.4716137E-2,-5.5399846E-2,-8.202043E-2,-6.0171515E-2,1.452429E-2,5.992064E-2,-1.0725872E-3,5.2276134E-2,1.42336665E-2,2.7880564E-2,-5.0320067E-2,7.458749E-2,-6.4223533E-4],"split_indices":[4,10,0,10,1,7,1,9,9,0,9,9,7,9,0,9,9,0,7,9,0,0,10,0,9,7,7,7,0,0,0,0,0,0,0,0,0,0,0,0,0,0,0],"split_type":[0,0,0,0,0,0,0,0,0,0,0,0,0,0,0,0,0,0,0,0,0,0,0,0,0,0,0,0,0,0,0,0,0,0,0,0,0,0,0,0,0,0,0],"sum_hessian":[8.4624866E2,5.0560443E2,3.4064426E2,4.4626648E2,5.933793E1,3.6394427E2,8.2322205E1,1.162342E1,4.7714508E1,1.52371E0,3.6242056E2,6.345597E1,1.8866236E1,8.265059E0,3.3583603E0,5.419725E0,4.2294785E1,3.4038696E2,2.2033619E1,6.1457546E1,1.9984269E0,3.7034853E0,1.516275E1,2.6164498E0,5.64861E0,2.4391448E0,2.98058E0,4.2539277E0,3.8040855E1,1.753355E1,4.5000687E0,2.7129675E1,3.432787E1,5.4512267E0,9.711523E0,1.133082E0,4.515528E0,1.3992633E0,1.0398816E0,1.1206424E0,1.8599375E0,2.7748096E0,1.4791181E0],"tree_param":{"num_deleted":"0","num_feature":"30","num_nodes":"43","size_leaf_vector":"1"}},{"base_weights":[-5.6417505E-3,-7.122482E-1,1.0597836E-1,-8.787303E-1,6.7194104E-1,9.4464496E-2,-9.087792E-1,-3.368425E-1,9.1122377E-1,-1.0024804E-1,-6.294662E-1,8.349859E-2,-5.679966E-1,3.4708756E-1,9.8053E-1,-6.7582726E-1,6.7897296E-1,-3.9780673E-1,-7.830611E-2,6.1891276E-1,-4.4582084E-2,6.116404E-1,1.0329985E-1,-7.387803E-2,-3.901243E-2,1.0306254E-2,1.0028988E-1,-6.530368E-2,-9.3377335E-3,7.522604E-2,2.3978746E-2,6.883619E-2,9.532475E-3],"categories":[],"categories_nodes":[],"categories_segments":[],"categories_sizes":[],"default_left":[0,0,0,0,0,0,0,0,0,0,0,0,0,0,0,0,0,0,0,0,0,0,0,0,0,0,0,0,0,0,0,0,0],"id":21,"left_children":[1,3,-1,5,7,-1,9,11,13,-1,15,-1,17,19,21,23,25,27,-1,29,-1,31,-1,-1,-1,-1,-1,-1,-1,-1,-1,-1,-1],"loss_changes":[5.884149E2,1.0888165E2,0E0,2.3865448E1,1.262204E1,0E0,1.0193909E1,3.3215613E0,1.2825203E0,0E0,6.924469E0,0E0,3.1628132E-2,1.5883685E0,7.304382E-2,1.5722427E0,6.701236E-1,5.035846E-1,0E0,7.004058E-2,0E0,2.1113157E-1,0E0,0E0,0E0,0E0,0E0,0E0,0E0,0E0,0E0,0E0,0E0],"parents":[2147483647,0,0,1,1,3,3,4,4,6,6,7,7,8,8,10,10,12,12,13,13,14,14,15,15,16,16,17,17,19,19,21,21],"right_children":[2,4,-1,6,8,-1,10,12,14,-1,16,-1,18,20,22,24,26,28,-1,30,-1,32,-1,-1,-1,-1,-1,-1,-1,-1,-1,-1,-1],"split_conditions":[3E0,2.3E1,1.0597836E-1,1E0,2E0,9.4464496E-2,2.3E1,1E0,2.5E1,-1.0024804E-1,1.21212125E-1,8.349859E-2,1E0,3.2E1,4.0735E0,2E0,4.0235E0,3.9754E0,-7.830611E-2,1E0,-4.4582084E-2,4E1,1.0329985E-1,-7.387803E-2,-3.901243E-2,1.0306254E-2,1.0028988E-1,-6.530368E-2,-9.3377335E-3,7.522604E-2,2.3978746E-2,6.883619E-2,9.532475E-3],"split_indices":[4,10,0,27,1,0,0,27,10,0,6,0,2,0,9,1,9,9,0,27,0,0,0,0,0,0,0,0,0,0,0,0,0],"split_type":[0,0,0,0,0,0,0,0,0,0,0,0,0,0,0,0,0,0,0,0,0,0,0,0,0,0,0,0,0,0,0,0,0],"sum_hessian":[7.7959467E2,4.6892673E2,3.1066794E2,4.189081E2,5.0018612E1,6.2981434E0,4.1260995E2,9.511539E0,4.0507076E1,3.0702356E2,1.0558641E2,1.1367211E0,8.374818E0,5.0893106E0,3.5417763E1,1.024402E2,3.1462102E0,6.2659817E0,2.1088362E0,3.9534328E0,1.1358778E0,5.986411E0,2.9431353E1,8.26442E1,1.9795998E1,1.6071005E0,1.5391098E0,2.7855182E0,3.4804635E0,2.196626E0,1.7568069E0,4.921836E0,1.0645753E0],"tree_param":{"num_deleted":"0","num_feature":"30","num_nodes":"33","size_leaf_vector":"1"}},{"base_weights":[6.5999436E-3,-6.850852E-1,1.05313234E-1,-9.0232444E-1,3.6339983E-1,8.939186E-2,-9.2787176E-1,-4.31907E-1,7.929572E-1,-9.933106E-1,-6.680616E-1,7.3762916E-2,-5.1354134E-1,1.05034485E-1,2.6936874E-1,-9.959469E-1,-2.2626191E-2,-7.0506966E-1,3.8546E-2,-2.1511172E-1,-6.6397935E-1,8.624038E-2,4.7655918E-2,-1.0100372E-1,-7.804814E-2,-7.224051E-2,1.4645204E-2,-3.949185E-2,4.6582412E-2,-7.529969E-2,-1.4980105E-2,-1.7888887E-2,6.514368E-2],"categories":[],"categories_nodes":[],"categories_segments":[],"categories_sizes":[],"default_left":[0,0,0,0,0,0,0,0,0,0,0,0,0,0,0,0,0,0,0,0,0,0,0,0,0,0,0,0,0,0,0,0,0],"id":22,"left_children":[1,3,-1,5,7,-1,9,11,13,15,17,-1,19,-1,21,23,-1,25,-1,27,29,-1,31,-1,-1,-1,-1,-1,-1,-1,-1,-1,-1],"loss_changes":[5.184855E2,9.855481E1,0E0,1.723581E1,2.5872303E1,0E0,5.3379517E0,2.9427528E0,6.303667E0,3.4069824E-1,3.159912E0,0E0,1.0106263E0,0E0,2.2536306E0,5.770874E-2,0E0,1.1673737E0,0E0,1.4193485E0,6.470995E-1,0E0,1.9989228E0,0E0,0E0,0E0,0E0,0E0,0E0,0E0,0E0,0E0,0E0],"parents":[2147483647,0,0,1,1,3,3,4,4,6,6,7,7,8,8,9,9,10,10,12,12,14,14,15,15,17,17,19,19,20,20,22,22],"right_children":[2,4,-1,6,8,-1,10,12,14,16,18,-1,20,-1,22,24,-1,26,-1,28,30,-1,32,-1,-1,-1,-1,-1,-1,-1,-1,-1,-1],"split_conditions":[3E0,2.7E1,1.05313234E-1,1E0,2E0,8.939186E-2,2.3E1,1E0,8.148148E-1,2.4E-1,1.21212125E-1,7.3762916E-2,3.9073E0,1.05034485E-1,1E0,3.9161E0,-2.2626191E-2,4.1808E0,3.8546E-2,3.8925E0,8.7234044E-1,8.624038E-2,4.0735E0,-1.0100372E-1,-7.804814E-2,-7.224051E-2,1.4645204E-2,-3.949185E-2,4.6582412E-2,-7.529969E-2,-1.4980105E-2,-1.7888887E-2,6.514368E-2],"split_indices":[4,0,0,27,1,0,0,27,7,6,6,0,9,0,27,9,0,9,0,9,7,0,9,0,0,0,0,0,0,0,0,0,0],"split_type":[0,0,0,0,0,0,0,0,0,0,0,0,0,0,0,0,0,0,0,0,0,0,0,0,0,0,0,0,0,0,0,0,0],"sum_hessian":[7.142712E2,4.3025073E2,2.8402045E2,3.5652127E2,7.372947E1,4.522906E0,3.5199835E2,2.5854855E1,4.787462E1,2.7892245E2,7.3075905E1,1.1626315E0,2.4692223E1,3.142201E1,1.6452606E1,2.776697E2,1.2527555E0,7.0915535E1,2.1603663E0,9.08998E0,1.5602242E1,3.690789E0,1.2761817E1,2.5716483E2,2.0504894E1,6.964924E1,1.2662971E0,7.5233994E0,1.5665807E0,1.2903796E1,2.6984468E0,9.79162E0,2.9701972E0],"tree_param":{"num_deleted":"0","num_feature":"30","num_nodes":"33","size_leaf_vector":"1"}},{"base_weights":[1.0318361E-2,-6.647102E-1,1.047131E-1,-8.9964414E-1,2.4395888E-1,8.136718E-2,-9.1838217E-1,-4.2058477E-1,7.45526E-1,-9.696209E-1,-6.8508214E-1,7.682312E-2,-4.956417E-1,1.0516375E-1,1.9114578E-1,-1.629099E-2,-9.725714E-2,2.4383416E-2,-7.0590936E-2,-9.853925E-2,-3.1511617E-1,8.521707E-2,-3.137174E-2,-1.9060886E-2,-4.4578448E-2,-1.4716975E-2,7.6645724E-2],"categories":[],"categories_nodes":[],"categories_segments":[],"categories_sizes":[],"default_left":[0,0,0,0,0,0,0,0,0,0,0,0,0,0,0,0,0,0,0,0,0,0,0,0,0,0,0],"id":23,"left_children":[1,3,-1,5,7,-1,9,11,13,15,17,-1,19,-1,21,-1,-1,-1,-1,-1,23,-1,25,-1,-1,-1,-1],"loss_changes":[4.6320166E2,8.579431E1,0E0,1.0979614E1,2.8024204E1,0E0,3.1101685E0,3.6285338E0,7.900362E0,4.520111E-1,1.3380795E0,0E0,2.7701712E0,0E0,2.7044625E0,0E0,0E0,0E0,0E0,0E0,3.5315657E-1,0E0,1.4602108E0,0E0,0E0,0E0,0E0],"parents":[2147483647,0,0,1,1,3,3,4,4,6,6,7,7,8,8,9,9,10,10,12,12,14,14,20,20,22,22],"right_children":[2,4,-1,6,8,-1,10,12,14,16,18,-1,20,-1,22,-1,-1,-1,-1,-1,24,-1,26,-1,-1,-1,-1],"split_conditions":[3E0,2.6E1,1.047131E-1,1E0,2E0,8.136718E-2,2.3E1,1E0,8.0701756E-1,5.217391E-1,6.111111E-1,7.682312E-2,8.4615386E-1,1.0516375E-1,1E0,-1.629099E-2,-9.725714E-2,2.4383416E-2,-7.0590936E-2,-9.853925E-2,2.9E1,8.521707E-2,1E0,-1.9060886E-2,-4.4578448E-2,-1.4716975E-2,7.6645724E-2],"split_indices":[4,0,0,27,1,0,0,27,7,7,7,0,7,0,27,0,0,0,0,0,0,0,25,0,0,0,0],"split_type":[0,0,0,0,0,0,0,0,0,0,0,0,0,0,0,0,0,0,0,0,0,0,0,0,0,0,0],"sum_hessian":[6.598374E2,3.9986172E2,2.5997565E2,3.177248E2,8.213694E1,2.978318E0,3.147465E2,3.5398155E1,4.673878E1,2.554803E2,5.9266182E1,1.5537184E0,3.384444E1,2.953404E1,1.720474E1,1.135848E0,2.5434445E2,1.0648592E0,5.8201324E1,7.914525E0,2.5929914E1,3.620316E0,1.3584424E1,1.4537028E1,1.1392885E1,1.2574833E1,1.0095916E0],"tree_param":{"num_deleted":"0","num_feature":"30","num_nodes":"27","size_leaf_vector":"1"}},{"base_weights":[1.210799E-2,-6.3634074E-1,1.0416247E-1,-8.6737186E-1,3.8209352E-1,-9.4358706E-1,-5.999212E-1,-4.2399144E-1,8.5863775E-1,-9.476344E-1,-1.3837195E-2,-6.317941E-1,4.6498813E-2,-7.367506E-2,-3.264179E-1,1.0463029E-1,4.8333785E-1,-1.0121878E-1,-8.8119484E-2,-6.681078E-2,-4.269371E-1,-1.1024065E-1,-5.083856E-2,-3.197771E-2,5.799648E-1,-2.2269838E-2,-8.296716E-2,1.1585367E-2,-1.49246175E-2,3.738744E-2,8.878546E-2],"categories":[],"categories_nodes":[],"categories_segments":[],"categories_sizes":[],"default_left":[0,0,0,0,0,0,0,0,0,0,0,0,0,0,0,0,0,0,0,0,0,0,0,0,0,0,0,0,0,0,0],"id":24,"left_children":[1,3,-1,5,7,9,11,13,15,17,-1,19,-1,-1,21,-1,23,-1,-1,-1,25,27,-1,-1,29,-1,-1,-1,-1,-1,-1],"loss_changes":[4.0627994E2,8.8189896E1,0E0,5.6441956E0,2.7152977E1,6.3586426E-1,2.6802864E0,5.706477E-1,2.6043968E0,1.1172485E-1,0E0,2.2577477E-1,0E0,0E0,8.115325E-1,0E0,1.4720206E0,0E0,0E0,0E0,8.9387107E-1,1.1744554E-1,0E0,0E0,6.296096E-1,0E0,0E0,0E0,0E0,0E0,0E0],"parents":[2147483647,0,0,1,1,3,3,4,4,5,5,6,6,7,7,8,8,9,9,11,11,14,14,16,16,20,20,21,21,24,24],"right_children":[2,4,-1,6,8,10,12,14,16,18,-1,20,-1,-1,22,-1,24,-1,-1,-1,26,28,-1,-1,30,-1,-1,-1,-1,-1,-1],"split_conditions":[1E0,1.9E1,1.0416247E-1,1.5E1,2E0,2.4E-1,1.3095239E-1,8.292683E-1,8.148148E-1,1.1E1,-1.3837195E-2,1E0,4.6498813E-2,-7.367506E-2,8.59375E-1,1.0463029E-1,2E1,-1.0121878E-1,-8.8119484E-2,-6.681078E-2,7.8947365E-2,8.4782606E-1,-5.083856E-2,-3.197771E-2,2.8E1,-2.2269838E-2,-8.296716E-2,1.1585367E-2,-1.49246175E-2,3.738744E-2,8.878546E-2],"split_indices":[18,10,0,10,1,6,6,7,7,10,0,2,0,0,7,0,10,0,0,0,6,7,0,0,10,0,0,0,0,0,0],"split_type":[0,0,0,0,0,0,0,0,0,0,0,0,0,0,0,0,0,0,0,0,0,0,0,0,0,0,0,0,0,0,0],"sum_hessian":[6.065853E2,3.724051E2,2.3418022E2,3.036668E2,6.873828E1,2.3435481E2,6.9312E1,2.5579788E1,4.315849E1,2.3300677E2,1.3480428E0,6.7692665E1,1.6193348E0,4.5249467E0,2.105484E1,2.757964E1,1.5578851E1,1.1096104E2,1.2204573E2,5.557916E1,1.21135025E1,1.0356806E1,1.0698035E1,1.4250609E0,1.41537895E1,9.067877E0,3.045626E0,1.2339672E0,9.122839E0,9.804992E0,4.3487973E0],"tree_param":{"num_deleted":"0","num_feature":"30","num_nodes":"31","size_leaf_vector":"1"}},{"base_weights":[3.4299328E-3,-6.409865E-1,1.0366686E-1,-8.7866604E-1,2.2104275E-1,7.6711915E-2,-8.961715E-1,-4.0168193E-1,6.763101E-1,-9.6712637E-1,-5.9024715E-1,8.146532E-2,-4.9556366E-1,9.911592E-1,2.0215484E-1,-9.707194E-1,-1.4207299E-2,-6.1894536E-1,1.7695185E-2,-9.1697544E-2,-3.7789142E-1,3.3968844E-2,1.01257406E-1,-1.344834E-1,5.904508E-1,-9.784941E-2,-5.1519115E-2,-4.5705114E-2,-7.59669E-2,-4.5367032E-2,5.8518406E-2,6.784648E-2,-6.294135E-2,-7.12139E-3,7.2018765E-2],"categories":[],"categories_nodes":[],"categories_segments":[],"categories_sizes":[],"default_left":[0,0,0,0,0,0,0,0,0,0,0,0,0,0,0,0,0,0,0,0,0,0,0,0,0,0,0,0,0,0,0,0,0,0,0],"id":25,"left_children":[1,3,-1,5,7,-1,9,11,13,15,17,-1,19,21,23,25,-1,27,-1,-1,29,-1,-1,31,33,-1,-1,-1,-1,-1,-1,-1,-1,-1,-1],"loss_changes":[3.725124E2,7.079173E1,0E0,8.474838E0,2.1611294E1,0E0,5.244705E0,4.1053796E0,6.346504E0,5.0213623E-1,1.2765751E0,0E0,1.1766076E0,2.0141602E-2,2.5311074E0,2.566223E-1,0E0,8.219204E-1,0E0,0E0,2.1419404E0,0E0,0E0,4.7968955E0,8.14878E-1,0E0,0E0,0E0,0E0,0E0,0E0,0E0,0E0,0E0,0E0],"parents":[2147483647,0,0,1,1,3,3,4,4,6,6,7,7,8,8,9,9,10,10,12,12,13,13,14,14,15,15,17,17,20,20,23,23,24,24],"right_children":[2,4,-1,6,8,-1,10,12,14,16,18,-1,20,22,24,26,-1,28,-1,-1,30,-1,-1,32,34,-1,-1,-1,-1,-1,-1,-1,-1,-1,-1],"split_conditions":[3E0,1.8E1,1.0366686E-1,1E0,2E0,7.6711915E-2,1.5E1,1E0,8.0701756E-1,2.0481928E-1,1.21212125E-1,8.146532E-2,8.292683E-1,3.9073E0,2.5E1,3.9862E0,-1.4207299E-2,3.8635E0,1.7695185E-2,-9.1697544E-2,4.2046E0,3.3968844E-2,1.01257406E-1,3.8996E0,3.8797E0,-9.784941E-2,-5.1519115E-2,-4.5705114E-2,-7.59669E-2,-4.5367032E-2,5.8518406E-2,6.784648E-2,-6.294135E-2,-7.12139E-3,7.2018765E-2],"split_indices":[4,10,0,27,1,0,10,27,7,6,6,0,7,9,10,9,0,9,0,0,9,0,0,9,9,0,0,0,0,0,0,0,0,0,0],"split_type":[0,0,0,0,0,0,0,0,0,0,0,0,0,0,0,0,0,0,0,0,0,0,0,0,0,0,0,0,0,0,0,0,0,0,0],"sum_hessian":[5.574677E2,3.435685E2,2.1389922E2,2.6929807E2,7.4270424E1,2.3835723E0,2.669145E2,3.1416267E1,4.285416E1,2.1490822E2,5.200629E1,1.7009718E0,2.9715296E1,2.5098114E1,1.7756046E1,2.1380058E2,1.1076376E0,5.0317337E1,1.6889523E0,5.0036025E0,2.4711693E1,1.3354081E0,2.3762705E1,9.860776E0,7.8952703E0,2.0908405E2,4.7165318E0,2.5373962E1,2.4943375E1,2.339946E1,1.3122337E0,3.5912056E0,6.2695704E0,1.3682438E0,6.527026E0],"tree_param":{"num_deleted":"0","num_feature":"30","num_nodes":"35","size_leaf_vector":"1"}},{"base_weights":[7.1974862E-3,-6.1286616E-1,1.0321119E-1,-8.179671E-1,3.8977405E-1,-9.3485487E-1,-4.7940388E-1,-3.4006524E-1,7.555648E-1,-9.539257E-2,-6.6287E-1,-5.128267E-1,3.9003775E-1,-4.8823464E-1,2.2125508E-1,9.994527E-2,1.7926225E-1,-3.545392E-1,-7.7198523E-1,-7.130745E-1,-4.1467673E-1,-3.0607251E-2,8.478158E-2,-1.285912E-1,-6.3689254E-2,-2.979585E-2,4.5754957E-1,-1.3947709E-1,8.0766246E-2,3.446209E-4,-4.342716E-2,-9.059956E-2,-3.8493168E-2,-7.685164E-2,3.9943764E-3,1.6011784E-3,-5.6739092E-2,2.361895E-2,-3.987519E-2,7.875659E-2,-1.4885197E-2,-3.3035558E-2,3.8863454E-2],"categories":[],"categories_nodes":[],"categories_segments":[],"categories_sizes":[],"default_left":[0,0,0,0,0,0,0,0,0,0,0,0,0,0,0,0,0,0,0,0,0,0,0,0,0,0,0,0,0,0,0,0,0,0,0,0,0,0,0,0,0,0,0],"id":26,"left_children":[1,3,-1,5,7,9,11,13,15,-1,17,19,21,23,25,-1,27,29,31,33,35,-1,-1,37,-1,-1,39,41,-1,-1,-1,-1,-1,-1,-1,-1,-1,-1,-1,-1,-1,-1,-1],"loss_changes":[3.290783E2,6.666647E1,0E0,1.0164276E1,1.5065128E1,3.9620972E-1,2.2596073E0,1.70559E0,5.0577927E0,0E0,2.7368784E-1,1.0542412E0,1.2765791E0,7.47257E-1,7.1291244E-1,0E0,2.5758684E0,1.7566979E-1,2.3053074E-1,9.1585827E-1,3.1978464E0,0E0,0E0,6.646506E-1,0E0,0E0,8.4249973E-1,1.036848E0,0E0,0E0,0E0,0E0,0E0,0E0,0E0,0E0,0E0,0E0,0E0,0E0,0E0,0E0,0E0],"parents":[2147483647,0,0,1,1,3,3,4,4,5,5,6,6,7,7,8,8,10,10,11,11,12,12,13,13,14,14,16,16,17,17,18,18,19,19,20,20,23,23,26,26,27,27],"right_children":[2,4,-1,6,8,10,12,14,16,-1,18,20,22,24,26,-1,28,30,32,34,36,-1,-1,38,-1,-1,40,42,-1,-1,-1,-1,-1,-1,-1,-1,-1,-1,-1,-1,-1,-1,-1],"split_conditions":[3E0,2E1,1.0321119E-1,1.5E1,2E0,3.9161E0,1.21212125E-1,8.7234044E-1,8.2608694E-1,-9.539257E-2,3.9239E0,3.7784E0,4.0303E0,2.9E1,3.8925E0,9.994527E-2,4.0735E0,7.631579E-1,8.039216E-1,1.9E1,3.8731E0,-3.0607251E-2,8.478158E-2,3.8996E0,-6.3689254E-2,-2.979585E-2,4.0515E0,2.8E1,8.0766246E-2,3.446209E-4,-4.342716E-2,-9.059956E-2,-3.8493168E-2,-7.685164E-2,3.9943764E-3,1.6011784E-3,-5.6739092E-2,2.361895E-2,-3.987519E-2,7.875659E-2,-1.4885197E-2,-3.3035558E-2,3.8863454E-2],"split_indices":[4,10,0,10,1,9,6,7,7,0,9,9,9,0,9,0,9,7,7,10,9,0,0,9,0,0,9,10,0,0,0,0,0,0,0,0,0,0,0,0,0,0,0],"split_type":[0,0,0,0,0,0,0,0,0,0,0,0,0,0,0,0,0,0,0,0,0,0,0,0,0,0,0,0,0,0,0,0,0,0,0,0,0,0,0,0,0,0,0],"sum_hessian":[5.1582056E2,3.216359E2,1.9418468E2,2.6716797E2,5.446793E1,1.972923E2,6.987566E1,1.8208326E1,3.62596E1,1.8202213E2,1.527017E1,6.7683945E1,2.1917198E0,1.4508722E1,3.6996036E0,2.4961704E1,1.1297898E1,5.1021266E0,1.0168043E1,2.0202066E1,4.748188E1,1.0009866E0,1.1907332E0,4.7886653E0,9.720057E0,1.0754776E0,2.6241262E0,8.012045E0,3.2858534E0,1.1036582E0,3.9984682E0,6.557037E0,3.6110065E0,1.8797495E1,1.404571E0,1.2663395E1,3.4818485E1,2.0910285E0,2.697637E0,1.5058551E0,1.1182711E0,6.1600432E0,1.8520015E0],"tree_param":{"num_deleted":"0","num_feature":"30","num_nodes":"43","size_leaf_vector":"1"}},{"base_weights":[5.295341E-3,-6.0131073E-1,1.0279764E-1,1.0213965E-1,-7.186664E-1,-9.341495E-1,-3.1731045E-1,-9.383973E-2,-8.787499E-3,-4.466371E-1,5.513477E-1,-4.8704925E-1,4.9110743E-1,-1.917413E-1,8.0163485E-1,-6.3913696E-2,-3.953439E-2,-6.644281E-2,1.0836402E-1,-5.6806143E-2,1.1720056E-2,9.621632E-2,1.7993533E-3],"categories":[],"categories_nodes":[],"categories_segments":[],"categories_sizes":[],"default_left":[0,0,0,0,0,0,0,0,0,0,0,0,0,0,0,0,0,0,0,0,0,0,0],"id":27,"left_children":[1,3,-1,-1,5,7,9,-1,-1,11,13,15,17,19,21,-1,-1,-1,-1,-1,-1,-1,-1],"loss_changes":[2.9799536E2,5.8153275E1,0E0,0E0,2.407254E1,5.747223E-1,1.147427E1,0E0,0E0,3.5568962E0,2.6457915E0,9.249153E-1,3.5374367E0,5.529001E-1,1.2678657E0,0E0,0E0,0E0,0E0,0E0,0E0,0E0,0E0],"parents":[2147483647,0,0,1,1,4,4,5,5,6,6,9,9,10,10,11,11,12,12,13,13,14,14],"right_children":[2,4,-1,-1,6,8,10,-1,-1,12,14,16,18,20,22,-1,-1,-1,-1,-1,-1,-1,-1],"split_conditions":[3E0,1E0,1.0279764E-1,1.0213965E-1,2.3E1,2.173913E-1,3.3E1,-9.383973E-2,-8.787499E-3,1.21212125E-1,2E0,3.8366E0,2E0,8.5106385E-1,8.518519E-1,-6.3913696E-2,-3.953439E-2,-6.644281E-2,1.0836402E-1,-5.6806143E-2,1.1720056E-2,9.621632E-2,1.7993533E-3],"split_indices":[4,27,0,0,0,6,0,0,0,6,1,9,1,7,7,0,0,0,0,0,0,0,0],"split_type":[0,0,0,0,0,0,0,0,0,0,0,0,0,0,0,0,0,0,0,0,0,0,0],"sum_hessian":[4.7835886E2,3.0051788E2,1.7784099E2,1.9748386E1,2.8076947E2,1.8182329E2,9.894619E1,1.808069E2,1.0163872E0,8.654685E1,1.2399344E1,8.343196E1,3.114891E0,3.1830266E0,9.216318E0,2.9138348E1,5.429361E1,1.0147085E0,2.1001825E0,1.0568959E0,2.1261308E0,7.460275E0,1.7560427E0],"tree_param":{"num_deleted":"0","num_feature":"30","num_nodes":"23","size_leaf_vector":"1"}},{"base_weights":[9.042171E-3,-5.6957906E-1,1.0240336E-1,1.0124221E-1,-6.867439E-1,-9.2027265E-1,-2.831494E-1,-9.388772E-1,-5.499403E-1,-3.7324536E-1,7.5109E-1,-9.496246E-2,-3.698199E-1,1.2971556E-2,-8.772381E-2,-4.048651E-1,6.889139E-2,8.9139745E-2,6.902501E-3,1.0483743E-2,-6.787475E-2,-6.0704477E-2,4.551576E-2,-4.2774543E-2,2.177113E-2],"categories":[],"categories_nodes":[],"categories_segments":[],"categories_sizes":[],"default_left":[0,0,0,0,0,0,0,0,0,0,0,0,0,0,0,0,0,0,0,0,0,0,0,0,0],"id":28,"left_children":[1,3,-1,-1,5,7,9,11,13,15,17,-1,19,21,-1,23,-1,-1,-1,-1,-1,-1,-1,-1,-1],"loss_changes":[2.5940933E2,5.2842133E1,0E0,0E0,2.4483284E1,6.264343E-1,9.381477E0,6.060333E-1,1.9178493E0,3.318818E0,7.192464E-1,0E0,7.3672974E-1,1.5895196E0,0E0,1.3541603E0,0E0,0E0,0E0,0E0,0E0,0E0,0E0,0E0,0E0],"parents":[2147483647,0,0,1,1,4,4,5,5,6,6,7,7,8,8,9,9,10,10,12,12,13,13,15,15],"right_children":[2,4,-1,-1,6,8,10,12,14,16,18,-1,20,22,-1,24,-1,-1,-1,-1,-1,-1,-1,-1,-1],"split_conditions":[3E0,1E0,1.0240336E-1,1.0124221E-1,2.3E1,1E0,1.21212125E-1,3.9862E0,2.1E1,1E0,7.058824E-1,-9.496246E-2,4.0144E0,1.9E1,-8.772381E-2,4.209E0,6.889139E-2,8.9139745E-2,6.902501E-3,1.0483743E-2,-6.787475E-2,-6.0704477E-2,4.551576E-2,-4.2774543E-2,2.177113E-2],"split_indices":[4,27,0,0,0,16,6,9,0,25,7,0,9,0,0,9,0,0,0,0,0,0,0,0,0],"split_type":[0,0,0,0,0,0,0,0,0,0,0,0,0,0,0,0,0,0,0,0,0,0,0,0,0],"sum_hessian":[4.397084E2,2.8033514E2,1.5937325E2,1.8803444E1,2.615317E2,1.6485992E2,9.667179E1,1.5551216E2,9.347766E0,8.951312E1,7.15867E0,1.5197318E2,3.5389757E0,3.7899265E0,5.5578394E0,8.752635E1,1.9867682E0,5.682761E0,1.4759091E0,1.6556948E0,1.8832809E0,1.4225104E0,2.3674161E0,8.472554E1,2.80081E0],"tree_param":{"num_deleted":"0","num_feature":"30","num_nodes":"25","size_leaf_vector":"1"}},{"base_weights":[8.329293E-3,-5.693619E-1,1.020556E-1,-7.3206884E-1,5.3067744E-1,8.4400766E-2,-7.633922E-1,-1.5668751E-1,7.8831065E-1,-9.003537E-1,-4.615828E-1,-5.546722E-2,-5.1258806E-2,9.7397625E-2,3.3784342E-1,-9.760184E-2,-8.221852E-2,-4.979628E-1,4.137337E-2,1.2674508E-2,-1.3173069E-1,-1.4837454E-1,6.26238E-1,-5.7628613E-2,-3.475592E-2,-3.875215E-2,-5.508707E-4,2.3478E-2,-4.0097483E-2,7.1447216E-2,1.9262953E-2],"categories":[],"categories_nodes":[],"categories_segments":[],"categories_sizes":[],"default_left":[0,0,0,0,0,0,0,0,0,0,0,0,0,0,0,0,0,0,0,0,0,0,0,0,0,0,0,0,0,0,0],"id":29,"left_children":[1,3,-1,5,7,-1,9,11,13,15,17,-1,19,-1,21,-1,-1,23,-1,-1,25,27,29,-1,-1,-1,-1,-1,-1,-1,-1],"loss_changes":[2.3833209E2,4.68338E1,0E0,1.1825104E1,6.1473436E0,0E0,8.785446E0,3.956861E-1,1.7541676E0,9.688568E-2,2.483921E0,0E0,1.469451E-1,0E0,1.3270047E0,0E0,0E0,6.140938E-1,0E0,0E0,2.1587329E-1,4.8951742E-1,8.105278E-2,0E0,0E0,0E0,0E0,0E0,0E0,0E0,0E0],"parents":[2147483647,0,0,1,1,3,3,4,4,6,6,7,7,8,8,9,9,10,10,12,12,14,14,17,17,20,20,21,21,22,22],"right_children":[2,4,-1,6,8,-1,10,12,14,16,18,-1,20,-1,22,-1,-1,24,-1,-1,26,28,30,-1,-1,-1,-1,-1,-1,-1,-1],"split_conditions":[3E0,2.2E1,1.020556E-1,1E0,2E0,8.4400766E-2,1.5E1,8.2051283E-1,8.333333E-1,1.1E1,1.21212125E-1,-5.546722E-2,2.3E1,9.7397625E-2,2.5E1,-9.760184E-2,-8.221852E-2,1.8E1,4.137337E-2,1.2674508E-2,2.4E1,8.367347E-1,3.2E1,-5.7628613E-2,-3.475592E-2,-3.875215E-2,-5.508707E-4,2.3478E-2,-4.0097483E-2,7.1447216E-2,1.9262953E-2],"split_indices":[4,10,0,27,1,0,10,7,7,10,6,0,10,0,10,0,0,10,0,0,10,7,10,0,0,0,0,0,0,0,0],"split_type":[0,0,0,0,0,0,0,0,0,0,0,0,0,0,0,0,0,0,0,0,0,0,0,0,0,0,0,0,0,0,0],"sum_hessian":[4.055827E2,2.5849417E2,1.4708853E2,2.2547818E2,3.3015987E1,3.8883035E0,2.2158987E2,9.107913E0,2.3908075E1,1.5105687E2,7.0533005E1,1.0150547E0,8.092858E0,1.6107164E1,7.8009114E0,7.092126E1,8.0135605E1,6.8132385E1,2.4006205E0,2.340546E0,5.7523127E0,3.0851045E0,4.715807E0,4.293974E1,2.519265E1,1.2166315E0,4.535681E0,1.2538143E0,1.8312901E0,3.3802342E0,1.3355725E0],"tree_param":{"num_deleted":"0","num_feature":"30","num_nodes":"31","size_leaf_vector":"1"}},{"base_weights":[1.4499878E-4,-5.580915E-1,1.01717286E-1,-7.758878E-1,2.4532305E-1,7.470771E-2,-7.9882795E-1,9.826515E-2,-2.4892472E-2,-8.871157E-1,-5.34533E-1,-3.475138E-1,3.236958E-1,-9.0851974E-1,-4.7048834E-1,-5.763173E-1,4.756294E-2,-2.0827223E-1,-7.123964E-2,-3.4110755E-2,9.563718E-2,-9.206837E-2,-3.3830944E-2,7.076232E-3,-8.390361E-2,-6.300033E-2,-2.9796595E-2,-3.9118405E-2,1.6065573E-2,-1.9495329E-2,5.8479454E-2],"categories":[],"categories_nodes":[],"categories_segments":[],"categories_sizes":[],"default_left":[0,0,0,0,0,0,0,0,0,0,0,0,0,0,0,0,0,0,0,0,0,0,0,0,0,0,0,0,0,0,0],"id":30,"left_children":[1,3,-1,5,7,-1,9,-1,11,13,15,17,19,21,23,25,-1,27,-1,29,-1,-1,-1,-1,-1,-1,-1,-1,-1,-1,-1],"loss_changes":[2.1451253E2,4.287496E1,0E0,7.310089E0,1.0541272E1,0E0,3.9542618E0,0E0,4.566431E0,8.2766724E-1,2.3862019E0,9.2112756E-1,4.459092E0,6.095886E-1,1.8449997E0,5.3709793E-1,0E0,1.1863592E0,0E0,1.4534588E0,0E0,0E0,0E0,0E0,0E0,0E0,0E0,0E0,0E0,0E0,0E0],"parents":[2147483647,0,0,1,1,3,3,4,4,6,6,8,8,9,9,10,10,11,11,12,12,13,13,14,14,15,15,17,17,19,19],"right_children":[2,4,-1,6,8,-1,10,-1,12,14,16,18,20,22,24,26,-1,28,-1,30,-1,-1,-1,-1,-1,-1,-1,-1,-1,-1,-1],"split_conditions":[3E0,1.9E1,1.01717286E-1,1E0,1E0,7.470771E-2,2.3E1,9.826515E-2,2E0,1E0,4.1808E0,4.0608E0,1E0,3.9862E0,2.1E1,2E0,4.756294E-2,3.969E0,-7.123964E-2,4.1435E0,9.563718E-2,-9.206837E-2,-3.3830944E-2,7.076232E-3,-8.390361E-2,-6.300033E-2,-2.9796595E-2,-3.9118405E-2,1.6065573E-2,-1.9495329E-2,5.8479454E-2],"split_indices":[4,10,0,27,27,0,0,0,1,2,9,9,2,9,0,1,0,9,0,9,0,0,0,0,0,0,0,0,0,0,0],"split_type":[0,0,0,0,0,0,0,0,0,0,0,0,0,0,0,0,0,0,0,0,0,0,0,0,0,0,0,0,0,0,0],"sum_hessian":[3.758346E2,2.4293903E2,1.3289557E2,1.9115375E2,5.1785282E1,2.36817E0,1.8878558E2,1.3181312E1,3.860397E1,1.3974666E2,4.9038918E1,2.0050318E1,1.8553652E1,1.317951E2,7.951558E0,4.7503468E1,1.5354494E0,1.5649254E1,4.4010644E0,1.2455561E1,6.0980916E0,1.2844052E2,3.3545809E0,3.5483844E0,4.403174E0,3.8763718E1,8.739748E0,1.0421849E1,5.227404E0,1.0429993E1,2.0255678E0],"tree_param":{"num_deleted":"0","num_feature":"30","num_nodes":"31","size_leaf_vector":"1"}},{"base_weights":[6.6030417E-3,-5.198452E-1,1.01393275E-1,-7.7574754E-1,2.2266024E-1,-8.8971424E-1,-4.1062644E-1,-2.9318747E-1,6.602635E-1,-8.9823025E-1,8.66761E-3,-4.475801E-1,2.194758E-1,7.492882E-2,-3.835148E-1,3.200611E-1,1.0740345E-1,-9.1062284E-1,-3.2407624E-1,-3.612889E-1,-8.460115E-2,-2.9763926E-4,3.3137593E-2,-9.0270415E-2,-2.17227E-1,8.468355E-2,1.1051925E-1,-9.8968774E-2,-8.2533486E-2,1.6384987E-2,-6.562182E-2,-3.939205E-2,2.7453408E-2,-3.5833918E-2,6.25513E-2,-1.0705206E-3,8.7124E-2],"categories":[],"categories_nodes":[],"categories_segments":[],"categories_sizes":[],"default_left":[0,0,0,0,0,0,0,0,0,0,0,0,0,0,0,0,0,0,0,0,0,0,0,0,0,0,0,0,0,0,0,0,0,0,0,0,0],"id":31,"left_children":[1,3,-1,5,7,9,11,13,15,17,-1,19,21,-1,23,25,-1,27,29,31,-1,-1,-1,-1,33,-1,35,-1,-1,-1,-1,-1,-1,-1,-1,-1,-1],"loss_changes":[1.8599956E2,4.3943405E1,0E0,6.772743E0,1.3697364E1,1.1577759E0,1.0916357E0,2.9379296E0,4.2554274E0,6.216202E-1,0E0,1.0912199E0,7.65214E-2,0E0,2.0974236E0,2.0428152E0,0E0,2.9922485E-2,8.002802E-1,8.3725834E-1,0E0,0E0,0E0,0E0,2.773552E0,0E0,1.3923081E0,0E0,0E0,0E0,0E0,0E0,0E0,0E0,0E0,0E0,0E0],"parents":[2147483647,0,0,1,1,3,3,4,4,5,5,6,6,7,7,8,8,9,9,11,11,12,12,14,14,15,15,17,17,18,18,19,19,24,24,26,26],"right_children":[2,4,-1,6,8,10,12,14,16,18,-1,20,22,-1,24,26,-1,28,30,32,-1,-1,-1,-1,34,-1,36,-1,-1,-1,-1,-1,-1,-1,-1,-1,-1],"split_conditions":[3E0,1.8E1,1.01393275E-1,1.5E1,2E0,1.923077E-1,1.21212125E-1,1E0,1E0,3.9862E0,8.66761E-3,4.0303E0,1.7567568E-1,7.492882E-2,8.4615386E-1,1E0,1.0740345E-1,1.1E1,4.0144E0,4.0018E0,-8.460115E-2,-2.9763926E-4,3.3137593E-2,-9.0270415E-2,4.1147E0,8.468355E-2,1E0,-9.8968774E-2,-8.2533486E-2,1.6384987E-2,-6.562182E-2,-3.939205E-2,2.7453408E-2,-3.5833918E-2,6.25513E-2,-1.0705206E-3,8.7124E-2],"split_indices":[4,10,0,10,1,6,6,27,2,9,0,9,6,0,7,27,0,10,9,9,0,0,0,0,9,0,25,0,0,0,0,0,0,0,0,0,0],"split_type":[0,0,0,0,0,0,0,0,0,0,0,0,0,0,0,0,0,0,0,0,0,0,0,0,0,0,0,0,0,0,0,0,0,0,0,0,0],"sum_hessian":[3.487455E2,2.2936124E2,1.1938429E2,1.7054027E2,5.882097E1,1.288767E2,4.1663563E1,2.7148394E1,3.1672575E1,1.2784172E2,1.03498E0,3.9629105E1,2.0344608E0,1.5830473E0,2.5565346E1,1.8354794E1,1.3317782E1,1.2456703E2,3.274687E0,3.414159E1,5.4875135E0,1.006663E0,1.0277978E0,5.127507E0,2.043784E1,4.357915E0,1.3996878E1,5.913903E1,6.5428E1,1.5315231E0,1.7431641E0,3.2836803E1,1.3047869E0,1.7998827E1,2.4390116E0,1.2923401E1,1.0734777E0],"tree_param":{"num_deleted":"0","num_feature":"30","num_nodes":"37","size_leaf_vector":"1"}},{"base_weights":[8.543807E-3,-5.1159143E-1,1.0110333E-1,-8.570743E-1,-7.546048E-2,-8.660137E-1,8.481554E-3,9.61772E-2,-2.3027086E-1,-8.786282E-2,-3.3178416E-1,-3.057589E-1,6.957335E-1,7.5395103E-3,-6.330197E-2,-3.3039168E-1,2.5591314E-1,8.66479E-2,2.1336346E-3,-2.4588682E-2,-6.2680356E-2,5.8542173E-2,-2.9872248E-2],"categories":[],"categories_nodes":[],"categories_segments":[],"categories_sizes":[],"default_left":[0,0,0,0,0,0,0,0,0,0,0,0,0,0,0,0,0,0,0,0,0,0,0],"id":32,"left_children":[1,3,-1,5,7,9,-1,-1,11,-1,13,15,17,-1,-1,19,21,-1,-1,-1,-1,-1,-1],"loss_changes":[1.6873048E2,3.2038654E1,0E0,1.0736542E0,1.5519816E1,5.020828E-1,0E0,0E0,6.063997E0,0E0,5.7800233E-1,1.1649928E0,7.431998E-1,0E0,0E0,1.730691E0,8.7747574E-1,0E0,0E0,0E0,0E0,0E0,0E0],"parents":[2147483647,0,0,1,1,3,3,4,4,5,5,8,8,10,10,11,11,12,12,15,15,16,16],"right_children":[2,4,-1,6,8,10,-1,-1,12,-1,14,16,18,-1,-1,20,22,-1,-1,-1,-1,-1,-1],"split_conditions":[3E0,1.5E1,1.0110333E-1,1.891892E-1,1E0,3.9862E0,8.481554E-3,9.61772E-2,1.21212125E-1,-8.786282E-2,4.0144E0,3.6E1,6.923077E-1,7.5395103E-3,-6.330197E-2,4.0424E0,8.7234044E-1,8.66479E-2,2.1336346E-3,-2.4588682E-2,-6.2680356E-2,5.8542173E-2,-2.9872248E-2],"split_indices":[4,10,0,6,27,9,0,0,6,0,9,0,7,0,0,9,7,0,0,0,0,0,0],"split_type":[0,0,0,0,0,0,0,0,0,0,0,0,0,0,0,0,0,0,0,0,0,0,0],"sum_hessian":[3.215998E2,2.120623E2,1.0953748E2,1.1778961E2,9.427268E1,1.1676199E2,1.027614E0,1.156622E1,8.270647E1,1.1343875E2,3.3232453E0,7.709174E1,5.6147237E0,1.7319235E0,1.5913217E0,7.4247314E1,2.8444288E0,4.2530947E0,1.3616288E0,5.9199512E1,1.5047801E1,1.7495285E0,1.0949004E0],"tree_param":{"num_deleted":"0","num_feature":"30","num_nodes":"23","size_leaf_vector":"1"}},{"base_weights":[-9.432505E-3,-5.0607395E-1,1.00805305E-1,9.722005E-2,-6.069682E-1,-8.677255E-1,-2.5009644E-1,-8.9246964E-1,-5.48714E-1,-3.5682136E-1,3.632544E-1,-9.063387E-2,-5.31949E-1,9.821505E-3,-7.619284E-1,-5.167328E-1,-2.6005402E-1,-2.8295586E-1,8.358171E-2,-1.8345375E-3,-6.296185E-2,-9.009827E-3,8.570115E-3,-8.585304E-2,-2.2859946E-2,4.364425E-3,-6.281113E-2,3.898225E-2,-3.4031793E-2,-7.639464E-2,2.0642923E-2],"categories":[],"categories_nodes":[],"categories_segments":[],"categories_sizes":[],"default_left":[0,0,0,0,0,0,0,0,0,0,0,0,0,0,0,0,0,0,0,0,0,0,0,0,0,0,0,0,0,0,0],"id":33,"left_children":[1,3,-1,-1,5,7,9,11,13,15,17,-1,19,21,23,25,27,29,-1,-1,-1,-1,-1,-1,-1,-1,-1,-1,-1,-1,-1],"loss_changes":[1.5287743E2,3.0910332E1,0E0,0E0,1.7548958E1,3.7786865E-1,5.4978156E0,1.9882202E-2,1.2588077E0,9.543457E-1,4.099538E0,0E0,2.9645836E-1,3.7216883E-2,1.9619036E-1,1.6196809E0,2.524063E0,1.5913246E0,0E0,0E0,0E0,0E0,0E0,0E0,0E0,0E0,0E0,0E0,0E0,0E0,0E0],"parents":[2147483647,0,0,1,1,4,4,5,5,6,6,7,7,8,8,9,9,10,10,12,12,13,13,14,14,15,15,16,16,17,17],"right_children":[2,4,-1,-1,6,8,10,12,14,16,18,-1,20,22,24,26,28,30,-1,-1,-1,-1,-1,-1,-1,-1,-1,-1,-1,-1,-1],"split_conditions":[3E0,1E0,1.00805305E-1,9.722005E-2,1.5E1,3.9161E0,4.0931E0,1E0,3.9239E0,3.8366E0,2E0,-9.063387E-2,3.6069E0,3.9187E0,8.108108E-1,7.9310346E-1,3.8635E0,8.4210527E-1,8.358171E-2,-1.8345375E-3,-6.296185E-2,-9.009827E-3,8.570115E-3,-8.585304E-2,-2.2859946E-2,4.364425E-3,-6.281113E-2,3.898225E-2,-3.4031793E-2,-7.639464E-2,2.0642923E-2],"split_indices":[4,27,0,0,10,9,9,2,9,9,1,0,9,9,7,7,9,7,0,0,0,0,0,0,0,0,0,0,0,0,0],"split_type":[0,0,0,0,0,0,0,0,0,0,0,0,0,0,0,0,0,0,0,0,0,0,0,0,0,0,0,0,0,0,0],"sum_hessian":[3.00523E2,2.0228769E2,9.823533E1,1.2372561E1,1.8991513E2,1.0890759E2,8.100753E1,9.940002E1,9.507578E0,6.9357376E1,1.1650154E1,9.425991E1,5.1401067E0,2.8902442E0,6.617334E0,2.4511423E1,4.4845955E1,5.09043E0,6.5597243E0,1.0110807E0,4.1290255E0,1.1666255E0,1.7236187E0,5.086294E0,1.5310396E0,4.164875E0,2.0346548E1,4.5059195E0,4.034004E1,2.2842896E0,2.80614E0],"tree_param":{"num_deleted":"0","num_feature":"30","num_nodes":"31","size_leaf_vector":"1"}},{"base_weights":[2.0875309E-2,-4.5064363E-1,1.0053249E-1,-8.2451713E-1,-1.2322637E-2,-9.729181E-2,-6.8724054E-1,9.439761E-2,-1.4178172E-1,-7.3478353E-1,-3.8624865E-1,-3.109554E-1,2.0120457E-1,-3.7556118E-1,-7.937055E-2,4.106991E-2,-5.8120465E-1,-8.2803555E-2,-2.535706E-1,-9.3875095E-2,8.122575E-1,-5.51335E-2,4.602043E-2,1.0200114E-2,-4.71379E-3,-7.869287E-2,-1.5801612E-2,-6.3545905E-2,-1.5778882E-2,-6.057017E-2,3.6043338E-3,2.817958E-2,8.652166E-2],"categories":[],"categories_nodes":[],"categories_segments":[],"categories_sizes":[],"default_left":[0,0,0,0,0,0,0,0,0,0,0,0,0,0,0,0,0,0,0,0,0,0,0,0,0,0,0,0,0,0,0,0,0],"id":34,"left_children":[1,3,-1,5,7,-1,9,-1,11,13,15,17,19,21,-1,23,25,-1,27,29,31,-1,-1,-1,-1,-1,-1,-1,-1,-1,-1,-1,-1],"loss_changes":[1.297129E2,3.0958286E1,0E0,1.4086914E0,1.1028961E1,0E0,5.2292824E-1,0E0,4.6105647E0,7.089424E-1,8.4015083E-1,1.3592229E0,4.8539953E0,1.5174735E0,0E0,2.6326818E-2,4.671855E-1,0E0,1.6935966E0,1.2696273E0,1.5044212E-3,0E0,0E0,0E0,0E0,0E0,0E0,0E0,0E0,0E0,0E0,0E0,0E0],"parents":[2147483647,0,0,1,1,3,3,4,4,6,6,8,8,9,9,10,10,11,11,12,12,13,13,15,15,16,16,18,18,19,19,20,20],"right_children":[2,4,-1,6,8,-1,10,-1,12,14,16,18,20,22,-1,24,26,-1,28,30,32,-1,-1,-1,-1,-1,-1,-1,-1,-1,-1,-1,-1],"split_conditions":[1E0,1.5E1,1.0053249E-1,1.1E1,1E0,-9.729181E-2,3.9161E0,9.439761E-2,2E0,3.5417E0,3.9239E0,3.6402E0,4.0608E0,3.5352E0,-7.937055E-2,2.1E1,8.039216E-1,-8.2803555E-2,8.2222223E-1,2.4E1,2.8E1,-5.51335E-2,4.602043E-2,1.0200114E-2,-4.71379E-3,-7.869287E-2,-1.5801612E-2,-6.3545905E-2,-1.5778882E-2,-6.057017E-2,3.6043338E-3,2.817958E-2,8.652166E-2],"split_indices":[18,10,0,10,27,0,9,0,1,9,9,9,9,9,0,0,7,0,7,0,0,0,0,0,0,0,0,0,0,0,0,0,0],"split_type":[0,0,0,0,0,0,0,0,0,0,0,0,0,0,0,0,0,0,0,0,0,0,0,0,0,0,0,0,0,0,0,0,0],"sum_hessian":[2.7746533E2,1.8797415E2,8.9491196E1,1.0096943E2,8.7004715E1,4.5593704E1,5.5375725E1,9.623724E0,7.738099E1,4.6577415E1,8.798311E0,5.1883495E1,2.5497496E1,7.6024365E0,3.897498E1,3.0037699E0,5.7945414E0,3.8412697E0,4.8042225E1,1.7765057E1,7.732439E0,6.562557E0,1.0398792E0,1.6840839E0,1.319686E0,3.3207211E0,2.47382E0,8.503549E0,3.9538677E1,2.8550673E0,1.490999E1,1.2756797E0,6.456759E0],"tree_param":{"num_deleted":"0","num_feature":"30","num_nodes":"33","size_leaf_vector":"1"}},{"base_weights":[1.779137E-2,-4.2811713E-1,1.00270525E-1,-7.751936E-1,-4.550884E-2,5.707596E-2,-7.973622E-1,-3.550015E-1,4.4277862E-1,-9.485231E-2,-6.578564E-1,7.157918E-2,-4.0386948E-1,-2.677629E-1,6.2325436E-1,-6.9921106E-1,-4.02618E-1,-2.4509259E-1,-5.066173E-1,-5.7286706E-2,2.883283E-2,9.4891936E-2,2.465767E-1,-4.059268E-2,-7.456054E-2,-2.517961E-3,-5.7061505E-2,-3.4597535E-2,4.1199394E-2,-9.4903894E-2,-3.5601147E-2,3.2048233E-2,-5.3522117E-2,-4.653716E-3,6.0591586E-2],"categories":[],"categories_nodes":[],"categories_segments":[],"categories_sizes":[],"default_left":[0,0,0,0,0,0,0,0,0,0,0,0,0,0,0,0,0,0,0,0,0,0,0,0,0,0,0,0,0,0,0,0,0,0,0],"id":35,"left_children":[1,3,-1,5,7,-1,9,11,13,-1,15,-1,17,19,21,23,25,27,29,-1,31,-1,33,-1,-1,-1,-1,-1,-1,-1,-1,-1,-1,-1,-1],"loss_changes":[1.1658323E2,2.4233646E1,0E0,3.3125381E0,1.3454451E1,0E0,1.3715591E0,3.1362433E0,4.6013026E0,0E0,2.7238274E-1,0E0,7.3516846E-1,7.136475E-1,3.1856537E0,2.9333496E-1,5.990652E-1,1.6427909E0,1.7305536E0,0E0,9.7076714E-1,0E0,1.5319533E0,0E0,0E0,0E0,0E0,0E0,0E0,0E0,0E0,0E0,0E0,0E0,0E0],"parents":[2147483647,0,0,1,1,3,3,4,4,6,6,7,7,8,8,10,10,12,12,13,13,14,14,15,15,16,16,17,17,18,18,20,20,22,22],"right_children":[2,4,-1,6,8,-1,10,12,14,-1,16,-1,18,20,22,24,26,28,30,-1,32,-1,34,-1,-1,-1,-1,-1,-1,-1,-1,-1,-1,-1,-1],"split_conditions":[3E0,1.5E1,1.00270525E-1,1E0,1E0,5.707596E-2,1.9E1,1E0,1.8E1,-9.485231E-2,3.9161E0,7.157918E-2,2.5E1,2.4E1,8.148148E-1,3.5417E0,3.9239E0,1E0,8.4E-1,-5.7286706E-2,7.9310346E-1,9.4891936E-2,4.0091E0,-4.059268E-2,-7.456054E-2,-2.517961E-3,-5.7061505E-2,-3.4597535E-2,4.1199394E-2,-9.4903894E-2,-3.5601147E-2,3.2048233E-2,-5.3522117E-2,-4.653716E-3,6.0591586E-2],"split_indices":[4,10,0,27,11,0,0,27,10,0,9,0,0,0,7,9,9,2,7,0,7,0,9,0,0,0,0,0,0,0,0,0,0,0,0],"split_type":[0,0,0,0,0,0,0,0,0,0,0,0,0,0,0,0,0,0,0,0,0,0,0,0,0,0,0,0,0,0,0,0,0,0,0],"sum_hessian":[2.6347827E2,1.8175575E2,8.172252E1,9.4765144E1,8.6990616E1,1.134566E0,9.363058E1,5.3410347E1,3.358027E1,4.2154774E1,5.1475803E1,1.7354637E0,5.167488E1,6.703727E0,2.6876541E1,4.2801506E1,8.674297E0,2.1632076E1,3.0042807E1,2.8453143E0,3.8584123E0,1.359956E1,1.3276982E1,7.1775694E0,3.5623936E1,3.0259E0,5.648398E0,1.9163383E1,2.4686918E0,6.2833347E0,2.3759472E1,2.8279943E0,1.030418E0,7.791736E0,5.485246E0],"tree_param":{"num_deleted":"0","num_feature":"30","num_nodes":"35","size_leaf_vector":"1"}},{"base_weights":[-1.5609693E-2,-4.6600956E-1,1.0000493E-1,9.406409E-2,-5.5484116E-1,-6.650393E-1,1.4588675E-2,-7.574939E-1,-4.2661706E-1,-9.710509E-2,8.25668E-2,-7.721781E-1,3.063955E-2,8.069795E-2,-5.544451E-1,2.2532457E-1,-2.7074876E-1,-9.367219E-2,-7.025543E-2,-9.738643E-3,5.9411176E-2,-6.080233E-2,-2.4659833E-2,5.242095E-2,1.2193165E-2,-3.994484E-2,6.536754E-2],"categories":[],"categories_nodes":[],"categories_segments":[],"categories_sizes":[],"default_left":[0,0,0,0,0,0,0,0,0,0,0,0,0,0,0,0,0,0,0,0,0,0,0,0,0,0,0],"id":36,"left_children":[1,3,-1,-1,5,7,9,11,13,15,-1,17,-1,19,21,23,25,-1,-1,-1,-1,-1,-1,-1,-1,-1,-1],"loss_changes":[1.1180998E2,2.1677433E1,0E0,0E0,1.0042034E1,2.6300926E0,2.517281E0,1.7246323E0,2.6208868E0,1.4349693E0,0E0,4.2150116E-1,0E0,8.686676E-1,3.7551308E-1,2.1840218E-1,2.2128096E0,0E0,0E0,0E0,0E0,0E0,0E0,0E0,0E0,0E0,0E0],"parents":[2147483647,0,0,1,1,4,4,5,5,6,6,7,7,8,8,9,9,11,11,13,13,14,14,15,15,16,16],"right_children":[2,4,-1,-1,6,8,10,12,14,16,-1,18,-1,20,22,24,26,-1,-1,-1,-1,-1,-1,-1,-1,-1,-1],"split_conditions":[1E0,1E0,1.0000493E-1,9.406409E-2,4.0018E0,3.8366E0,4.3276E0,2.4E-1,3.8731E0,4.0515E0,8.25668E-2,3.5111E0,3.063955E-2,2E0,1E0,4.0049E0,1.21212125E-1,-9.367219E-2,-7.025543E-2,-9.738643E-3,5.9411176E-2,-6.080233E-2,-2.4659833E-2,5.242095E-2,1.2193165E-2,-3.994484E-2,6.536754E-2],"split_indices":[18,27,0,0,9,9,9,6,9,9,0,9,0,1,2,9,6,0,0,0,0,0,0,0,0,0,0],"split_type":[0,0,0,0,0,0,0,0,0,0,0,0,0,0,0,0,0,0,0,0,0,0,0,0,0,0,0],"sum_hessian":[2.4239993E2,1.6830519E2,7.409474E1,9.427735E0,1.5887746E2,1.3297562E2,2.5901833E1,9.425039E1,3.8725235E1,2.3540363E1,2.361468E0,9.323768E1,1.0127081E0,7.8679924E0,3.0857243E1,8.135802E0,1.5404562E1,2.4018978E1,6.9218704E1,6.443348E0,1.4246446E0,2.5452383E1,5.404859E0,1.0449688E0,7.090833E0,1.4020503E1,1.3840586E0],"tree_param":{"num_deleted":"0","num_feature":"30","num_nodes":"27","size_leaf_vector":"1"}},{"base_weights":[2.232265E-2,-3.948727E-1,9.975797E-2,-7.273951E-1,9.163063E-2,-7.4335694E-1,3.550173E-2,-1.9292998E-1,4.6543923E-1,-8.817869E-2,-5.883049E-1,-7.164193E-1,-5.3586066E-2,1.8452595E-1,9.712111E-2,-6.408643E-1,7.729234E-2,5.81162E-5,-8.363917E-2,-7.939957E-2,6.555326E-2,4.800129E-3,9.312123E-2,-6.851404E-2,5.2851937E-3,-1.8248884E-3,6.7055576E-2,6.552269E-2,-3.2073297E-2],"categories":[],"categories_nodes":[],"categories_segments":[],"categories_sizes":[],"default_left":[0,0,0,0,0,0,0,0,0,0,0,0,0,0,0,0,0,0,0,0,0,0,0,0,0,0,0,0,0],"id":37,"left_children":[1,3,-1,5,7,9,-1,11,13,-1,15,17,19,21,-1,23,-1,-1,-1,-1,25,27,-1,-1,-1,-1,-1,-1,-1],"loss_changes":[9.3667E1,2.6156815E1,0E0,1.9209671E0,7.149209E0,1.5168648E0,0E0,2.7618327E0,3.937882E0,0E0,3.91082E0,6.87727E-1,2.8217998E0,2.6613584E0,0E0,1.4647884E0,0E0,0E0,0E0,0E0,1.430354E0,3.8130736E0,0E0,0E0,0E0,0E0,0E0,0E0,0E0],"parents":[2147483647,0,0,1,1,3,3,4,4,5,5,7,7,8,8,10,10,11,11,12,12,13,13,15,15,20,20,21,21],"right_children":[2,4,-1,6,8,10,-1,12,14,-1,16,18,20,22,-1,24,-1,-1,-1,-1,26,28,-1,-1,-1,-1,-1,-1,-1],"split_conditions":[3E0,1.6E1,9.975797E-2,2.173913E-1,2E0,7.804878E-1,3.550173E-2,8.292683E-1,1E0,-8.817869E-2,1E0,3.829E0,3.6978E0,6.9767445E-2,9.712111E-2,4.0049E0,7.729234E-2,5.81162E-5,-8.363917E-2,-7.939957E-2,4.1147E0,3.8868E0,9.312123E-2,-6.851404E-2,5.2851937E-3,-1.8248884E-3,6.7055576E-2,6.552269E-2,-3.2073297E-2],"split_indices":[4,10,0,6,1,7,0,7,2,0,2,9,9,6,0,9,0,0,0,0,9,9,0,0,0,0,0,0,0],"split_type":[0,0,0,0,0,0,0,0,0,0,0,0,0,0,0,0,0,0,0,0,0,0,0,0,0,0,0,0,0],"sum_hessian":[2.282439E2,1.6027611E2,6.796778E1,9.4910286E1,6.536582E1,9.383972E1,1.0705669E0,3.7388115E1,2.7977705E1,4.7101044E1,4.6738674E1,6.9892864E0,3.0398829E1,1.8864769E1,9.112936E0,4.551063E1,1.2280434E0,1.1444961E0,5.84479E0,3.4283557E0,2.6970474E1,1.6016146E1,2.8486238E0,4.2791824E1,2.718807E0,2.4541004E1,2.4294698E0,5.004398E0,1.1011747E1],"tree_param":{"num_deleted":"0","num_feature":"30","num_nodes":"29","size_leaf_vector":"1"}},{"base_weights":[3.8447272E-2,-3.460852E-1,9.947895E-2,-7.473141E-1,4.779275E-2,5.8606427E-2,-7.767456E-1,9.1092065E-2,-5.325825E-2,-8.235604E-1,-3.0735403E-1,-1.1525782E-1,7.577059E-2,-8.346268E-2,-6.1918627E-3,1.974995E-2,-5.2900505E-1,-7.818734E-2,-7.097633E-2,-7.224675E-2,-2.0326743E-2,-1.5580255E-2,1.2463785E-2],"categories":[],"categories_nodes":[],"categories_segments":[],"categories_sizes":[],"default_left":[0,0,0,0,0,0,0,0,0,0,0,0,0,0,0,0,0,0,0,0,0,0,0],"id":38,"left_children":[1,3,-1,5,7,-1,9,-1,11,13,15,17,-1,-1,-1,-1,19,-1,21,-1,-1,-1,-1],"loss_changes":[7.953878E1,2.4426199E1,0E0,3.4579124E0,6.9232936E0,0E0,1.4013786E0,0E0,3.6825662E0,5.203552E-1,1.047097E0,1.9309576E0,0E0,0E0,0E0,0E0,2.3916352E-1,0E0,1.084748E0,0E0,0E0,0E0,0E0],"parents":[2147483647,0,0,1,1,3,3,4,4,6,6,8,8,9,9,10,10,11,11,16,16,18,18],"right_children":[2,4,-1,6,8,-1,10,-1,12,14,16,18,-1,-1,-1,-1,20,-1,22,-1,-1,-1,-1],"split_conditions":[3E0,2.3E1,9.947895E-2,1E0,1E0,5.8606427E-2,3.9161E0,9.1092065E-2,3.6E1,1.590909E-1,3.9239E0,3.6335E0,7.577059E-2,-8.346268E-2,-6.1918627E-3,1.974995E-2,3.9862E0,-7.818734E-2,2E0,-7.224675E-2,-2.0326743E-2,-1.5580255E-2,1.2463785E-2],"split_indices":[4,0,0,27,27,0,9,0,0,6,9,9,0,0,0,0,9,0,1,0,0,0,0],"split_type":[0,0,0,0,0,0,0,0,0,0,0,0,0,0,0,0,0,0,0,0,0,0,0],"sum_hessian":[2.1435187E2,1.5333574E2,6.101614E1,7.5514534E1,7.78212E1,1.222383E0,7.429215E1,7.3161116E0,7.050509E1,6.686849E1,7.4236603E0,6.6294624E1,4.21046E0,6.581638E1,1.0521085E0,2.298146E0,5.125514E0,3.091915E0,6.320271E1,2.4515464E0,2.6739678E0,4.422743E1,1.897528E1],"tree_param":{"num_deleted":"0","num_feature":"30","num_nodes":"23","size_leaf_vector":"1"}},{"base_weights":[-2.5095915E-2,-4.1986397E-1,9.920092E-2,9.1289856E-2,-5.001514E-1,-6.470507E-1,-3.8144507E-2,-7.967315E-1,-4.4111753E-1,-1.7235845E-1,6.1354464E-1,-8.6378074E-1,-4.958955E-1,2.7120069E-2,-4.6805876E-1,4.604033E-1,-2.6393205E-1,3.692088E-3,8.1044994E-2,-8.792711E-2,-3.487654E-2,8.501966E-3,-6.296923E-2,-5.422457E-2,-1.3310959E-2,-5.846111E-2,1.17078066E-1,-3.2986145E-2,5.6367464E-2],"categories":[],"categories_nodes":[],"categories_segments":[],"categories_sizes":[],"default_left":[0,0,0,0,0,0,0,0,0,0,0,0,0,0,0,0,0,0,0,0,0,0,0,0,0,0,0,0,0],"id":39,"left_children":[1,3,-1,-1,5,7,9,11,13,15,17,19,21,-1,23,25,27,-1,-1,-1,-1,-1,-1,-1,-1,-1,-1,-1,-1],"loss_changes":[8.041934E1,1.5890951E1,0E0,0E0,9.252354E0,2.8435364E0,3.0830483E0,7.5737E-1,1.007184E0,1.8023108E0,6.550069E-1,6.607056E-2,1.0687432E0,0E0,1.0351753E0,3.6773145E0,1.6032522E0,0E0,0E0,0E0,0E0,0E0,0E0,0E0,0E0,0E0,0E0,0E0,0E0],"parents":[2147483647,0,0,1,1,4,4,5,5,6,6,7,7,8,8,9,9,10,10,11,11,12,12,14,14,15,15,16,16],"right_children":[2,4,-1,-1,6,8,10,12,14,16,18,20,22,-1,24,26,28,-1,-1,-1,-1,-1,-1,-1,-1,-1,-1,-1,-1],"split_conditions":[1E0,1E0,9.920092E-2,9.1289856E-2,3.969E0,3.75E0,3.4E1,2.2E1,3.7544E0,3.9737E0,2E0,1E0,7.9310346E-1,2.7120069E-2,2E0,8.2051283E-1,1.21212125E-1,3.692088E-3,8.1044994E-2,-8.792711E-2,-3.487654E-2,8.501966E-3,-6.296923E-2,-5.422457E-2,-1.3310959E-2,-5.846111E-2,1.17078066E-1,-3.2986145E-2,5.6367464E-2],"split_indices":[18,27,0,0,9,9,0,0,9,9,1,16,7,0,1,7,6,0,0,0,0,0,0,0,0,0,0,0,0],"split_type":[0,0,0,0,0,0,0,0,0,0,0,0,0,0,0,0,0,0,0,0,0,0,0,0,0,0,0,0,0],"sum_hessian":[1.9824963E2,1.4324088E2,5.5008755E1,7.549509E0,1.3569138E2,1.0265179E2,3.3039585E1,5.778347E1,4.4868317E1,2.8007103E1,5.0324802E0,4.572187E1,1.2061602E1,1.3047482E0,4.356357E1,3.0315816E0,2.4975521E1,1.5833251E0,3.4491553E0,4.370021E1,2.0216591E0,2.326224E0,9.735377E0,3.5157703E1,8.405866E0,1.2984755E0,1.7331061E0,2.3689758E1,1.2857627E0],"tree_param":{"num_deleted":"0","num_feature":"30","num_nodes":"29","size_leaf_vector":"1"}},{"base_weights":[7.5575137E-3,-3.5297605E-1,9.893657E-2,-5.420601E-1,1.9594416E-1,-9.025363E-2,-4.0023375E-1,7.547083E-2,-4.6872194E-3,6.126212E-2,-4.27498E-1,-8.507846E-2,8.236225E-2,-5.169323E-1,-2.2313417E-1,6.530639E-2,-1.5841427E-1,-5.3897914E-2,2.9630601E-2,-7.273432E-3,-4.7918554E-2,1.5299435E-2,-3.537384E-2],"categories":[],"categories_nodes":[],"categories_segments":[],"categories_sizes":[],"default_left":[0,0,0,0,0,0,0,0,0,0,0,0,0,0,0,0,0,0,0,0,0,0,0],"id":40,"left_children":[1,3,-1,5,7,-1,9,-1,11,-1,13,15,-1,17,19,-1,21,-1,-1,-1,-1,-1,-1],"loss_changes":[6.741249E1,1.4565397E1,0E0,4.9497585E0,4.0871973E0,0E0,2.3702154E0,0E0,1.9210281E0,0E0,1.2542601E0,1.5241033E0,0E0,1.0806417E0,9.1135335E-1,0E0,1.5551167E0,0E0,0E0,0E0,0E0,0E0,0E0],"parents":[2147483647,0,0,1,1,3,3,4,4,6,6,8,8,10,10,11,11,13,13,14,14,16,16],"right_children":[2,4,-1,6,8,-1,10,-1,12,-1,14,16,-1,18,20,-1,22,-1,-1,-1,-1,-1,-1],"split_conditions":[3E0,1.9E1,9.893657E-2,1.1E1,8.125E-1,-9.025363E-2,1E0,7.547083E-2,1E0,6.126212E-2,8.2051283E-1,1E0,8.236225E-2,1.4345992E-1,2.5E1,6.530639E-2,2.9E1,-5.3897914E-2,2.9630601E-2,-7.273432E-3,-4.7918554E-2,1.5299435E-2,-3.537384E-2],"split_indices":[4,10,0,10,7,0,27,0,25,0,7,27,0,6,0,0,0,0,0,0,0,0,0],"split_type":[0,0,0,0,0,0,0,0,0,0,0,0,0,0,0,0,0,0,0,0,0,0,0],"sum_hessian":[1.8845775E2,1.3830917E2,5.0148563E1,1.02882286E2,3.5426895E1,2.7534616E1,7.5347664E1,8.630115E0,2.6796783E1,1.4122822E0,7.393539E1,2.5244022E1,1.5527611E0,5.036503E1,2.3570356E1,1.5669711E0,2.367705E1,4.9364017E1,1.0010101E0,1.56574955E1,7.912862E0,9.21004E0,1.44670105E1],"tree_param":{"num_deleted":"0","num_feature":"30","num_nodes":"23","size_leaf_vector":"1"}},{"base_weights":[6.472515E-3,-3.3293578E-1,9.865826E-2,-6.992152E-1,-1.3095849E-2,-8.8836275E-2,-5.427445E-1,8.7504365E-2,-1.0380045E-1,-1.6593193E-1,-6.0218436E-1,-5.844768E-1,-1.3689724E-2,-4.534843E-1,2.1697006E-1,-6.36533E-1,-1.2699957E-1,-2.0820908E-1,-7.4411206E-2,-7.162322E-2,5.987464E-1,-6.1457274E-3,-6.292337E-2,5.945844E-3,2.6387695E-2,-6.7665204E-2,-2.2849228E-2,3.601228E-2,-5.5455655E-2,7.5779683E-3,-5.5375915E-2,-1.0239876E-2,6.8620816E-2,8.8671826E-2,2.6275171E-2],"categories":[],"categories_nodes":[],"categories_segments":[],"categories_sizes":[],"default_left":[0,0,0,0,0,0,0,0,0,0,0,0,0,0,0,0,0,0,0,0,0,0,0,0,0,0,0,0,0,0,0,0,0,0,0],"id":41,"left_children":[1,3,-1,5,7,-1,9,-1,11,13,15,17,19,21,23,25,27,29,-1,31,33,-1,-1,-1,-1,-1,-1,-1,-1,-1,-1,-1,-1,-1,-1],"loss_changes":[6.021545E1,1.5743771E1,0E0,1.3724461E0,5.9557424E0,0E0,7.2576046E-1,0E0,2.891918E0,8.034122E-1,4.326725E-1,4.784987E-1,2.079657E0,2.3558187E-1,9.59821E-3,3.2161808E-1,9.016123E-1,4.8648953E-1,0E0,1.314239E0,2.5736058E-1,0E0,0E0,0E0,0E0,0E0,0E0,0E0,0E0,0E0,0E0,0E0,0E0,0E0,0E0],"parents":[2147483647,0,0,1,1,3,3,4,4,6,6,8,8,9,9,10,10,11,11,12,12,13,13,14,14,15,15,16,16,17,17,19,19,20,20],"right_children":[2,4,-1,6,8,-1,10,-1,12,14,16,18,20,22,24,26,28,30,-1,32,34,-1,-1,-1,-1,-1,-1,-1,-1,-1,-1,-1,-1,-1,-1],"split_conditions":[3E0,1.5E1,9.865826E-2,1.1E1,1E0,-8.8836275E-2,3.5503E0,8.7504365E-2,3.749E0,3.5111E0,3.9862E0,2.4E1,4.209E0,3.4273E0,3.5352E0,1E0,4.0144E0,3.6819E0,-7.4411206E-2,1E0,2.9E1,-6.1457274E-3,-6.292337E-2,5.945844E-3,2.6387695E-2,-6.7665204E-2,-2.2849228E-2,3.601228E-2,-5.5455655E-2,7.5779683E-3,-5.5375915E-2,-1.0239876E-2,6.8620816E-2,8.8671826E-2,2.6275171E-2],"split_indices":[4,10,0,10,27,0,9,0,9,9,9,0,9,9,9,2,9,9,0,25,0,0,0,0,0,0,0,0,0,0,0,0,0,0,0],"split_type":[0,0,0,0,0,0,0,0,0,0,0,0,0,0,0,0,0,0,0,0,0,0,0,0,0,0,0,0,0,0,0,0,0,0,0],"sum_hessian":[1.7902594E2,1.3346712E2,4.555883E1,6.166382E1,7.18033E1,2.5799232E1,3.5864586E1,5.8523626E0,6.5950935E1,5.403195E0,3.0461391E1,9.545628E0,5.6405304E1,2.9805336E0,2.4226613E0,2.809127E1,2.3701212E0,3.529861E0,6.015766E0,5.2337486E1,4.067821E0,1.3403755E0,1.6401579E0,1.0762472E0,1.3464141E0,2.4977194E1,3.1140764E0,1.181612E0,1.1885093E0,2.3660402E0,1.1638209E0,5.1126133E1,1.2113532E0,1.3078314E0,2.7599895E0],"tree_param":{"num_deleted":"0","num_feature":"30","num_nodes":"35","size_leaf_vector":"1"}},{"base_weights":[2.278131E-2,-2.909193E-1,9.835624E-2,8.861255E-2,-3.5792637E-1,-4.5913318E-1,2.7841147E-2,-4.8890406E-1,-2.026877E-1,-1.20188266E-1,8.562222E-2,-4.6059588E-1,-8.369241E-2,-8.7707534E-2,-6.194774E-2,-2.7461443E-2,5.1299906E-1,-4.6545517E-2,-4.4996673E-3,7.847752E-4,-3.571522E-2,9.138922E-2,-5.1849093E-2],"categories":[],"categories_nodes":[],"categories_segments":[],"categories_sizes":[],"default_left":[0,0,0,0,0,0,0,0,0,0,0,0,0,0,0,0,0,0,0,0,0,0,0],"id":42,"left_children":[1,3,-1,-1,5,7,9,11,13,15,-1,17,-1,19,-1,-1,21,-1,-1,-1,-1,-1,-1],"loss_changes":[5.1620224E1,1.0504791E1,0E0,0E0,4.8120317E0,6.447773E-1,3.3512282E0,4.6759987E-1,5.132055E-1,2.4241347E0,0E0,1.4526749E-1,0E0,2.7178246E-1,0E0,0E0,2.5112534E0,0E0,0E0,0E0,0E0,0E0,0E0],"parents":[2147483647,0,0,1,1,4,4,5,5,6,6,7,7,8,8,9,9,11,11,13,13,16,16],"right_children":[2,4,-1,-1,6,8,10,12,14,16,-1,18,-1,20,-1,-1,22,-1,-1,-1,-1,-1,-1],"split_conditions":[3E0,1E0,9.835624E-2,8.861255E-2,2E0,1E0,8.77193E-2,5.1282052E-2,2E0,1E0,8.562222E-2,3.5714287E-2,-8.369241E-2,1.4084507E-2,-6.194774E-2,-2.7461443E-2,7.8947365E-2,-4.6545517E-2,-4.4996673E-3,7.847752E-4,-3.571522E-2,9.138922E-2,-5.1849093E-2],"split_indices":[4,27,0,0,1,2,6,6,2,2,0,6,0,6,0,0,6,0,0,0,0,0,0],"split_type":[0,0,0,0,0,0,0,0,0,0,0,0,0,0,0,0,0,0,0,0,0,0,0],"sum_hessian":[1.6932014E2,1.2816933E2,4.115082E1,6.245022E0,1.219243E2,9.643438E1,2.5489922E1,8.559155E1,1.0842824E1,2.2350805E1,3.1391156E0,8.130188E1,4.289676E0,9.447084E0,1.3957398E0,1.8423782E1,3.9270225E0,8.024369E1,1.0581903E0,7.690586E0,1.7564987E0,2.910033E0,1.0169894E0],"tree_param":{"num_deleted":"0","num_feature":"30","num_nodes":"23","size_leaf_vector":"1"}},{"base_weights":[1.4083585E-2,-2.8368396E-1,9.804746E-2,-6.9538397E-1,5.8634378E-2,-8.711514E-2,-5.5112636E-1,-1.4760378E-1,3.914099E-1,-3.2951257E-1,-7.669759E-1,-2.0415398E-1,4.7826126E-1,-5.3865947E-2,5.103872E-1,-4.058913E-1,4.117933E-2,-8.152226E-2,-1.8493858E-3,-1.5158957E-1,-7.071445E-2,6.1290218E-3,6.0197633E-2,3.1127363E-1,9.317031E-2,-4.298344E-2,-1.0964115E-3,5.5866707E-2,-2.1401994E-2,7.139527E-2,8.479416E-3],"categories":[],"categories_nodes":[],"categories_segments":[],"categories_sizes":[],"default_left":[0,0,0,0,0,0,0,0,0,0,0,0,0,0,0,0,0,0,0,0,0,0,0,0,0,0,0,0,0,0,0],"id":43,"left_children":[1,3,-1,5,7,-1,9,11,13,15,17,19,21,-1,23,25,-1,-1,-1,27,-1,-1,-1,29,-1,-1,-1,-1,-1,-1,-1],"loss_changes":[4.6787228E1,1.7562931E1,0E0,9.5306396E-1,4.7801027E0,0E0,1.3624811E0,1.6268358E0,3.218522E0,1.2097346E0,5.754328E-1,9.590224E-1,1.6323549E-1,0E0,1.731525E0,1.5790224E-1,0E0,0E0,0E0,1.7949752E0,0E0,0E0,0E0,1.5687854E0,0E0,0E0,0E0,0E0,0E0,0E0,0E0],"parents":[2147483647,0,0,1,1,3,3,4,4,6,6,7,7,8,8,9,9,10,10,11,11,12,12,14,14,15,15,19,19,23,23],"right_children":[2,4,-1,6,8,-1,10,12,14,16,18,20,22,-1,24,26,-1,-1,-1,28,-1,-1,-1,30,-1,-1,-1,-1,-1,-1,-1],"split_conditions":[3E0,1.5E1,9.804746E-2,1.1E1,1E0,-8.711514E-2,2.1E1,8.7234044E-1,2.4E1,1E0,4.0091E0,3.2258064E-2,3.9321E0,-5.3865947E-2,1E0,1.4084507E-2,4.117933E-2,-8.152226E-2,-1.8493858E-3,7.9310346E-1,-7.071445E-2,6.1290218E-3,6.0197633E-2,3.8868E0,9.317031E-2,-4.298344E-2,-1.0964115E-3,5.5866707E-2,-2.1401994E-2,7.139527E-2,8.479416E-3],"split_indices":[4,10,0,10,11,0,0,7,0,2,9,6,9,0,2,6,0,0,0,7,0,0,0,9,0,0,0,0,0,0,0],"split_type":[0,0,0,0,0,0,0,0,0,0,0,0,0,0,0,0,0,0,0,0,0,0,0,0,0,0,0,0,0,0,0],"sum_hessian":[1.6062463E2,1.2333019E2,3.729445E1,5.5522682E1,6.780751E1,2.2756577E1,3.27661E1,4.2206444E1,2.5601063E1,1.7413828E1,1.5352277E1,3.9326862E1,2.8795843E0,2.5034757E0,2.3097588E1,1.6197428E1,1.2164E0,1.4338835E1,1.0134414E0,3.6784153E1,2.542707E0,1.0010488E0,1.8785355E0,1.6865688E1,6.231899E0,1.518823E1,1.009198E0,2.329807E0,3.4454346E1,5.296375E0,1.1569314E1],"tree_param":{"num_deleted":"0","num_feature":"30","num_nodes":"31","size_leaf_vector":"1"}},{"base_weights":[1.54394405E-2,-2.643293E-1,9.7731575E-2,-6.252772E-1,1.9158898E-2,-6.803193E-1,6.2265035E-2,-6.446143E-2,7.921598E-2,-7.351775E-1,-1.9419764E-1,8.1131645E-2,-6.449768E-2,7.296895E-2,-1.0816129E-1,-8.554902E-1,-5.966465E-1,-4.3150556E-1,1.1478684E-1,-2.7472572E-2,-4.1080943E-1,-8.942538E-2,-2.3323823E-2,-2.9914727E-2,-7.745648E-2,-4.1275113E-3,-6.120742E-2,2.4956955E-2,-8.662556E-3,-7.324155E-2,2.6141999E-3,-6.0941882E-2,9.015932E-3],"categories":[],"categories_nodes":[],"categories_segments":[],"categories_sizes":[],"default_left":[0,0,0,0,0,0,0,0,0,0,0,0,0,0,0,0,0,0,0,0,0,0,0,0,0,0,0,0,0,0,0,0,0],"id":44,"left_children":[1,3,-1,5,7,9,11,13,-1,15,17,-1,-1,-1,19,21,23,25,27,29,31,-1,-1,-1,-1,-1,-1,-1,-1,-1,-1,-1,-1],"loss_changes":[4.1702713E1,1.2300632E1,0E0,2.0427685E0,4.461698E0,1.164629E0,3.0842657E0,2.2479134E0,0E0,2.178402E-1,5.1370496E-1,0E0,0E0,0E0,1.456625E0,2.9989433E-1,1.018239E0,2.4183613E-1,1.17713526E-1,1.8533229E0,1.3067148E0,0E0,0E0,0E0,0E0,0E0,0E0,0E0,0E0,0E0,0E0,0E0,0E0],"parents":[2147483647,0,0,1,1,3,3,4,4,5,5,6,6,7,7,9,9,10,10,14,14,15,15,16,16,17,17,18,18,19,19,20,20],"right_children":[2,4,-1,6,8,10,12,14,-1,16,18,-1,-1,-1,20,22,24,26,28,30,32,-1,-1,-1,-1,-1,-1,-1,-1,-1,-1,-1,-1],"split_conditions":[3E0,1.5E1,9.7731575E-2,1E0,2.8E1,3.9161E0,2.1E1,1E0,7.921598E-2,1.1E1,8.039216E-1,8.1131645E-2,-6.449768E-2,7.296895E-2,4.0515E0,3.7464E0,7.906977E-1,3.9239E0,2.2E1,3.6335E0,3E1,-8.942538E-2,-2.3323823E-2,-2.9914727E-2,-7.745648E-2,-4.1275113E-3,-6.120742E-2,2.4956955E-2,-8.662556E-3,-7.324155E-2,2.6141999E-3,-6.0941882E-2,9.015932E-3],"split_indices":[4,10,0,2,10,9,0,27,0,10,7,0,0,0,9,9,7,9,0,9,0,0,0,0,0,0,0,0,0,0,0,0,0],"split_type":[0,0,0,0,0,0,0,0,0,0,0,0,0,0,0,0,0,0,0,0,0,0,0,0,0,0,0,0,0,0,0,0,0],"sum_hessian":[1.530094E2,1.1909495E2,3.3914444E1,5.1859642E1,6.7235306E1,4.802541E1,3.8342328E0,6.149917E1,5.73614E0,4.2695E1,5.330408E0,1.7906113E0,2.0436215E0,2.3888686E0,5.91103E1,2.008016E1,2.2614841E1,2.790616E0,2.539792E0,4.7529327E1,1.1580974E1,1.8491121E1,1.5890397E0,9.466752E0,1.3148088E1,1.2714481E0,1.5191678E0,1.3783319E0,1.1614602E0,2.4644983E0,4.5064827E1,8.138127E0,3.4428463E0],"tree_param":{"num_deleted":"0","num_feature":"30","num_nodes":"33","size_leaf_vector":"1"}},{"base_weights":[3.383031E-3,-2.5709245E-1,9.738002E-2,-4.8518676E-1,1.9176155E-1,6.281202E-2,-5.150054E-1,4.8919596E-2,6.10005E-1,-6.65344E-1,-2.4068025E-1,2.9454714E-1,-1.2849018E-1,2.7386627E-1,7.889628E-2,-9.271289E-2,-5.626E-1,-6.279897E-2,-4.4592115E-1,7.554747E-1,-3.6660686E-1,-5.207571E-1,5.863765E-2,7.398959E-2,-3.5981085E-2,1.37065E-2,-6.1543893E-2,-3.2799624E-2,2.5450453E-2,-8.069552E-2,-2.6931042E-2,-1.812595E-2,1.5276094E-1,4.7532297E-3,-6.2237263E-2,-7.188109E-2,-1.3866581E-2,2.6323615E-2,-3.3582877E-2,3.9010588E-2,-4.5751996E-2],"categories":[],"categories_nodes":[],"categories_segments":[],"categories_sizes":[],"default_left":[0,0,0,0,0,0,0,0,0,0,0,0,0,0,0,0,0,0,0,0,0,0,0,0,0,0,0,0,0,0,0,0,0,0,0,0,0,0,0,0,0],"id":45,"left_children":[1,3,-1,5,7,-1,9,11,13,15,17,19,21,23,-1,-1,25,27,29,31,33,35,37,-1,39,-1,-1,-1,-1,-1,-1,-1,-1,-1,-1,-1,-1,-1,-1,-1,-1],"loss_changes":[3.78177E1,1.21702175E1,0E0,2.929449E0,2.3875742E0,0E0,3.0155144E0,1.3996031E0,3.983574E-1,8.010349E-1,1.0244097E0,4.3632565E0,1.4135194E0,7.602123E-1,0E0,0E0,1.4839449E0,1.4808768E0,6.256223E-1,6.2277536E0,6.8433166E-1,3.6846435E-1,1.1904182E0,0E0,8.978498E-1,0E0,0E0,0E0,0E0,0E0,0E0,0E0,0E0,0E0,0E0,0E0,0E0,0E0,0E0,0E0,0E0],"parents":[2147483647,0,0,1,1,3,3,4,4,6,6,7,7,8,8,9,9,10,10,11,11,12,12,13,13,16,16,17,17,18,18,19,19,20,20,21,21,22,22,24,24],"right_children":[2,4,-1,6,8,-1,10,12,14,16,18,20,22,24,-1,-1,26,28,30,32,34,36,38,-1,40,-1,-1,-1,-1,-1,-1,-1,-1,-1,-1,-1,-1,-1,-1,-1,-1],"split_conditions":[1E0,2.6E1,9.738002E-2,1E0,4.1072E0,6.281202E-2,2.3E1,3.9073E0,3.2E1,3.5111E0,3.8842E0,2.9E1,3.969E0,2.7E1,7.889628E-2,-9.271289E-2,3.5503E0,3.7784E0,3.9321E0,3.8249E0,8.5106385E-1,2E0,4.0542E0,7.398959E-2,8.2857144E-1,1.37065E-2,-6.1543893E-2,-3.2799624E-2,2.5450453E-2,-8.069552E-2,-2.6931042E-2,-1.812595E-2,1.5276094E-1,4.7532297E-3,-6.2237263E-2,-7.188109E-2,-1.3866581E-2,2.6323615E-2,-3.3582877E-2,3.9010588E-2,-4.5751996E-2],"split_indices":[18,0,0,27,9,0,0,9,0,9,9,0,9,0,0,0,9,9,9,9,7,1,9,0,7,0,0,0,0,0,0,0,0,0,0,0,0,0,0,0,0],"split_type":[0,0,0,0,0,0,0,0,0,0,0,0,0,0,0,0,0,0,0,0,0,0,0,0,0,0,0,0,0,0,0,0,0,0,0,0,0,0,0,0,0],"sum_hessian":[1.476227E2,1.1696302E2,3.0659676E1,7.749925E1,3.9463768E1,1.4981922E0,7.600106E1,3.024963E1,9.214137E0,4.817455E1,2.7826515E1,1.2408935E1,1.7840696E1,4.0803323E0,5.1338053E0,1.1316691E1,3.6857857E1,1.5606455E1,1.222006E1,7.227546E0,5.1813884E0,5.186208E0,1.2654489E1,1.075211E0,3.005121E0,2.476138E0,3.4381718E1,8.48289E0,7.1235647E0,2.8417451E0,9.378315E0,3.6114614E0,3.6160848E0,2.289064E0,2.8923244E0,2.8352993E0,2.3509085E0,8.551662E0,4.1028256E0,1.5315818E0,1.4735392E0],"tree_param":{"num_deleted":"0","num_feature":"30","num_nodes":"41","size_leaf_vector":"1"}},{"base_weights":[4.3478995E-3,-2.4746978E-1,9.703989E-2,