{"learner":{"attributes":{"scikit_learn":"{\"_estimator_type\": \"classifier\"}"},"feature_names":[],"feature_types":[],"gradient_booster":{"model":{"cats":{"enc":[],"feature_segments":[],"sorted_idx":[]},"gbtree_model_param":{"num_parallel_tree":"1","num_trees":"300"},"iteration_indptr":[0,1,2,3,4,5,6,7,8,9,10,11,12,13,14,15,16,17,18,19,20,21,22,23,24,25,26,27,28,29,30,31,32,33,34,35,36,37,38,39,40,41,42,43,44,45,46,47,48,49,50,51,52,53,54,55,56,57,58,59,60,61,62,63,64,65,66,67,68,69,70,71,72,73,74,75,76,77,78,79,80,81,82,83,84,85,86,87,88,89,90,91,92,93,94,95,96,97,98,99,100,101,102,103,104,105,106,107,108,109,110,111,112,113,114,115,116,117,118,119,120,121,122,123,124,125,126,127,128,129,130,131,132,133,134,135,136,137,138,139,140,141,142,143,144,145,146,147,148,149,150,151,152,153,154,155,156,157,158,159,160,161,162,163,164,165,166,167,168,169,170,171,172,173,174,175,176,177,178,179,180,181,182,183,184,185,186,187,188,189,190,191,192,193,194,195,196,197,198,199,200,201,202,203,204,205,206,207,208,209,210,211,212,213,214,215,216,217,218,219,220,221,222,223,224,225,226,227,228,229,230,231,232,233,234,235,236,237,238,239,240,241,242,243,244,245,246,247,248,249,250,251,252,253,254,255,256,257,258,259,260,261,262,263,264,265,266,267,268,269,270,271,272,273,274,275,276,277,278,279,280,281,282,283,284,285,286,287,288,289,290,291,292,293,294,295,296,297,298,299,300],"tree_info":[0,0,0,0,0,0,0,0,0,0,0,0,0,0,0,0,0,0,0,0,0,0,0,0,0,0,0,0,0,0,0,0,0,0,0,0,0,0,0,0,0,0,0,0,0,0,0,0,0,0,0,0,0,0,0,0,0,0,0,0,0,0,0,0,0,0,0,0,0,0,0,0,0,0,0,0,0,0,0,0,0,0,0,0,0,0,0,0,0,0,0,0,0,0,0,0,0,0,0,0,0,0,0,0,0,0,0,0,0,0,0,0,0,0,0,0,0,0,0,0,0,0,0,0,0,0,0,0,0,0,0,0,0,0,0,0,0,0,0,0,0,0,0,0,0,0,0,0,0,0,0,0,0,0,0,0,0,0,0,0,0,0,0,0,0,0,0,0,0,0,0,0,0,0,0,0,0,0,0,0,0,0,0,0,0,0,0,0,0,0,0,0,0,0,0,0,0,0,0,0,0,0,0,0,0,0,0,0,0,0,0,0,0,0,0,0,0,0,0,0,0,0,0,0,0,0,0,0,0,0,0,0,0,0,0,0,0,0,0,0,0,0,0,0,0,0,0,0,0,0,0,0,0,0,0,0,0,0,0,0,0,0,0,0,0,0,0,0,0,0,0,0,0,0,0,0,0,0,0,0,0,0,0,0,0,0,0,0,0,0,0,0,0,0,0,0,0,0,0,0],"trees":[{"base_weights":[6.8586646E-3,1.9501038E-2,-1.5784707E0,-1.9316714E0,1.5611411E0,-1.9567217E0,6.693593E-1,-1.36962E-2,1.8840566E-2,-2.0016223E-2,-1.2835112E0,-1.0966251E-2,1.3983722E0,-1.6794853E-2,3.9859796E-3,1.5248696E-2,-0E0],"categories":[],"categories_nodes":[],"categories_segments":[],"categories_sizes":[],"default_left":[0,0,0,0,0,0,0,0,0,0,0,0,0,0,0,0,0],"id":0,"left_children":[1,-1,3,5,7,9,11,-1,-1,-1,13,-1,15,-1,-1,-1,-1],"loss_changes":[8.888246E3,0E0,1.7649553E3,9.568359E1,1.5537329E2,3.69375E1,1.9849237E1,0E0,0E0,0E0,6.3692154E1,0E0,4.872532E-1,0E0,0E0,0E0,0E0],"parents":[2147483647,0,0,2,2,3,3,4,4,5,5,6,6,10,10,12,12],"right_children":[2,-1,4,6,8,10,12,-1,-1,-1,14,-1,16,-1,-1,-1,-1],"split_conditions":[1E0,1.9501038E-2,2.3E1,1.7857143E-1,2E0,1.8E1,1.1E1,-1.36962E-2,1.8840566E-2,-2.0016223E-2,2E0,-1.0966251E-2,6.0714287E-1,-1.6794853E-2,3.9859796E-3,1.5248696E-2,-0E0],"split_indices":[38,0,10,6,1,10,10,0,0,0,1,0,7,0,0,0,0],"split_type":[0,0,0,0,0,0,0,0,0,0,0,0,0,0,0,0,0],"sum_hessian":[2.883034E3,1.2954789E3,1.587555E3,1.4276503E3,1.5990482E2,1.414658E3,1.2992267E1,1.5240929E1,1.446639E2,1.3229625E3,9.169542E1,3.2480667E0,9.7442E0,7.4705536E1,1.6989887E1,8.245092E0,1.4991077E0],"tree_param":{"num_deleted":"0","num_feature":"39","num_nodes":"17","size_leaf_vector":"1"}},{"base_weights":[2.0669769E-3,1.9317174E-2,-1.5791377E0,-1.9161626E0,1.5532337E0,-1.9389913E0,4.9440163E-1,-1.271324E-2,1.870139E-2,-1.9791219E0,-1.3432599E0,-7.5822794E-1,1.4753756E-2,-1.9848347E-2,-1.006521E-2,-1.7520083E-2,2.270463E-3,-1.2313588E-2,-0E0],"categories":[],"categories_nodes":[],"categories_segments":[],"categories_sizes":[],"default_left":[0,0,0,0,0,0,0,0,0,0,0,0,0,0,0,0,0,0,0],"id":1,"left_children":[1,-1,3,5,7,9,11,-1,-1,13,15,17,-1,-1,-1,-1,-1,-1,-1],"loss_changes":[8.749636E3,0E0,1.6668616E3,8.073535E1,1.402319E2,2.7743652E1,1.871917E1,0E0,0E0,2.3344727E0,6.207605E1,2.0924346E0,0E0,0E0,0E0,0E0,0E0,0E0,0E0],"parents":[2147483647,0,0,2,2,3,3,4,4,5,5,6,6,9,9,10,10,11,11],"right_children":[2,-1,4,6,8,10,12,-1,-1,14,16,18,-1,-1,-1,-1,-1,-1,-1],"split_conditions":[1E0,1.9317174E-2,3.1E1,1.7857143E-1,2E0,2.6E1,2.3E1,-1.271324E-2,1.870139E-2,1E0,2E0,2.406639E-1,1.4753756E-2,-1.9848347E-2,-1.006521E-2,-1.7520083E-2,2.270463E-3,-1.2313588E-2,-0E0],"split_indices":[38,0,0,6,1,0,0,0,0,15,1,6,0,0,0,0,0,0,0],"split_type":[0,0,0,0,0,0,0,0,0,0,0,0,0,0,0,0,0,0,0],"sum_hessian":[2.865516E3,1.2907445E3,1.5747716E3,1.4224335E3,1.5233806E2,1.4096937E3,1.2739738E1,1.474546E1,1.375926E2,1.3169767E3,9.2717125E1,5.2471704E0,7.4925685E0,1.3072294E3,9.747236E0,7.3981064E1,1.8736057E1,2.7487314E0,2.498439E0],"tree_param":{"num_deleted":"0","num_feature":"39","num_nodes":"19","size_leaf_vector":"1"}},{"base_weights":[4.447634E-3,1.913872E-2,-1.5722483E0,-1.9005753E0,1.549261E0,-1.9225504E0,4.6271396E-1,-1.3542122E-2,1.8308175E0,-1.9620448E-2,-1.3159022E0,-1.3568382E-2,1.336158E0,7.872853E-3,1.8648198E-2,-1.6579261E-2,3.241712E-3,-0E0,1.5706046E-2],"categories":[],"categories_nodes":[],"categories_segments":[],"categories_sizes":[],"default_left":[0,0,0,0,0,0,0,0,0,0,0,0,0,0,0,0,0,0,0],"id":2,"left_children":[1,-1,3,5,7,9,11,-1,13,-1,15,-1,17,-1,-1,-1,-1,-1,-1],"loss_changes":[8.635299E3,0E0,1.6130588E3,7.619629E1,1.253725E2,2.7910156E1,2.3226845E1,0E0,7.496948E-1,0E0,5.2768433E1,0E0,2.4929466E0,0E0,0E0,0E0,0E0,0E0,0E0],"parents":[2147483647,0,0,2,2,3,3,4,4,5,5,6,6,8,8,10,10,12,12],"right_children":[2,-1,4,6,8,10,12,-1,14,-1,16,-1,18,-1,-1,-1,-1,-1,-1],"split_conditions":[1E0,1.913872E-2,2.3E1,1.7857143E-1,1E0,1.8E1,1.1E1,-1.3542122E-2,3.9149E0,-1.9620448E-2,1E0,-1.3568382E-2,1.5E1,7.872853E-3,1.8648198E-2,-1.6579261E-2,3.241712E-3,-0E0,1.5706046E-2],"split_indices":[38,0,10,6,17,10,10,0,9,0,17,0,10,0,0,0,0,0,0],"split_type":[0,0,0,0,0,0,0,0,0,0,0,0,0,0,0,0,0,0,0],"sum_hessian":[2.8662021E3,1.2965106E3,1.5696915E3,1.4209451E3,1.487465E2,1.4084581E3,1.2486995E1,1.2498435E1,1.3624806E2,1.3187231E3,8.9734924E1,3.499187E0,8.987807E0,5.9896345E0,1.3025842E2,7.4746086E1,1.4988839E1,1.7486421E0,7.239166E0],"tree_param":{"num_deleted":"0","num_feature":"39","num_nodes":"19","size_leaf_vector":"1"}},{"base_weights":[2.4184233E-2,1.8965418E-2,-1.5423788E0,-1.8814262E0,1.5203611E0,1.8258158E-2,-1.9367237E0,-1.2083167E0,1.8308783E-2,-1.9475052E-2,-8.596614E-1,6.617636E-3,-1.4749427E-2,-1.4561446E-2,8.340786E-3],"categories":[],"categories_nodes":[],"categories_segments":[],"categories_sizes":[],"default_left":[0,0,0,0,0,0,0,0,0,0,0,0,0,0,0],"id":3,"left_children":[1,-1,3,5,7,-1,9,11,-1,-1,13,-1,-1,-1,-1],"loss_changes":[8.439997E3,0E0,1.6296921E3,2.9289014E2,1.3532614E2,0E0,1.1670898E1,9.891542E0,0E0,0E0,1.850143E1,0E0,0E0,0E0,0E0],"parents":[2147483647,0,0,2,2,3,3,4,4,6,6,7,7,10,10],"right_children":[2,-1,4,6,8,-1,10,12,-1,-1,14,-1,-1,-1,-1],"split_conditions":[1E0,1.8965418E-2,2.3E1,1E0,2E0,1.8258158E-2,4.1098E0,1E0,1.8308783E-2,-1.9475052E-2,2E0,6.617636E-3,-1.4749427E-2,-1.4561446E-2,8.340786E-3],"split_indices":[38,0,10,27,1,0,9,27,0,0,1,0,0,0,0],"split_type":[0,0,0,0,0,0,0,0,0,0,0,0,0,0,0],"sum_hessian":[2.8753176E3,1.3100146E3,1.565303E3,1.4099344E3,1.553685E2,1.998523E1,1.3899492E3,1.52497015E1,1.401188E2,1.3744541E3,1.5495131E1,1.2499756E0,1.3999726E1,1.1999842E1,3.4952888E0],"tree_param":{"num_deleted":"0","num_feature":"39","num_nodes":"15","size_leaf_vector":"1"}},{"base_weights":[-9.608835E-3,1.879629E-2,-1.5476587E0,-1.8543061E0,1.4900719E0,1.819145E-2,-1.9166176E0,1.7720333E0,5.3750556E-2,-1.9245783E0,-0E0,1.8160185E-2,8.280823E-1,-8.1667125E-1,1.2290138E0,-1.9298565E-2,-9.189729E-3,-1.1145141E-2,1.1359592E-2,-0E0,1.2750263E-2,7.4879983E-3,-1.1257465E-2,9.334724E-4,1.4547098E-2],"categories":[],"categories_nodes":[],"categories_segments":[],"categories_sizes":[],"default_left":[0,0,0,0,0,0,0,0,0,0,0,0,0,0,0,0,0,0,0,0,0,0,0,0,0],"id":4,"left_children":[1,-1,3,5,7,-1,9,11,13,15,17,-1,19,21,23,-1,-1,-1,-1,-1,-1,-1,-1,-1,-1],"loss_changes":[8.334253E3,0E0,1.4762219E3,3.325454E2,5.6905365E1,0E0,2.0106934E1,8.679199E-1,2.7449566E1,2.8496094E0,1.0421118E1,0E0,2.0561485E0,8.348212E0,1.3192215E0,0E0,0E0,0E0,0E0,0E0,0E0,0E0,0E0,0E0,0E0],"parents":[2147483647,0,0,2,2,3,3,4,4,6,6,7,7,8,8,9,9,10,10,12,12,13,13,14,14],"right_children":[2,-1,4,6,8,-1,10,12,14,16,18,-1,20,22,24,-1,-1,-1,-1,-1,-1,-1,-1,-1,-1],"split_conditions":[1E0,1.879629E-2,3.1E1,1E0,8.269231E-1,1.819145E-2,1.7857143E-1,8.064516E-1,3.5E1,3E1,2.2E1,1.8160185E-2,3.5E1,1E0,3.7E1,-1.9298565E-2,-9.189729E-3,-1.1145141E-2,1.1359592E-2,-0E0,1.2750263E-2,7.4879983E-3,-1.1257465E-2,9.334724E-4,1.4547098E-2],"split_indices":[38,0,0,27,7,0,6,7,0,0,0,0,0,27,0,0,0,0,0,0,0,0,0,0,0],"split_type":[0,0,0,0,0,0,0,0,0,0,0,0,0,0,0,0,0,0,0,0,0,0,0,0,0],"sum_hessian":[2.8663145E3,1.2859128E3,1.5804017E3,1.436147E3,1.4425487E2,2.32166E1,1.4129303E3,1.1980602E2,2.4448843E1,1.4066862E3,6.244153E0,1.1257704E2,7.228982E0,1.3732523E1,1.0716319E1,1.3974379E3,9.248332E0,3.4997623E0,2.7443907E0,3.4931962E0,3.735786E0,1.4961797E0,1.2236343E1,2.7455394E0,7.97078E0],"tree_param":{"num_deleted":"0","num_feature":"39","num_nodes":"25","size_leaf_vector":"1"}},{"base_weights":[-4.6870015E-3,-1.523774E0,1.863238E-2,-1.8415508E0,1.3405559E0,-0E0,-1.86437E0,-1.347851E0,1.7647961E0,-1.4471254E0,1.2449008E0,-1.8992093E0,-1.2868631E0,-1.4042535E-2,-0E0,1.8389735E-2,1.0030586E0,-1.603943E-2,-0E0,-0E0,1.4415245E-2,-1.9045692E-2,-1.0831877E-2,1.3159107E-2,-1.5392496E-2,7.18201E-4,1.3984352E-2],"categories":[],"categories_nodes":[],"categories_segments":[],"categories_sizes":[],"default_left":[0,0,0,0,0,0,0,0,0,0,0,0,0,0,0,0,0,0,0,0,0,0,0,0,0,0,0],"id":5,"left_children":[1,3,-1,5,7,9,11,13,15,17,19,21,23,-1,-1,-1,25,-1,-1,-1,-1,-1,-1,-1,-1,-1,-1],"loss_changes":[8.207056E3,1.4551858E3,0E0,5.906201E1,1.8481625E2,3.6112297E1,2.2918457E1,9.497528E-1,3.1445007E0,1.3305664E0,1.8971901E0,7.8564453E-1,5.8389755E1,0E0,0E0,0E0,4.208026E0,0E0,0E0,0E0,0E0,0E0,0E0,0E0,0E0,0E0,0E0],"parents":[2147483647,0,0,1,1,3,3,4,4,5,5,6,6,7,7,8,8,9,9,10,10,11,11,12,12,16,16],"right_children":[2,4,-1,6,8,10,12,14,16,18,20,22,24,-1,-1,-1,26,-1,-1,-1,-1,-1,-1,-1,-1,-1,-1],"split_conditions":[3E0,3E1,1.863238E-2,6.25E-1,2E0,1.9E1,2.6E1,2.1E1,8.292683E-1,6E0,2.4E1,1E0,8E0,-1.4042535E-2,-0E0,1.8389735E-2,3.4E1,-1.603943E-2,-0E0,-0E0,1.4415245E-2,-1.9045692E-2,-1.0831877E-2,1.3159107E-2,-1.5392496E-2,7.18201E-4,1.3984352E-2],"split_indices":[4,0,0,7,1,0,0,33,7,33,0,29,33,0,0,0,0,0,0,0,0,0,0,0,0,0,0],"split_type":[0,0,0,0,0,0,0,0,0,0,0,0,0,0,0,0,0,0,0,0,0,0,0,0,0,0,0],"sum_hessian":[2.8904324E3,1.59446E3,1.2959723E3,1.435867E3,1.5859294E2,1.7965994E1,1.417901E3,2.0997528E1,1.3759541E2,8.495767E0,9.470228E0,1.3334382E3,8.446274E1,1.9747574E1,1.2499552E0,1.2290048E2,1.4694938E1,7.246935E0,1.2488315E0,1.748485E0,7.7217426E0,1.3221942E3,1.1244002E1,6.7434845E0,7.771925E1,5.4855638E0,9.209374E0],"tree_param":{"num_deleted":"0","num_feature":"39","num_nodes":"27","size_leaf_vector":"1"}},{"base_weights":[-0E0,1.8472303E-2,-1.4976835E0,-1.8256015E0,1.3613003E0,1.8013196E-2,-1.8830884E0,-1.3575206E0,1.800692E-2,-1.8903513E0,-1.0021446E-1,6.5929764E-3,-1.5520013E-2,-1.9087143E-2,-1.5438544E-2,-1.1464692E-2,1.0648694E-2],"categories":[],"categories_nodes":[],"categories_segments":[],"categories_sizes":[],"default_left":[0,0,0,0,0,0,0,0,0,0,0,0,0,0,0,0,0],"id":6,"left_children":[1,-1,3,5,7,-1,9,11,-1,13,15,-1,-1,-1,-1,-1,-1],"loss_changes":[7.857075E3,0E0,1.4734612E3,2.970161E2,1.960032E2,0E0,1.5775391E1,1.08368E1,0E0,2.3842773E0,1.0128477E1,0E0,0E0,0E0,0E0,0E0,0E0],"parents":[2147483647,0,0,2,2,3,3,4,4,6,6,7,7,9,9,10,10],"right_children":[2,-1,4,6,8,-1,10,12,-1,14,16,-1,-1,-1,-1,-1,-1],"split_conditions":[1E0,1.8472303E-2,3E1,1E0,2E0,1.8013196E-2,1.7857143E-1,1E0,1.800692E-2,2.6E1,2E0,6.5929764E-3,-1.5520013E-2,-1.9087143E-2,-1.5438544E-2,-1.1464692E-2,1.0648694E-2],"split_indices":[38,0,0,27,1,0,6,27,0,0,1,0,0,0,0,0,0],"split_type":[0,0,0,0,0,0,0,0,0,0,0,0,0,0,0,0,0],"sum_hessian":[2.838054E3,1.2705275E3,1.5675265E3,1.4068732E3,1.6065338E2,2.1206383E1,1.3856667E3,2.1743832E1,1.3890956E2,1.3794263E3,6.240543E0,1.2499167E0,2.0493914E1,1.3029783E3,7.6447975E1,3.7485757E0,2.4919672E0],"tree_param":{"num_deleted":"0","num_feature":"39","num_nodes":"17","size_leaf_vector":"1"}},{"base_weights":[-0E0,-1.4869165E0,1.8317295E-2,-1.8179259E0,1.4466048E0,1.7614497E-2,-1.8640764E0,-1.2710406E0,1.7658204E-2,-1.8717688E0,-9.516308E-2,6.5492964E-3,-1.52502665E-2,-1.8871998E-2,-1.46986125E-2,-1.1770659E-2,1.1093733E-2],"categories":[],"categories_nodes":[],"categories_segments":[],"categories_sizes":[],"default_left":[0,0,0,0,0,0,0,0,0,0,0,0,0,0,0,0,0],"id":7,"left_children":[1,3,-1,5,7,-1,9,11,-1,13,15,-1,-1,-1,-1,-1,-1],"loss_changes":[7.8527104E3,1.5485957E3,0E0,2.3978516E2,1.4296765E2,0E0,1.7089844E1,1.0303709E1,0E0,2.5947266E0,1.1456575E1,0E0,0E0,0E0,0E0,0E0,0E0],"parents":[2147483647,0,0,1,1,3,3,4,4,6,6,7,7,9,9,10,10],"right_children":[2,4,-1,6,8,-1,10,12,-1,14,16,-1,-1,-1,-1,-1,-1],"split_conditions":[1E0,2.3E1,1.8317295E-2,1E0,1E0,1.7614497E-2,1.7857143E-1,1E0,1.7658204E-2,1.9E1,1.5E1,6.5492964E-3,-1.52502665E-2,-1.8871998E-2,-1.46986125E-2,-1.1770659E-2,1.1093733E-2],"split_indices":[21,10,0,27,17,0,6,27,0,10,10,0,0,0,0,0,0],"split_type":[0,0,0,0,0,0,0,0,0,0,0,0,0,0,0,0,0],"sum_hessian":[2.8812966E3,1.5907179E3,1.2905787E3,1.4300741E3,1.606439E2,1.74549E1,1.4126191E3,1.624315E1,1.4440076E2,1.405882E3,6.737219E0,1.2498384E0,1.4993313E1,1.3479443E3,5.793754E1,3.9986608E0,2.7385578E0],"tree_param":{"num_deleted":"0","num_feature":"39","num_nodes":"17","size_leaf_vector":"1"}},{"base_weights":[8.7209195E-3,1.8165898E-2,-1.461272E0,-1.7884251E0,1.4570671E0,1.7700514E-2,-1.8436964E0,1.739605E-2,-0E0,-1.861326E-2,-1.1770695E0,-8.485517E-1,1.1583856E0,9.816241E-3,-1.4199295E-2,-0E0,-1.4349322E-2,-0E0,1.3177869E-2],"categories":[],"categories_nodes":[],"categories_segments":[],"categories_sizes":[],"default_left":[0,0,0,0,0,0,0,0,0,0,0,0,0,0,0,0,0,0,0],"id":8,"left_children":[1,-1,3,5,7,-1,9,-1,11,-1,13,15,17,-1,-1,-1,-1,-1,-1],"loss_changes":[7.5980034E3,0E0,1.5080774E3,2.822964E2,6.692563E1,0E0,1.1193848E1,0E0,2.6668104E1,0E0,2.2899776E1,8.38768E0,9.5285225E-1,0E0,0E0,0E0,0E0,0E0,0E0],"parents":[2147483647,0,0,2,2,3,3,4,4,6,6,8,8,10,10,11,11,12,12],"right_children":[2,-1,4,6,8,-1,10,-1,12,-1,14,16,18,-1,-1,-1,-1,-1,-1],"split_conditions":[1E0,1.8165898E-2,2.3E1,1E0,8.3870965E-1,1.7700514E-2,2.8E1,1.739605E-2,2.8E1,-1.861326E-2,7.692308E-1,8.604651E-1,3E1,9.816241E-3,-1.4199295E-2,-0E0,-1.4349322E-2,-0E0,1.3177869E-2],"split_indices":[38,0,10,27,7,0,0,0,10,0,7,7,10,0,0,0,0,0,0],"split_type":[0,0,0,0,0,0,0,0,0,0,0,0,0,0,0,0,0,0,0],"sum_hessian":[2.8568884E3,1.2814022E3,1.5754862E3,1.4173298E3,1.5815636E2,2.0926453E1,1.3964034E3,1.3277116E2,2.5385206E1,1.357218E3,3.918542E1,1.5208833E1,1.01763735E1,3.2386556E0,3.5946762E1,6.4670215E0,8.741811E0,1.9915895E0,8.184784E0],"tree_param":{"num_deleted":"0","num_feature":"39","num_nodes":"19","size_leaf_vector":"1"}},{"base_weights":[-7.1203453E-3,1.801842E-2,-1.4664652E0,-1.7823918E0,1.4467337E0,1.7274585E-2,-1.8290789E0,-1.3517414E-2,1.7420992E-2,-1.8359483E0,-3.635923E-1,-1.8567791E-2,-1.484229E-2,-1.28810285E-2,1.0433652E-2],"categories":[],"categories_nodes":[],"categories_segments":[],"categories_sizes":[],"default_left":[0,0,0,0,0,0,0,0,0,0,0,0,0,0,0],"id":9,"left_children":[1,-1,3,5,7,-1,9,-1,-1,11,13,-1,-1,-1,-1],"loss_changes":[7.5164404E3,0E0,1.4536575E3,2.3641211E2,1.3041809E2,0E0,1.1276367E1,0E0,0E0,4.1411133E0,1.26202E1,0E0,0E0,0E0,0E0],"parents":[2147483647,0,0,2,2,3,3,4,4,6,6,9,9,10,10],"right_children":[2,-1,4,6,8,-1,10,-1,-1,12,14,-1,-1,-1,-1],"split_conditions":[1E0,1.801842E-2,2.3E1,1E0,1E0,1.7274585E-2,1.7857143E-1,-1.3517414E-2,1.7420992E-2,1.8E1,1E0,-1.8567791E-2,-1.484229E-2,-1.28810285E-2,1.0433652E-2],"split_indices":[38,0,10,27,11,0,6,0,0,10,11,0,0,0,0],"split_type":[0,0,0,0,0,0,0,0,0,0,0,0,0,0,0],"sum_hessian":[2.8453704E3,1.2700869E3,1.5752834E3,1.421823E3,1.5346045E2,1.7910719E1,1.4039124E3,1.3986028E1,1.3947441E2,1.3964314E3,7.480896E0,1.3116274E3,8.4804016E1,4.9943457E0,2.48655E0],"tree_param":{"num_deleted":"0","num_feature":"39","num_nodes":"15","size_leaf_vector":"1"}},{"base_weights":[1.2359353E-2,-1.4376876E0,1.7875079E-2,1.7860694E-2,-1.6786313E0,-1.7625251E0,6.243859E-1,-1.7866678E0,3.359571E-1,-1.7129261E-2,1.6538061E-2,-1.8250976E-2,-1.3342517E-2,-1.4715418E-2,1.5429482E-2],"categories":[],"categories_nodes":[],"categories_segments":[],"categories_sizes":[],"default_left":[0,0,0,0,0,0,0,0,0,0,0,0,0,0,0],"id":10,"left_children":[1,3,-1,-1,5,7,9,11,13,-1,-1,-1,-1,-1,-1],"loss_changes":[7.318894E3,1.2181794E3,0E0,0E0,2.8366504E2,7.32876E1,1.2672266E2,1.858496E1,3.80409E1,0E0,0E0,0E0,0E0,0E0,0E0],"parents":[2147483647,0,0,1,1,4,4,5,5,6,6,7,7,8,8],"right_children":[2,4,-1,-1,6,8,10,12,14,-1,-1,-1,-1,-1,-1],"split_conditions":[1E0,1E0,1.7875079E-2,1.7860694E-2,1.2765957E-1,2E0,2E0,2E0,2E0,-1.7129261E-2,1.6538061E-2,-1.8250976E-2,-1.3342517E-2,-1.4715418E-2,1.5429482E-2],"split_indices":[21,27,0,0,6,2,1,1,1,0,0,0,0,0,0],"split_type":[0,0,0,0,0,0,0,0,0,0,0,0,0,0,0],"sum_hessian":[2.8412048E3,1.5635946E3,1.2776104E3,1.0800155E2,1.455593E3,1.4050781E3,5.0514957E1,1.3897147E3,1.5363405E1,1.4945536E1,3.5569424E1,1.276076E3,1.13638626E2,5.731962E0,9.631443E0],"tree_param":{"num_deleted":"0","num_feature":"39","num_nodes":"15","size_leaf_vector":"1"}},{"base_weights":[-9.611302E-3,-1.4589095E0,1.7735241E-2,-1.7534218E0,1.4082887E0,1.7119778E-2,-1.8061334E0,-1.0992237E0,1.7041717E-2,-1.8111843E0,-0E0,-1.1618671E0,-0E0,-1.8248333E-2,-1.306608E-2,-8.474633E-3,8.921355E-3,-1.2849376E-2,-0E0],"categories":[],"categories_nodes":[],"categories_segments":[],"categories_sizes":[],"default_left":[0,0,0,0,0,0,0,0,0,0,0,0,0,0,0,0,0,0,0],"id":11,"left_children":[1,3,-1,5,7,-1,9,11,-1,13,15,17,-1,-1,-1,-1,-1,-1,-1],"loss_changes":[7.356582E3,1.3291487E3,0E0,2.6351318E2,1.11206604E2,0E0,1.3422852E1,5.3964996E-1,0E0,4.1313477E0,4.3480606E0,1.4696426E0,0E0,0E0,0E0,0E0,0E0,0E0,0E0],"parents":[2147483647,0,0,1,1,3,3,4,4,6,6,7,7,9,9,10,10,11,11],"right_children":[2,4,-1,6,8,-1,10,12,-1,14,16,18,-1,-1,-1,-1,-1,-1,-1],"split_conditions":[1E0,3.1E1,1.7735241E-2,1E0,1E0,1.7119778E-2,2.0481928E-1,1.4705882E-2,1.7041717E-2,2.8E1,1.8E1,3.6E1,-0E0,-1.8248333E-2,-1.306608E-2,-8.474633E-3,8.921355E-3,-1.2849376E-2,-0E0],"split_indices":[18,0,0,27,11,0,6,6,0,0,0,0,0,0,0,0,0,0,0],"split_type":[0,0,0,0,0,0,0,0,0,0,0,0,0,0,0,0,0,0,0],"sum_hessian":[2.84477E3,1.5696948E3,1.2750751E3,1.4241469E3,1.4554803E2,2.0582006E1,1.4035648E3,1.471852E1,1.3082951E2,1.3998337E3,3.731123E0,1.3469008E1,1.2495118E0,1.3584873E3,4.1346428E1,1.7456992E0,1.9854239E0,1.1720199E1,1.7488104E0],"tree_param":{"num_deleted":"0","num_feature":"39","num_nodes":"19","size_leaf_vector":"1"}},{"base_weights":[4.6757245E-3,1.7598994E-2,-1.4239179E0,-1.7289191E0,1.3845822E0,1.708195E-2,-1.7792568E0,-1.1544368E0,1.6950194E-2,-1.7854453E0,-9.013086E-2,7.8306645E-3,-1.4577029E-2,-1.7918246E-2,-6.8052355E-3,-1.2248491E-2,1.0303945E-2],"categories":[],"categories_nodes":[],"categories_segments":[],"categories_sizes":[],"default_left":[0,0,0,0,0,0,0,0,0,0,0,0,0,0,0,0,0],"id":12,"left_children":[1,-1,3,5,7,-1,9,11,-1,13,15,-1,-1,-1,-1,-1,-1],"loss_changes":[7.114574E3,0E0,1.3422947E3,2.4730322E2,1.234292E2,0E0,1.2512207E1,1.1780954E1,0E0,6.078125E0,1.000546E1,0E0,0E0,0E0,0E0,0E0,0E0],"parents":[2147483647,0,0,2,2,3,3,4,4,6,6,7,7,9,9,10,10],"right_children":[2,-1,4,6,8,-1,10,12,-1,14,16,-1,-1,-1,-1,-1,-1],"split_conditions":[1E0,1.7598994E-2,2.3E1,1E0,2E0,1.708195E-2,1.7857143E-1,1E0,1.6950194E-2,3E1,2E0,7.8306645E-3,-1.4577029E-2,-1.7918246E-2,-6.8052355E-3,-1.2248491E-2,1.0303945E-2],"split_indices":[38,0,10,27,1,0,6,27,0,0,1,0,0,0,0,0,0],"split_type":[0,0,0,0,0,0,0,0,0,0,0,0,0,0,0,0,0],"sum_hessian":[2.835183E3,1.2723699E3,1.5628132E3,1.4103866E3,1.5242662E2,1.9595276E1,1.3907913E3,1.5959149E1,1.3646747E2,1.3850677E3,5.723601E0,1.4995158E0,1.4459634E1,1.3755989E3,9.468873E0,3.240943E0,2.4826577E0],"tree_param":{"num_deleted":"0","num_feature":"39","num_nodes":"17","size_leaf_vector":"1"}},{"base_weights":[-3.5362972E-3,1.746622E-2,-1.4175301E0,-1.7259412E0,1.2205153E0,-1.7646393E0,-1.0802485E0,1.5086827E0,-8.3203524E-1,1.4283237E-3,-1.7672713E0,1.2855126E0,-1.4357281E0,1.730058E-2,7.064112E-1,-1.3410727E-2,8.489044E-3,-1.7685018E-2,-0E0,1.4685274E-2,-0E0,-8.0564484E-4,-1.4920758E-2,-2.876206E-3,1.4450269E-2],"categories":[],"categories_nodes":[],"categories_segments":[],"categories_sizes":[],"default_left":[0,0,0,0,0,0,0,0,0,0,0,0,0,0,0,0,0,0,0,0,0,0,0,0,0],"id":13,"left_children":[1,-1,3,5,7,9,11,13,15,-1,17,19,21,-1,23,-1,-1,-1,-1,-1,-1,-1,-1,-1,-1],"loss_changes":[7.0737476E3,0E0,1.2892717E3,3.0646973E1,9.9986115E1,8.571777E0,7.275832E1,2.229837E1,1.9279808E1,0E0,1.9306641E0,2.3961258E0,3.9571228E0,0E0,2.6737232E1,0E0,0E0,0E0,0E0,0E0,0E0,0E0,0E0,0E0,0E0],"parents":[2147483647,0,0,2,2,3,3,4,4,5,5,6,6,7,7,8,8,10,10,11,11,12,12,14,14],"right_children":[2,-1,4,6,8,10,12,14,16,-1,18,20,22,-1,24,-1,-1,-1,-1,-1,-1,-1,-1,-1,-1],"split_conditions":[1E0,1.746622E-2,3E1,2.6E1,8.666667E-1,4.827586E-1,8E0,1.2E1,3.5E1,1.4283237E-3,1.2E1,8.235294E-1,7.941176E-1,1.730058E-2,3.6E1,-1.3410727E-2,8.489044E-3,-1.7685018E-2,-0E0,1.4685274E-2,-0E0,-8.0564484E-4,-1.4920758E-2,-2.876206E-3,1.4450269E-2],"split_indices":[38,0,0,0,7,7,33,33,0,0,33,7,7,0,0,0,0,0,0,0,0,0,0,0,0],"split_type":[0,0,0,0,0,0,0,0,0,0,0,0,0,0,0,0,0,0,0,0,0,0,0,0,0],"sum_hessian":[2.856544E3,1.276109E3,1.580435E3,1.4156569E3,1.6477814E2,1.332514E3,8.314288E1,1.4515175E2,1.9626383E1,1.2391772E0,1.3312748E3,1.0151828E1,7.299105E1,1.11877785E2,3.3273968E1,1.5676252E1,3.950131E0,1.3300387E3,1.2361075E0,8.656524E0,1.4953047E0,3.7192705E0,6.927178E1,1.3867605E1,1.9406363E1],"tree_param":{"num_deleted":"0","num_feature":"39","num_nodes":"25","size_leaf_vector":"1"}},{"base_weights":[7.07084E-3,-1.3951341E0,1.7336454E-2,-1.6994874E0,1.401218E0,1.6959442E-2,-1.7492925E0,-1.0769966E0,1.6789585E-2,-1.7553977E0,-1.9909362E-1,6.439324E-3,-1.3396225E-2,-1.7765496E-2,-1.3870815E-2,-1.1084349E-2,9.558166E-3],"categories":[],"categories_nodes":[],"categories_segments":[],"categories_sizes":[],"default_left":[0,0,0,0,0,0,0,0,0,0,0,0,0,0,0,0,0],"id":14,"left_children":[1,3,-1,5,7,-1,9,11,-1,13,15,-1,-1,-1,-1,-1,-1],"loss_changes":[6.8429224E3,1.3298154E3,0E0,2.40969E2,1.07917114E2,0E0,1.0828125E1,8.651512E0,0E0,5.1328125E0,8.787801E0,0E0,0E0,0E0,0E0,0E0,0E0],"parents":[2147483647,0,0,1,1,3,3,4,4,6,6,7,7,9,9,10,10],"right_children":[2,4,-1,6,8,-1,10,12,-1,14,16,-1,-1,-1,-1,-1,-1],"split_conditions":[3E0,2.3E1,1.7336454E-2,1E0,2E0,1.6959442E-2,1.7857143E-1,1E0,1.6789585E-2,1.8E1,2E0,6.439324E-3,-1.3396225E-2,-1.7765496E-2,-1.3870815E-2,-1.1084349E-2,9.558166E-3],"split_indices":[4,10,0,27,1,0,6,27,0,10,1,0,0,0,0,0,0],"split_type":[0,0,0,0,0,0,0,0,0,0,0,0,0,0,0,0,0],"sum_hessian":[2.8243337E3,1.5583566E3,1.265977E3,1.4060706E3,1.5228607E2,1.955838E1,1.3865121E3,1.4694276E1,1.375918E2,1.3802986E3,6.2135463E0,1.2491668E0,1.3445108E1,1.2991514E3,8.114726E1,3.9833148E0,2.2302318E0],"tree_param":{"num_deleted":"0","num_feature":"39","num_nodes":"17","size_leaf_vector":"1"}},{"base_weights":[3.909344E-3,-1.3968294E0,1.721011E-2,-1.6848557E0,1.323181E0,1.688585E-2,-1.7361581E0,-1.3403373E0,1.6482443E-2,-1.7428751E0,-1.2735434E-1,-1.46103E-2,-0E0,-1.7622191E-2,-1.414982E-2,-1.1017586E-2,1.0173002E-2],"categories":[],"categories_nodes":[],"categories_segments":[],"categories_sizes":[],"default_left":[0,0,0,0,0,0,0,0,0,0,0,0,0,0,0,0,0],"id":15,"left_children":[1,3,-1,5,7,-1,9,11,-1,13,15,-1,-1,-1,-1,-1,-1],"loss_changes":[6.7879805E3,1.2199604E3,0E0,2.4628809E2,1.3153687E2,0E0,1.2881348E1,1.2882748E0,0E0,3.0766602E0,9.524513E0,0E0,0E0,0E0,0E0,0E0,0E0],"parents":[2147483647,0,0,1,1,3,3,4,4,6,6,7,7,9,9,10,10],"right_children":[2,4,-1,6,8,-1,10,12,-1,14,16,-1,-1,-1,-1,-1,-1],"split_conditions":[1E0,2.3E1,1.721011E-2,1E0,1E0,1.688585E-2,1.7857143E-1,2.8E1,1.6482443E-2,1.8E1,1E0,-1.46103E-2,-0E0,-1.7622191E-2,-1.414982E-2,-1.1017586E-2,1.0173002E-2],"split_indices":[18,10,0,27,11,0,6,10,0,10,11,0,0,0,0,0,0],"split_type":[0,0,0,0,0,0,0,0,0,0,0,0,0,0,0,0,0],"sum_hessian":[2.8200635E3,1.5528877E3,1.2671758E3,1.4048718E3,1.4801591E2,2.0274864E1,1.3845969E3,1.5425136E1,1.3259079E2,1.3781381E3,6.458814E0,1.3427047E1,1.9980884E0,1.2943535E3,8.3784584E1,3.9810162E0,2.4777982E0],"tree_param":{"num_deleted":"0","num_feature":"39","num_nodes":"17","size_leaf_vector":"1"}},{"base_weights":[8.7212864E-4,1.7086435E-2,-1.3755242E0,-1.6796836E0,1.2452632E0,1.669202E-2,-1.7295586E0,-1.2678051E0,1.631823E-2,-1.7336109E0,-0E0,-1.3522438E0,-0E0,-1.7366918E-2,-9.965571E-4,-1.4198588E-2,-0E0],"categories":[],"categories_nodes":[],"categories_segments":[],"categories_sizes":[],"default_left":[0,0,0,0,0,0,0,0,0,0,0,0,0,0,0,0,0],"id":16,"left_children":[1,-1,3,5,7,-1,9,11,-1,13,-1,15,-1,-1,-1,-1,-1],"loss_changes":[6.5454326E3,0E0,1.2313127E3,2.3377148E2,1.5837978E2,0E0,8.714111E0,1.1327591E0,0E0,4.8322754E0,0E0,1.1617546E0,0E0,0E0,0E0,0E0,0E0],"parents":[2147483647,0,0,2,2,3,3,4,4,6,6,7,7,9,9,11,11],"right_children":[2,-1,4,6,8,-1,10,12,-1,14,-1,16,-1,-1,-1,-1,-1],"split_conditions":[1E0,1.7086435E-2,3E1,1E0,1E0,1.669202E-2,4.1899E0,1.4705882E-2,1.631823E-2,2.0481928E-1,-0E0,2.1E1,-0E0,-1.7366918E-2,-9.965571E-4,-1.4198588E-2,-0E0],"split_indices":[38,0,0,27,11,0,9,6,0,6,0,33,0,0,0,0,0],"split_type":[0,0,0,0,0,0,0,0,0,0,0,0,0,0,0,0,0],"sum_hessian":[2.782473E3,1.241973E3,1.5404999E3,1.38097E3,1.5952989E2,1.9494305E1,1.3614757E3,2.0618708E1,1.389112E2,1.3580131E3,3.462662E0,1.8622593E1,1.9961149E0,1.3547836E3,3.2293987E0,1.7374468E1,1.2481257E0],"tree_param":{"num_deleted":"0","num_feature":"39","num_nodes":"17","size_leaf_vector":"1"}},{"base_weights":[-7.2802994E-3,1.6966052E-2,-1.36747E0,-1.6631292E0,1.2977916E0,-1.6850649E0,5.0985694E-1,-1.3380749E-2,1.6149331E0,-1.7244462E-2,-1.1108176E0,-1.0918137E-2,1.3281698E-2,1.686979E-2,8.626581E-1,1.4155407E-2,-1.3893168E-2,-0E0,1.21846385E-2],"categories":[],"categories_nodes":[],"categories_segments":[],"categories_sizes":[],"default_left":[0,0,0,0,0,0,0,0,0,0,0,0,0,0,0,0,0,0,0],"id":17,"left_children":[1,-1,3,5,7,9,11,-1,13,-1,15,-1,-1,-1,17,-1,-1,-1,-1],"loss_changes":[6.474091E3,0E0,1.2269246E3,6.873828E1,1.3232303E2,2.6595703E1,2.0425856E1,0E0,3.5546875E0,0E0,6.765407E1,0E0,0E0,0E0,4.859252E0,0E0,0E0,0E0,0E0],"parents":[2147483647,0,0,2,2,3,3,4,4,5,5,6,6,8,8,10,10,14,14],"right_children":[2,-1,4,6,8,10,12,-1,14,-1,16,-1,-1,-1,18,-1,-1,-1,-1],"split_conditions":[1E0,1.6966052E-2,2.3E1,1.7857143E-1,1E0,1.8E1,1.1E1,-1.3380749E-2,8.3870965E-1,-1.7244462E-2,8E0,-1.0918137E-2,1.3281698E-2,1.686979E-2,2.6E1,1.4155407E-2,-1.3893168E-2,-0E0,1.21846385E-2],"split_indices":[38,0,10,6,17,10,10,0,7,0,33,0,0,0,10,0,0,0,0],"split_type":[0,0,0,0,0,0,0,0,0,0,0,0,0,0,0,0,0,0,0],"sum_hessian":[2.791578E3,1.2387878E3,1.5527899E3,1.3984142E3,1.5437578E2,1.3851166E3,1.3297585E1,1.589499E1,1.3848077E2,1.2927189E3,9.239779E1,3.9703097E0,9.327274E0,1.2403048E2,1.4450301E1,8.412433E0,8.398536E1,4.432893E0,1.0017408E1],"tree_param":{"num_deleted":"0","num_feature":"39","num_nodes":"19","size_leaf_vector":"1"}},{"base_weights":[4.4310675E-3,-1.3558286E0,1.6848763E-2,-1.65065E0,1.3336248E0,-1.7047395E0,-9.104081E-1,1.6064124E0,-0E0,-3.139911E-1,-1.7085088E0,1.4948242E0,-1.3648905E0,1.6737383E-2,8.835262E-1,-6.5657055E-1,1.0918053E0,-1.1127275E-2,6.8846815E-3,-1.7098416E-2,-0E0,1.5788175E-2,-0E0,-0E0,-1.4519068E-2,-7.1168826E-3,1.326025E-2,9.427033E-3,-1.193475E-2,1.3219555E-2,-0E0],"categories":[],"categories_nodes":[],"categories_segments":[],"categories_sizes":[],"default_left":[0,0,0,0,0,0,0,0,0,0,0,0,0,0,0,0,0,0,0,0,0,0,0,0,0,0,0,0,0,0,0],"id":18,"left_children":[1,3,-1,5,7,9,11,13,15,17,19,21,23,-1,25,27,29,-1,-1,-1,-1,-1,-1,-1,-1,-1,-1,-1,-1,-1,-1],"loss_changes":[6.3992935E3,1.2289546E3,0E0,5.1676758E1,5.4146454E1,4.2421875E0,1.0945099E2,2.118103E0,2.0897093E1,5.553429E0,2.2832031E0,9.6876144E-1,1.06184845E1,0E0,1.1551209E1,1.6232548E1,1.9546509E0,0E0,0E0,0E0,0E0,0E0,0E0,0E0,0E0,0E0,0E0,0E0,0E0,0E0,0E0],"parents":[2147483647,0,0,1,1,3,3,4,4,5,5,6,6,7,7,8,8,9,9,10,10,11,11,12,12,14,14,15,15,16,16],"right_children":[2,4,-1,6,8,10,12,14,16,18,20,22,24,-1,26,28,30,-1,-1,-1,-1,-1,-1,-1,-1,-1,-1,-1,-1,-1,-1],"split_conditions":[3E0,2.3E1,1.6848763E-2,1.8E1,8.3870965E-1,5.882353E-1,8E0,1.5E1,2.7E1,1.9E1,4.1792E0,8.2857144E-1,7.8723407E-1,1.6737383E-2,3.6E1,1.2E1,2E1,-1.1127275E-2,6.8846815E-3,-1.7098416E-2,-0E0,1.5788175E-2,-0E0,-0E0,-1.4519068E-2,-7.1168826E-3,1.326025E-2,9.427033E-3,-1.193475E-2,1.3219555E-2,-0E0],"split_indices":[4,10,0,10,7,7,33,33,10,0,9,7,7,0,0,33,33,0,0,0,0,0,0,0,0,0,0,0,0,0,0],"split_type":[0,0,0,0,0,0,0,0,0,0,0,0,0,0,0,0,0,0,0,0,0,0,0,0,0,0,0,0,0,0,0],"sum_hessian":[2.7973914E3,1.545756E3,1.2516355E3,1.3937313E3,1.520246E2,1.2963533E3,9.7378136E1,1.2544895E2,2.6575655E1,4.449093E0,1.2919042E3,1.4762416E1,8.2615715E1,1.1229194E2,1.3157006E1,1.6302227E1,1.0273429E1,2.9701192E0,1.4789734E0,1.2906704E3,1.2337003E0,1.3518544E1,1.2438718E0,4.6851196E0,7.7930595E1,2.2342546E0,1.0922751E1,3.439291E0,1.2862936E1,7.808259E0,2.46517E0],"tree_param":{"num_deleted":"0","num_feature":"39","num_nodes":"31","size_leaf_vector":"1"}},{"base_weights":[-2.73313E-3,1.673389E-2,-1.3432285E0,-1.6474301E0,1.2467273E0,1.6577281E-2,-1.6939439E0,1.5061253E0,-6.648802E-1,-1.697759E0,-0E0,1.6362082E-2,7.433951E-1,-1.1935858E-2,9.760335E-3,-0E0,-1.6990047E-2,1.5253638E-3,-3.0496072E-3,4.0241424E-4,1.2886003E-2],"categories":[],"categories_nodes":[],"categories_segments":[],"categories_sizes":[],"default_left":[0,0,0,0,0,0,0,0,0,0,0,0,0,0,0,0,0,0,0,0,0],"id":19,"left_children":[1,-1,3,5,7,-1,9,11,13,15,17,-1,19,-1,-1,-1,-1,-1,-1,-1,-1],"loss_changes":[6.2673184E3,0E0,1.2238755E3,2.1624683E2,8.275444E1,0E0,7.763672E0,1.0735443E1,1.8499012E1,2.1923828E0,3.5144302E-1,0E0,7.8192663E0,0E0,0E0,0E0,0E0,0E0,0E0,0E0,0E0],"parents":[2147483647,0,0,2,2,3,3,4,4,6,6,7,7,8,8,9,9,10,10,12,12],"right_children":[2,-1,4,6,8,-1,10,12,14,16,18,-1,20,-1,-1,-1,-1,-1,-1,-1,-1],"split_conditions":[1E0,1.673389E-2,3E1,1E0,8.666667E-1,1.6577281E-2,4.1792E0,8.125E-1,3.8E1,5.060241E-1,6.571429E-1,1.6362082E-2,3.4E1,-1.1935858E-2,9.760335E-3,-0E0,-1.6990047E-2,1.5253638E-3,-3.0496072E-3,4.0241424E-4,1.2886003E-2],"split_indices":[38,0,0,27,7,0,9,7,0,7,7,0,0,0,0,0,0,0,0,0,0],"split_type":[0,0,0,0,0,0,0,0,0,0,0,0,0,0,0,0,0,0,0,0,0],"sum_hessian":[2.7875464E3,1.238261E3,1.5492853E3,1.3871129E3,1.6217238E2,1.8471012E1,1.3686418E3,1.4344295E2,1.8729437E1,1.3651865E3,3.4552946E0,1.204449E2,2.299804E1,1.4832425E1,3.8970115E0,1.2430385E0,1.3639436E3,1.2357211E0,2.2195735E0,1.1314134E1,1.1683907E1],"tree_param":{"num_deleted":"0","num_feature":"39","num_nodes":"21","size_leaf_vector":"1"}},{"base_weights":[3.5500887E-3,-1.3389838E0,1.6621849E-2,-1.619392E0,1.3047906E0,1.6523568E-2,-1.6742629E0,1.5949069E-2,-6.738147E-2,-1.6806056E0,-0E0,-8.7814665E-1,1.1715921E0,-1.6988529E-2,-1.2409911E-2,5.913595E-3,-8.57039E-3,6.4369654E-3,-1.1316318E-2,-0E0,1.3028066E-2],"categories":[],"categories_nodes":[],"categories_segments":[],"categories_sizes":[],"default_left":[0,0,0,0,0,0,0,0,0,0,0,0,0,0,0,0,0,0,0,0,0],"id":20,"left_children":[1,3,-1,5,7,-1,9,-1,11,13,15,17,19,-1,-1,-1,-1,-1,-1,-1,-1],"loss_changes":[6.173417E3,1.1379836E3,0E0,2.5154907E2,6.019301E1,0E0,1.4378906E1,0E0,2.688352E1,5.848633E0,3.6563501E0,7.6947956E0,1.2385378E0,0E0,0E0,0E0,0E0,0E0,0E0,0E0,0E0],"parents":[2147483647,0,0,1,1,3,3,4,4,6,6,8,8,9,9,10,10,11,11,12,12],"right_children":[2,4,-1,6,8,-1,10,-1,12,14,16,18,20,-1,-1,-1,-1,-1,-1,-1,-1],"split_conditions":[1E0,3.1E1,1.6621849E-2,1E0,8.3870965E-1,1.6523568E-2,4.1792E0,1.5949069E-2,3.6E1,2.7E1,1.3E1,1.1E1,3.9702E0,-1.6988529E-2,-1.2409911E-2,5.913595E-3,-8.57039E-3,6.4369654E-3,-1.1316318E-2,-0E0,1.3028066E-2],"split_indices":[18,0,0,27,7,0,9,0,0,0,33,33,9,0,0,0,0,0,0,0,0],"split_type":[0,0,0,0,0,0,0,0,0,0,0,0,0,0,0,0,0,0,0,0,0],"sum_hessian":[2.7702156E3,1.5307688E3,1.2394467E3,1.3846713E3,1.4609753E2,2.2058584E1,1.3626127E3,1.2106696E2,2.5030567E1,1.3574302E3,5.182531E0,1.5793738E1,9.236828E0,1.2983981E3,5.9032085E1,3.208138E0,1.9743927E0,1.4719918E0,1.4321747E1,1.2284919E0,8.008336E0],"tree_param":{"num_deleted":"0","num_feature":"39","num_nodes":"21","size_leaf_vector":"1"}},{"base_weights":[-1.3777734E-3,1.6512318E-2,-1.3193547E0,-1.5724671E0,1.311986E0,-1.6487054E0,-7.9661787E-1,-1.0121808E0,1.6115664E-2,-1.6686073E-2,-1.3500965E0,-1.5140963E0,2.0311822E-1,-1.0659691E-2,-0E0,-1.3712113E-2,-5.910179E-4,-1.5502118E-2,-0E0,-3.217778E-3,1.0597184E-2],"categories":[],"categories_nodes":[],"categories_segments":[],"categories_sizes":[],"default_left":[0,0,0,0,0,0,0,0,0,0,0,0,0,0,0,0,0,0,0,0,0],"id":21,"left_children":[1,-1,3,5,7,9,11,13,-1,-1,15,17,19,-1,-1,-1,-1,-1,-1,-1,-1],"loss_changes":[6.047893E3,0E0,1.0314363E3,7.966406E1,9.677548E1,2.347412E0,9.436227E1,3.404541E-1,0E0,0E0,9.0075684E-1,3.7050629E0,2.550347E1,0E0,0E0,0E0,0E0,0E0,0E0,0E0,0E0],"parents":[2147483647,0,0,2,2,3,3,4,4,5,5,6,6,7,7,10,10,11,11,12,12],"right_children":[2,-1,4,6,8,10,12,14,-1,-1,16,18,20,-1,-1,-1,-1,-1,-1,-1,-1],"split_conditions":[1E0,1.6512318E-2,4.1153E0,2E0,2E0,1.1E1,3.8424E0,2.1E1,1.6115664E-2,-1.6686073E-2,1.8E1,1E1,1E1,-1.0659691E-2,-0E0,-1.3712113E-2,-5.910179E-4,-1.5502118E-2,-0E0,-3.217778E-3,1.0597184E-2],"split_indices":[38,0,9,1,1,33,9,33,0,0,33,33,33,0,0,0,0,0,0,0,0],"split_type":[0,0,0,0,0,0,0,0,0,0,0,0,0,0,0,0,0,0,0,0,0],"sum_hessian":[2.7748335E3,1.2306772E3,1.5441562E3,1.4093694E3,1.3478682E2,1.2810718E3,1.282976E2,1.4737275E1,1.2004955E2,1.193584E3,8.748787E1,7.497572E1,5.3321888E1,1.3488773E1,1.248502E0,8.5256714E1,2.2311502E0,7.3018654E1,1.9570646E0,3.2725655E1,2.0596235E1],"tree_param":{"num_deleted":"0","num_feature":"39","num_nodes":"21","size_leaf_vector":"1"}},{"base_weights":[6.4954555E-5,-1.3173211E0,1.64052E-2,-1.5930194E0,1.3126527E0,1.6447619E-2,-1.6440554E0,-1.0454566E0,1.5782739E0,-1.6503664E0,-0E0,6.705318E-3,-1.3256024E-2,2.1899958E-1,1.613025E-2,-1.6712219E-2,-1.3142148E-2,-4.043413E-3,7.844391E-3,8.388541E-3,-1.8088325E-3],"categories":[],"categories_nodes":[],"categories_segments":[],"categories_sizes":[],"default_left":[0,0,0,0,0,0,0,0,0,0,0,0,0,0,0,0,0,0,0,0,0],"id":22,"left_children":[1,3,-1,5,7,-1,9,11,13,15,17,-1,-1,19,-1,-1,-1,-1,-1,-1,-1],"loss_changes":[5.932046E3,1.1058958E3,0E0,2.3046338E2,9.276106E1,0E0,1.48125E1,8.687714E0,3.9908447E0,4.302246E0,2.3637643E0,0E0,0E0,2.0822277E0,0E0,0E0,0E0,0E0,0E0,0E0,0E0],"parents":[2147483647,0,0,1,1,3,3,4,4,6,6,7,7,8,8,9,9,10,10,13,13],"right_children":[2,4,-1,6,8,-1,10,12,14,16,18,-1,-1,20,-1,-1,-1,-1,-1,-1,-1],"split_conditions":[3E0,2.3E1,1.64052E-2,1E0,1E0,1.6447619E-2,4.1899E0,1E0,3.9149E0,2.6E1,1E0,6.705318E-3,-1.3256024E-2,1E0,1.613025E-2,-1.6712219E-2,-1.3142148E-2,-4.043413E-3,7.844391E-3,8.388541E-3,-1.8088325E-3],"split_indices":[4,10,0,27,11,0,9,27,9,0,11,0,0,27,0,0,0,0,0,0,0],"split_type":[0,0,0,0,0,0,0,0,0,0,0,0,0,0,0,0,0,0,0,0,0],"sum_hessian":[2.742754E3,1.5209363E3,1.2218176E3,1.3773267E3,1.4360965E2,2.0584782E1,1.3567418E3,1.3860386E1,1.2974927E2,1.3518162E3,4.925717E0,1.2486846E0,1.2611702E1,4.133846E0,1.2561542E2,1.2663055E3,8.551061E1,3.2003477E0,1.7253695E0,2.1712284E0,1.9626174E0],"tree_param":{"num_deleted":"0","num_feature":"39","num_nodes":"21","size_leaf_vector":"1"}},{"base_weights":[9.142572E-3,1.6301086E-2,-1.3094078E0,-1.5844581E0,1.2825719E0,1.6280977E-2,-1.6325798E0,-1.1602494E0,1.5839254E-2,-1.6385419E0,-2.6857663E-2,6.571979E-3,-1.4208693E-2,-1.6615255E-2,-1.2712752E-2,-9.4410535E-3,9.381345E-3],"categories":[],"categories_nodes":[],"categories_segments":[],"categories_sizes":[],"default_left":[0,0,0,0,0,0,0,0,0,0,0,0,0,0,0,0,0],"id":23,"left_children":[1,-1,3,5,7,-1,9,11,-1,13,15,-1,-1,-1,-1,-1,-1],"loss_changes":[5.9161045E3,0E0,1.0902305E3,2.1605762E2,1.1017996E2,0E0,1.13186035E1,9.423643E0,0E0,6.393799E0,6.7965703E0,0E0,0E0,0E0,0E0,0E0,0E0],"parents":[2147483647,0,0,2,2,3,3,4,4,6,6,7,7,9,9,10,10],"right_children":[2,-1,4,6,8,-1,10,12,-1,14,16,-1,-1,-1,-1,-1,-1],"split_conditions":[1E0,1.6301086E-2,2.3E1,1E0,1E0,1.6280977E-2,1.7857143E-1,1E0,1.5839254E-2,2.6E1,1E0,6.571979E-3,-1.4208693E-2,-1.6615255E-2,-1.2712752E-2,-9.4410535E-3,9.381345E-3],"split_indices":[38,0,10,27,11,0,6,27,0,0,11,0,0,0,0,0,0],"split_type":[0,0,0,0,0,0,0,0,0,0,0,0,0,0,0,0,0],"sum_hessian":[2.7658455E3,1.2408827E3,1.5249626E3,1.3793647E3,1.4559798E2,1.9565678E1,1.3597991E3,1.5311549E1,1.3028642E2,1.3541279E3,5.6711736E0,1.2482363E0,1.40633135E1,1.2684983E3,8.562954E1,3.4498923E0,2.221281E0],"tree_param":{"num_deleted":"0","num_feature":"39","num_nodes":"17","size_leaf_vector":"1"}},{"base_weights":[-1.0071206E-3,1.6198583E-2,-1.3024628E0,-1.5725722E0,1.2657586E0,1.6104195E-2,-1.6241367E0,-1.055666E0,1.5654182E-2,-1.6485436E-2,-1.2268745E0,7.878352E-3,-1.3531695E-2,-1.5005368E-2,1.838695E-4],"categories":[],"categories_nodes":[],"categories_segments":[],"categories_sizes":[],"default_left":[0,0,0,0,0,0,0,0,0,0,0,0,0,0,0],"id":24,"left_children":[1,-1,3,5,7,-1,9,11,-1,-1,13,-1,-1,-1,-1],"loss_changes":[5.784526E3,0E0,1.0576655E3,2.2869775E2,1.0301694E2,0E0,8.251709E0,1.0840395E1,0E0,0E0,3.0401917E1,0E0,0E0,0E0,0E0],"parents":[2147483647,0,0,2,2,3,3,4,4,6,6,7,7,10,10],"right_children":[2,-1,4,6,8,-1,10,12,-1,-1,14,-1,-1,-1,-1],"split_conditions":[1E0,1.6198583E-2,3.1E1,1E0,2E0,1.6104195E-2,2.6E1,1E0,1.5654182E-2,-1.6485436E-2,2E0,7.878352E-3,-1.3531695E-2,-1.5005368E-2,1.838695E-4],"split_indices":[38,0,0,27,1,0,0,27,0,0,1,0,0,0,0],"split_type":[0,0,0,0,0,0,0,0,0,0,0,0,0,0,0],"sum_hessian":[2.740302E3,1.2199424E3,1.5203596E3,1.3763779E3,1.4398169E2,2.1150791E1,1.355227E3,1.5790982E1,1.281907E2,1.271445E3,8.378216E1,1.498148E0,1.4292834E1,6.917754E1,1.4604611E1],"tree_param":{"num_deleted":"0","num_feature":"39","num_nodes":"15","size_leaf_vector":"1"}},{"base_weights":[-1.4831789E-3,-1.291372E0,1.60986E-2,-1.5708526E0,1.2436732E0,1.5936086E-2,-1.6138026E0,-1.1229234E0,1.5445024E-2,-1.6387222E-2,-1.2301174E0,7.831573E-3,-1.4173118E-2,1.2928223E-2,-1.4384478E-2],"categories":[],"categories_nodes":[],"categories_segments":[],"categories_sizes":[],"default_left":[0,0,0,0,0,0,0,0,0,0,0,0,0,0,0],"id":25,"left_children":[1,3,-1,5,7,-1,9,11,-1,-1,13,-1,-1,-1,-1],"loss_changes":[5.6883022E3,1.07951E3,0E0,1.8882886E2,1.09788666E2,0E0,8.048828E0,1.1425989E1,0E0,0E0,4.876146E1,0E0,0E0,0E0,0E0],"parents":[2147483647,0,0,1,1,3,3,4,4,6,6,7,7,10,10],"right_children":[2,4,-1,6,8,-1,10,12,-1,-1,14,-1,-1,-1,-1],"split_conditions":[3E0,2.3E1,1.60986E-2,1E0,2E0,1.5936086E-2,1.8E1,1E0,1.5445024E-2,-1.6387222E-2,8E0,7.831573E-3,-1.4173118E-2,1.2928223E-2,-1.4384478E-2],"split_indices":[4,10,0,27,1,0,10,27,0,0,33,0,0,0,0],"split_type":[0,0,0,0,0,0,0,0,0,0,0,0,0,0,0],"sum_hessian":[2.7349485E3,1.5194443E3,1.2155042E3,1.3692623E3,1.5018204E2,1.7540325E1,1.351722E3,1.6254267E1,1.3392778E2,1.2637653E3,8.795681E1,1.4979999E0,1.4756268E1,5.9458013E0,8.201101E1],"tree_param":{"num_deleted":"0","num_feature":"39","num_nodes":"15","size_leaf_vector":"1"}},{"base_weights":[-1.8349737E-3,-1.2787124E0,1.6000712E-2,-1.5473921E0,1.2566334E0,1.5947357E-2,-1.6002185E0,-1.0689827E0,1.5460423E-2,-1.6056372E0,-0E0,-1.1283016E0,-0E0,-1.625771E-2,-1.2674807E-2,-6.4321193E-3,7.392224E-3,-1.20451795E-2,-0E0],"categories":[],"categories_nodes":[],"categories_segments":[],"categories_sizes":[],"default_left":[0,0,0,0,0,0,0,0,0,0,0,0,0,0,0,0,0,0,0],"id":26,"left_children":[1,3,-1,5,7,-1,9,11,-1,13,15,17,-1,-1,-1,-1,-1,-1,-1],"loss_changes":[5.5513555E3,1.0312883E3,0E0,2.294143E2,9.9685684E1,0E0,1.3219238E1,5.299568E-1,0E0,4.1760254E0,2.9148884E0,8.6146927E-1,0E0,0E0,0E0,0E0,0E0,0E0,0E0],"parents":[2147483647,0,0,1,1,3,3,4,4,6,6,7,7,9,9,10,10,11,11],"right_children":[2,4,-1,6,8,-1,10,12,-1,14,16,18,-1,-1,-1,-1,-1,-1,-1],"split_conditions":[1E0,3.1E1,1.6000712E-2,1E0,1E0,1.5947357E-2,2.0481928E-1,3.8E1,1.5460423E-2,2.6E1,1.9E1,3.0303031E-2,-0E0,-1.625771E-2,-1.2674807E-2,-6.4321193E-3,7.392224E-3,-1.20451795E-2,-0E0],"split_indices":[21,0,0,27,11,0,6,0,0,0,0,6,0,0,0,0,0,0,0],"split_type":[0,0,0,0,0,0,0,0,0,0,0,0,0,0,0,0,0,0,0],"sum_hessian":[2.7121748E3,1.509656E3,1.2025188E3,1.3657108E3,1.4394524E2,2.1785517E1,1.3439253E3,1.5250125E1,1.2869511E2,1.3399907E3,3.9345622E0,1.4002668E1,1.2474564E0,1.2583062E3,8.168463E1,1.4716061E0,2.4629562E0,1.27579E1,1.2447683E0],"tree_param":{"num_deleted":"0","num_feature":"39","num_nodes":"19","size_leaf_vector":"1"}},{"base_weights":[-4.2460524E-3,-1.268484E0,1.5905203E-2,-1.529061E0,1.3469703E0,-1.5563358E0,7.847622E-1,-9.908E-3,1.5422719E-2,-1.5999603E0,-9.7370505E-1,-8.308531E-3,1.2738051E0,-1.604752E-2,-7.262671E-3,-1.3785593E-2,4.1525397E-3,-0E0,1.36199035E-2],"categories":[],"categories_nodes":[],"categories_segments":[],"categories_sizes":[],"default_left":[0,0,0,0,0,0,0,0,0,0,0,0,0,0,0,0,0,0,0],"id":27,"left_children":[1,3,-1,5,7,9,11,-1,-1,13,15,-1,17,-1,-1,-1,-1,-1,-1],"loss_changes":[5.490017E3,1.0377131E3,0E0,8.92417E1,6.501347E1,3.0617188E1,1.4415103E1,0E0,0E0,1.8154297E0,5.7423462E1,0E0,8.5427475E-1,0E0,0E0,0E0,0E0,0E0,0E0],"parents":[2147483647,0,0,1,1,3,3,4,4,5,5,6,6,9,9,10,10,12,12],"right_children":[2,4,-1,6,8,10,12,-1,-1,14,16,-1,18,-1,-1,-1,-1,-1,-1],"split_conditions":[3E0,3.2E1,1.5905203E-2,1.7857143E-1,1E0,2.6E1,1.9E1,-9.908E-3,1.5422719E-2,1E0,1E0,-8.308531E-3,2.3E1,-1.604752E-2,-7.262671E-3,-1.3785593E-2,4.1525397E-3,-0E0,1.36199035E-2],"split_indices":[4,0,0,6,11,0,0,0,0,15,11,0,0,0,0,0,0,0,0],"split_type":[0,0,0,0,0,0,0,0,0,0,0,0,0,0,0,0,0,0,0],"sum_hessian":[2.7211602E3,1.5183402E3,1.20282E3,1.3814995E3,1.3684067E2,1.366155E3,1.5344417E1,9.841685E0,1.26998985E2,1.2677684E3,9.8386635E1,2.9279182E0,1.2416498E1,1.2588828E3,8.885589E0,7.674455E1,2.164208E1,1.2205997E0,1.1195898E1],"tree_param":{"num_deleted":"0","num_feature":"39","num_nodes":"19","size_leaf_vector":"1"}},{"base_weights":[1.4853809E-2,1.5811844E-2,-1.2607584E0,-1.5351429E0,1.2455214E0,-1.5555209E0,6.17384E-1,-1.0548576E0,1.5276877E-2,-1.5918136E-2,-1.0378951E0,-6.929149E-3,1.0899079E0,-1.1874715E-2,-0E0,-1.3177678E-2,9.348255E-4,6.2264246E-4,1.3110831E-2],"categories":[],"categories_nodes":[],"categories_segments":[],"categories_sizes":[],"default_left":[0,0,0,0,0,0,0,0,0,0,0,0,0,0,0,0,0,0,0],"id":28,"left_children":[1,-1,3,5,7,9,11,13,-1,-1,15,-1,17,-1,-1,-1,-1,-1,-1],"loss_changes":[5.3768667E3,0E0,1.0218662E3,6.0555664E1,9.7178665E1,2.0618408E1,9.0752125E0,1.3112526E0,0E0,0E0,3.0327438E1,0E0,8.984995E-1,0E0,0E0,0E0,0E0,0E0,0E0],"parents":[2147483647,0,0,2,2,3,3,4,4,5,5,6,6,7,7,10,10,12,12],"right_children":[2,-1,4,6,8,10,12,14,-1,-1,16,-1,18,-1,-1,-1,-1,-1,-1],"split_conditions":[1E0,1.5811844E-2,2.3E1,1.7857143E-1,1E0,1.8E1,1.1E1,2.8E1,1.5276877E-2,-1.5918136E-2,1E0,-6.929149E-3,4.0144E0,-1.1874715E-2,-0E0,-1.3177678E-2,9.348255E-4,6.2264246E-4,1.3110831E-2],"split_indices":[38,0,10,6,11,10,10,10,0,0,11,0,9,0,0,0,0,0,0],"split_type":[0,0,0,0,0,0,0,0,0,0,0,0,0,0,0,0,0,0,0],"sum_hessian":[2.6889253E3,1.2071742E3,1.481751E3,1.3362467E3,1.4550421E2,1.3244501E3,1.1796639E1,1.5211227E1,1.3029298E2,1.2339272E3,9.052282E1,2.4420836E0,9.354556E0,1.272246E1,2.4887674E0,7.3147255E1,1.737556E1,2.684486E0,6.67007E0],"tree_param":{"num_deleted":"0","num_feature":"39","num_nodes":"19","size_leaf_vector":"1"}},{"base_weights":[5.679289E-3,1.5720213E-2,-1.24042E0,-1.5237572E0,1.1629896E0,1.6051857E-2,-1.5795178E0,-1.0569407E-2,1.5298537E-2,-1.5836763E0,-1.5136878E-1,-1.5983187E-2,-1.29969595E-2,-1.0278852E-2,7.984107E-3],"categories":[],"categories_nodes":[],"categories_segments":[],"categories_sizes":[],"default_left":[0,0,0,0,0,0,0,0,0,0,0,0,0,0,0],"id":29,"left_children":[1,-1,3,5,7,-1,9,-1,-1,11,13,-1,-1,-1,-1],"loss_changes":[5.2721475E3,0E0,1.0262593E3,2.3736938E2,1.3141327E2,0E0,5.8847656E0,0E0,0E0,5.0805664E-1,5.7505016E0,0E0,0E0,0E0,0E0],"parents":[2147483647,0,0,2,2,3,3,4,4,6,6,9,9,10,10],"right_children":[2,-1,4,6,8,-1,10,-1,-1,12,14,-1,-1,-1,-1],"split_conditions":[1E0,1.5720213E-2,3E1,1E0,2E0,1.6051857E-2,1.7857143E-1,-1.0569407E-2,1.5298537E-2,2.6E1,1.8E1,-1.5983187E-2,-1.29969595E-2,-1.0278852E-2,7.984107E-3],"split_indices":[38,0,0,27,1,0,6,0,0,0,0,0,0,0,0],"split_type":[0,0,0,0,0,0,0,0,0,0,0,0,0,0,0],"sum_hessian":[2.6989785E3,1.1960673E3,1.5029111E3,1.3451177E3,1.5779341E2,2.2750994E1,1.3223667E3,2.1725212E1,1.3606819E2,1.3177206E3,4.646088E0,1.2453589E3,7.2361694E1,2.9210236E0,1.7250644E0],"tree_param":{"num_deleted":"0","num_feature":"39","num_nodes":"15","size_leaf_vector":"1"}},{"base_weights":[-1.9768667E-3,1.5630662E-2,-1.2462102E0,-1.5140017E0,1.2294741E0,-1.5325254E0,3.9928323E-1,-9.986422E-1,1.5111948E0,-1.5676E-2,-1.0261295E0,-9.494427E-3,1.1145568E0,-1.1285796E0,-0E0,4.923452E-1,1.5378308E-2,1.2698707E-2,-1.2811781E-2,1.3301302E-2,-0E0,-1.2086963E-2,-0E0,7.0198723E-3,-0E0],"categories":[],"categories_nodes":[],"categories_segments":[],"categories_sizes":[],"default_left":[0,0,0,0,0,0,0,0,0,0,0,0,0,0,0,0,0,0,0,0,0,0,0,0,0],"id":30,"left_children":[1,-1,3,5,7,9,11,13,15,-1,17,-1,19,21,-1,23,-1,-1,-1,-1,-1,-1,-1,-1,-1],"loss_changes":[5.2366426E3,0E0,9.9566943E2,4.970166E1,9.395949E1,1.9614014E1,1.4006248E1,1.7435799E0,7.6290894E-1,0E0,5.527807E1,0E0,2.080058E0,8.800316E-1,0E0,5.05201E-1,0E0,0E0,0E0,0E0,0E0,0E0,0E0,0E0,0E0],"parents":[2147483647,0,0,2,2,3,3,4,4,5,5,6,6,7,7,8,8,10,10,12,12,13,13,15,15],"right_children":[2,-1,4,6,8,10,12,14,16,-1,18,-1,20,22,-1,24,-1,-1,-1,-1,-1,-1,-1,-1,-1],"split_conditions":[1E0,1.5630662E-2,2.3E1,1.7857143E-1,2E0,1.8E1,1.1E1,2.8E1,3.9149E0,-1.5676E-2,8E0,-9.494427E-3,8E0,1.4705882E-2,-0E0,3.8731E0,1.5378308E-2,1.2698707E-2,-1.2811781E-2,1.3301302E-2,-0E0,-1.2086963E-2,-0E0,7.0198723E-3,-0E0],"split_indices":[38,0,10,6,1,10,10,10,9,0,33,0,33,6,0,9,0,0,0,0,0,0,0,0,0],"split_type":[0,0,0,0,0,0,0,0,0,0,0,0,0,0,0,0,0,0,0,0,0,0,0,0,0],"sum_hessian":[2.6873728E3,1.1897725E3,1.4976003E3,1.352134E3,1.454662E2,1.3398835E3,1.2250567E1,1.5644012E1,1.2982219E2,1.2492842E3,9.059934E1,3.6474514E0,8.603116E0,1.3400991E1,2.243021E0,4.7604017E0,1.250618E2,8.268136E0,8.233121E1,6.918288E0,1.6848274E0,1.2157532E1,1.2434587E0,2.8587618E0,1.9016399E0],"tree_param":{"num_deleted":"0","num_feature":"39","num_nodes":"25","size_leaf_vector":"1"}},{"base_weights":[7.165618E-3,1.5542867E-2,-1.2327158E0,1.5763456E-2,-1.4504175E0,-1.5671015E-2,-4.8006907E-1,-1.0724328E0,1.0696143E0,1.123922E-2,-1.2849114E-2,1.4088701E-2,6.7236304E-4],"categories":[],"categories_nodes":[],"categories_segments":[],"categories_sizes":[],"default_left":[0,0,0,0,0,0,0,0,0,0,0,0,0],"id":31,"left_children":[1,-1,3,-1,5,-1,7,9,11,-1,-1,-1,-1],"loss_changes":[5.083937E3,0E0,9.016028E2,0E0,1.5184814E2,0E0,1.3790504E2,5.235325E1,1.2450428E1,0E0,0E0,0E0,0E0],"parents":[2147483647,0,0,2,2,4,4,6,6,7,7,8,8],"right_children":[2,-1,4,-1,6,-1,8,10,12,-1,-1,-1,-1],"split_conditions":[1E0,1.5542867E-2,1E0,1.5763456E-2,2E0,-1.5671015E-2,1E1,6.4705884E-1,8.2051283E-1,1.123922E-2,-1.2849114E-2,1.4088701E-2,6.7236304E-4],"split_indices":[38,0,27,0,1,0,33,7,7,0,0,0,0],"split_type":[0,0,0,0,0,0,0,0,0,0,0,0,0],"sum_hessian":[2.648138E3,1.1783494E3,1.4697885E3,1.0493615E2,1.3648523E3,1.2168777E3,1.4797461E2,1.0774322E2,4.0231396E1,8.710311E0,9.9032906E1,2.900983E1,1.1221566E1],"tree_param":{"num_deleted":"0","num_feature":"39","num_nodes":"13","size_leaf_vector":"1"}},{"base_weights":[5.517671E-3,1.5457047E-2,-1.2175711E0,-1.4923639E0,1.2167345E0,1.5853347E-2,-1.5414193E0,-1.0080196E0,1.4757307E0,-1.5649877E-2,-1.1541322E0,6.554458E-3,-1.2633828E-2,1.540639E-2,7.8297454E-1,1.3144315E-2,-1.4236516E-2,-0E0,1.114183E-2],"categories":[],"categories_nodes":[],"categories_segments":[],"categories_sizes":[],"default_left":[0,0,0,0,0,0,0,0,0,0,0,0,0,0,0,0,0,0,0],"id":32,"left_children":[1,-1,3,5,7,-1,9,11,13,-1,15,-1,-1,-1,17,-1,-1,-1,-1],"loss_changes":[5.00146E3,0E0,9.916946E2,2.0322095E2,8.85242E1,0E0,7.4331055E0,8.172321E0,2.5576477E0,0E0,5.6135742E1,0E0,0E0,0E0,4.9113846E0,0E0,0E0,0E0,0E0],"parents":[2147483647,0,0,2,2,3,3,4,4,6,6,7,7,8,8,10,10,14,14],"right_children":[2,-1,4,6,8,-1,10,12,14,-1,16,-1,-1,-1,18,-1,-1,-1,-1],"split_conditions":[1E0,1.5457047E-2,2.3E1,1E0,1E0,1.5853347E-2,2.6E1,1E0,8.3870965E-1,-1.5649877E-2,8E0,6.554458E-3,-1.2633828E-2,1.540639E-2,2.6E1,1.3144315E-2,-1.4236516E-2,-0E0,1.114183E-2],"split_indices":[38,0,10,27,11,0,0,27,7,0,33,0,0,0,10,0,0,0,0],"split_type":[0,0,0,0,0,0,0,0,0,0,0,0,0,0,0,0,0,0,0],"sum_hessian":[2.6528315E3,1.1744487E3,1.4783828E3,1.3291423E3,1.4924042E2,2.0041616E1,1.3091008E3,1.4858039E1,1.3438237E2,1.2287042E3,8.0396545E1,1.2476966E0,1.3610343E1,1.2043104E2,1.3951334E1,7.1668835E0,7.322967E1,3.6115203E0,1.0339814E1],"tree_param":{"num_deleted":"0","num_feature":"39","num_nodes":"19","size_leaf_vector":"1"}},{"base_weights":[4.542954E-3,1.5373096E-2,-1.226424E0,-1.4891578E0,1.1991832E0,1.5530273E-2,-1.5326333E0,-9.778798E-1,1.4844602E-2,-1.5517102E0,-8.968277E-1,6.518368E-3,-1.2149931E-2,-0E0,-1.5529954E-2,1.4753764E-2,-1.2981551E-2],"categories":[],"categories_nodes":[],"categories_segments":[],"categories_sizes":[],"default_left":[0,0,0,0,0,0,0,0,0,0,0,0,0,0,0,0,0],"id":33,"left_children":[1,-1,3,5,7,-1,9,11,-1,13,15,-1,-1,-1,-1,-1,-1],"loss_changes":[4.9805596E3,0E0,9.347676E2,1.7711792E2,9.090355E1,0E0,1.1970459E1,7.8428516E0,0E0,1.496582E0,4.159818E1,0E0,0E0,0E0,0E0,0E0,0E0],"parents":[2147483647,0,0,2,2,3,3,4,4,6,6,7,7,9,9,10,10],"right_children":[2,-1,4,6,8,-1,10,12,-1,14,16,-1,-1,-1,-1,-1,-1],"split_conditions":[1E0,1.5373096E-2,2.3E1,1E0,2E0,1.5530273E-2,2E1,1E0,1.4844602E-2,5.060241E-1,9E0,6.518368E-3,-1.2149931E-2,-0E0,-1.5529954E-2,1.4753764E-2,-1.2981551E-2],"split_indices":[38,0,10,27,1,0,10,27,0,7,33,0,0,0,0,0,0],"split_type":[0,0,0,0,0,0,0,0,0,0,0,0,0,0,0,0,0],"sum_hessian":[2.6375432E3,1.1750127E3,1.4625304E3,1.3203164E3,1.4221399E2,1.778937E1,1.3025271E3,1.5788958E1,1.26425026E2,1.2616586E3,4.086855E1,1.2475959E0,1.4541362E1,1.468571E0,1.26019E3,5.165839E0,3.570271E1],"tree_param":{"num_deleted":"0","num_feature":"39","num_nodes":"17","size_leaf_vector":"1"}},{"base_weights":[-5.9507036E-4,-1.2143382E0,1.5290527E-2,-1.4837554E0,1.0563239E0,1.5492544E-2,-1.5318807E0,-1.1738124E0,1.4592694E-2,-1.5370766E-2,-1.8454291E-1,-1.2483869E-2,-0E0,-1.1115243E-2,8.993002E-3],"categories":[],"categories_nodes":[],"categories_segments":[],"categories_sizes":[],"default_left":[0,0,0,0,0,0,0,0,0,0,0,0,0,0,0],"id":34,"left_children":[1,3,-1,5,7,-1,9,11,-1,-1,13,-1,-1,-1,-1],"loss_changes":[4.869624E3,8.96937E2,0E0,1.9335864E2,1.4160486E2,0E0,7.017578E0,1.2379761E0,0E0,0E0,8.071281E0,0E0,0E0,0E0,0E0],"parents":[2147483647,0,0,1,1,3,3,4,4,6,6,7,7,10,10],"right_children":[2,4,-1,6,8,-1,10,12,-1,-1,14,-1,-1,-1,-1],"split_conditions":[1E0,3E1,1.5290527E-2,1E0,2E0,1.5492544E-2,1.7857143E-1,3.0303031E-2,1.4592694E-2,-1.5370766E-2,2.2E1,-1.2483869E-2,-0E0,-1.1115243E-2,8.993002E-3],"split_indices":[18,0,0,27,1,0,6,6,0,0,0,0,0,0,0],"split_type":[0,0,0,0,0,0,0,0,0,0,0,0,0,0,0],"sum_hessian":[2.621042E3,1.4619084E3,1.1591334E3,1.3075525E3,1.5435591E2,1.961142E1,1.287941E3,2.2948832E1,1.3140707E2,1.2821138E3,5.8273582E0,2.09674E1,1.981432E0,3.6245134E0,2.2028446E0],"tree_param":{"num_deleted":"0","num_feature":"39","num_nodes":"15","size_leaf_vector":"1"}},{"base_weights":[3.1023513E-4,1.5210243E-2,-1.213267E0,-1.4722552E0,1.203168E0,1.533396E-2,-1.5158817E0,-1.1146528E0,1.454553E0,-1.519726E0,3.7611981E-3,6.4043114E-3,-1.4129784E-2,1.5151054E-2,7.4657226E-1,-1.5355837E-2,-1.1003682E-2,-0E0,1.110038E-2],"categories":[],"categories_nodes":[],"categories_segments":[],"categories_sizes":[],"default_left":[0,0,0,0,0,0,0,0,0,0,0,0,0,0,0,0,0,0,0],"id":35,"left_children":[1,-1,3,5,7,-1,9,11,13,15,-1,-1,-1,-1,17,-1,-1,-1,-1],"loss_changes":[4.8702837E3,0E0,9.202925E2,1.7618604E2,8.482271E1,0E0,1.12282715E1,9.055651E0,2.142517E0,4.359131E0,0E0,0E0,0E0,0E0,4.3532205E0,0E0,0E0,0E0,0E0],"parents":[2147483647,0,0,2,2,3,3,4,4,6,6,7,7,8,8,9,9,14,14],"right_children":[2,-1,4,6,8,-1,10,12,14,16,-1,-1,-1,-1,18,-1,-1,-1,-1],"split_conditions":[1E0,1.5210243E-2,2.3E1,1E0,1E0,1.533396E-2,4.2189E0,1E0,8.3870965E-1,2.7E1,3.7611981E-3,6.4043114E-3,-1.4129784E-2,1.5151054E-2,2.6E1,-1.5355837E-2,-1.1003682E-2,-0E0,1.110038E-2],"split_indices":[38,0,10,27,11,0,9,27,7,0,0,0,0,0,10,0,0,0,0],"split_type":[0,0,0,0,0,0,0,0,0,0,0,0,0,0,0,0,0,0,0],"sum_hessian":[2.6368328E3,1.1705748E3,1.4662579E3,1.3250468E3,1.4121112E2,1.81411E1,1.3069056E3,1.3091628E1,1.2811949E2,1.3049794E3,1.9262807E0,1.2483934E0,1.1843235E1,1.1567364E2,1.2445857E1,1.252568E3,5.241138E1,3.8307865E0,8.61507E0],"tree_param":{"num_deleted":"0","num_feature":"39","num_nodes":"19","size_leaf_vector":"1"}},{"base_weights":[7.1713666E-4,1.5131323E-2,-1.2161297E0,-1.4705688E0,1.1869006E0,-1.4856062E0,7.796063E-1,1.4136082E0,-0E0,-1.5176553E-2,-1.0175266E0,-3.7366454E-3,1.2359295E-2,1.4980242E-2,6.492679E-1,-8.549468E-1,1.0358273E0,1.13805495E-2,-1.26244975E-2,-1.00013055E-2,1.1876385E-2,-0E0,-9.891556E-3,-0E0,1.1295689E-2],"categories":[],"categories_nodes":[],"categories_segments":[],"categories_sizes":[],"default_left":[0,0,0,0,0,0,0,0,0,0,0,0,0,0,0,0,0,0,0,0,0,0,0,0,0],"id":36,"left_children":[1,-1,3,5,7,9,11,13,15,-1,17,-1,-1,-1,19,21,23,-1,-1,-1,-1,-1,-1,-1,-1],"loss_changes":[4.8328867E3,0E0,8.915017E2,4.640332E1,3.8632004E1,1.5547852E1,6.0354404E0,4.471115E0,2.0946781E1,0E0,4.8482788E1,0E0,0E0,0E0,1.4379329E1,1.698184E0,5.537281E-1,0E0,0E0,0E0,0E0,0E0,0E0,0E0,0E0],"parents":[2147483647,0,0,2,2,3,3,4,4,5,5,6,6,7,7,8,8,10,10,14,14,15,15,16,16],"right_children":[2,-1,4,6,8,10,12,14,16,-1,18,-1,-1,-1,20,22,24,-1,-1,-1,-1,-1,-1,-1,-1],"split_conditions":[1E0,1.5131323E-2,2.3E1,2.0481928E-1,8.4090906E-1,1.8E1,3.7464E0,1.5E1,2.7E1,-1.5176553E-2,8E0,-3.7366454E-3,1.2359295E-2,1.4980242E-2,2.8E1,1.3E1,3.8797E0,1.13805495E-2,-1.26244975E-2,-1.00013055E-2,1.1876385E-2,-0E0,-9.891556E-3,-0E0,1.1295689E-2],"split_indices":[38,0,10,6,7,10,9,33,10,0,33,0,0,0,10,33,9,0,0,0,0,0,0,0,0],"split_type":[0,0,0,0,0,0,0,0,0,0,0,0,0,0,0,0,0,0,0,0,0,0,0,0,0],"sum_hessian":[2.623869E3,1.1701149E3,1.4537539E3,1.3152916E3,1.384623E2,1.3073391E3,7.952446E0,1.166493E2,2.1813002E1,1.2194642E3,8.787486E1,1.684614E0,6.2678323E0,1.0300492E2,1.3644381E1,1.2459182E1,9.353821E0,8.177222E0,7.969764E1,2.6894853E0,1.0954895E1,1.6688944E0,1.0790287E1,1.2132144E0,8.140606E0],"tree_param":{"num_deleted":"0","num_feature":"39","num_nodes":"25","size_leaf_vector":"1"}},{"base_weights":[-8.6452585E-4,-1.1967261E0,1.5053747E-2,-1.4002444E0,1.378525E0,-1.4876231E0,-5.775889E-1,-8.573476E-3,1.49061E-2,-1.4896125E0,-0E0,-1.3573166E0,2.5885952E-1,-0E0,-1.4920183E-2,-1.4594965E-2,-0E0,-2.7979007E-3,8.482811E-3],"categories":[],"categories_nodes":[],"categories_segments":[],"categories_sizes":[],"default_left":[0,0,0,0,0,0,0,0,0,0,0,0,0,0,0,0,0,0,0],"id":37,"left_children":[1,3,-1,5,7,9,11,-1,-1,13,-1,15,17,-1,-1,-1,-1,-1,-1],"loss_changes":[4.7189463E3,7.6759106E2,0E0,9.4454346E1,2.8760391E1,4.491699E0,8.806712E1,0E0,0E0,4.470215E0,0E0,1.0842941E1,2.1218752E1,0E0,0E0,0E0,0E0,0E0,0E0],"parents":[2147483647,0,0,1,1,3,3,4,4,5,5,6,6,9,9,11,11,12,12],"right_children":[2,4,-1,6,8,10,12,-1,-1,14,-1,16,18,-1,-1,-1,-1,-1,-1],"split_conditions":[3E0,4.1852E0,1.5053747E-2,1E0,1E0,2.1E1,3.8424E0,-8.573476E-3,1.49061E-2,5.060241E-1,-0E0,8.037975E-1,9E0,-0E0,-1.4920183E-2,-1.4594965E-2,-0E0,-2.7979007E-3,8.482811E-3],"split_indices":[4,9,0,17,17,33,9,0,0,7,0,7,33,0,0,0,0,0,0],"split_type":[0,0,0,0,0,0,0,0,0,0,0,0,0,0,0,0,0,0,0],"sum_hessian":[2.6179834E3,1.4598342E3,1.1581493E3,1.353698E3,1.061362E2,1.2218905E3,1.318075E2,4.32334E0,1.0181286E2,1.2206505E3,1.2400014E0,6.851314E1,6.3294353E1,1.9285638E0,1.2187219E3,6.4210846E1,4.3022923E0,3.2459553E1,3.0834799E1],"tree_param":{"num_deleted":"0","num_feature":"39","num_nodes":"19","size_leaf_vector":"1"}},{"base_weights":[-6.9461865E-3,1.4977839E-2,-1.1906884E0,-1.4456941E0,1.0627332E0,-1.7023805E-1,-1.4634179E0,-1.1704471E-2,1.4244347E0,-1.2254856E-2,1.0245237E0,-1.5069379E-2,-1.1748048E0,1.4839945E-2,6.9659257E-1,1.1212238E-2,-0E0,-1.3172751E-2,-3.9087264E-3,1.0757211E-3,1.0407043E-2],"categories":[],"categories_nodes":[],"categories_segments":[],"categories_sizes":[],"default_left":[0,0,0,0,0,0,0,0,0,0,0,0,0,0,0,0,0,0,0,0,0],"id":38,"left_children":[1,-1,3,5,7,9,11,-1,13,-1,15,-1,17,-1,19,-1,-1,-1,-1,-1,-1],"loss_changes":[4.647462E3,0E0,8.413479E2,2.780127E1,1.2201845E2,2.6548353E1,1.1803711E1,0E0,2.3689575E0,0E0,4.8631573E-1,0E0,1.7560303E1,0E0,1.3538046E0,0E0,0E0,0E0,0E0,0E0,0E0],"parents":[2147483647,0,0,2,2,3,3,4,4,5,5,6,6,8,8,10,10,12,12,14,14],"right_children":[2,-1,4,6,8,10,12,-1,14,-1,16,-1,18,-1,20,-1,-1,-1,-1,-1,-1],"split_conditions":[1E0,1.4977839E-2,3E1,6.25E-1,2E0,1.9E1,2.4E1,-1.1704471E-2,8.3870965E-1,-1.2254856E-2,6.136364E-1,-1.5069379E-2,2E0,1.4839945E-2,3.6E1,1.1212238E-2,-0E0,-1.3172751E-2,-3.9087264E-3,1.0757211E-3,1.0407043E-2],"split_indices":[38,0,0,7,1,0,0,0,7,0,7,0,1,0,0,0,0,0,0,0,0],"split_type":[0,0,0,0,0,0,0,0,0,0,0,0,0,0,0,0,0,0,0,0,0],"sum_hessian":[2.6073276E3,1.1475251E3,1.4598024E3,1.3121201E3,1.4768222E2,1.8902018E1,1.2932181E3,1.9888432E1,1.27793785E2,1.0467816E1,8.4342E0,1.1170863E3,1.7613188E2,1.1589702E2,1.1896772E1,7.263909E0,1.1702919E0,1.4738962E2,2.874227E1,5.94289E0,5.9538817E0],"tree_param":{"num_deleted":"0","num_feature":"39","num_nodes":"21","size_leaf_vector":"1"}},{"base_weights":[-1.3535186E-2,1.4903197E-2,-1.1900806E0,-1.3667483E0,1.0846857E0,-1.4635099E0,-7.29099E-1,5.242941E-1,1.4338006E0,-1.4853433E-2,-1.1527135E-2,-1.0461403E0,-5.7434705E-3,-2.2673525E-1,1.3216187E-2,1.4586602E-2,-0E0,-1.1280377E-2,-2.1066301E-4,-2.847902E-3,8.834581E-3,-8.790705E-3,4.112283E-3],"categories":[],"categories_nodes":[],"categories_segments":[],"categories_sizes":[],"default_left":[0,0,0,0,0,0,0,0,0,0,0,0,0,0,0,0,0,0,0,0,0,0,0],"id":39,"left_children":[1,-1,3,5,7,9,11,13,15,-1,-1,17,19,21,-1,-1,-1,-1,-1,-1,-1,-1,-1],"loss_changes":[4.5505093E3,0E0,5.8184033E2,7.9433105E1,1.7670532E1,3.5300293E0,4.0207634E1,2.6941486E1,2.0239868E0,0E0,0E0,9.248611E0,1.3746398E1,1.0058572E1,0E0,0E0,0E0,0E0,0E0,0E0,0E0,0E0,0E0],"parents":[2147483647,0,0,2,2,3,3,4,4,5,5,6,6,7,7,8,8,11,11,12,12,13,13],"right_children":[2,-1,4,6,8,10,12,14,16,-1,-1,18,20,22,-1,-1,-1,-1,-1,-1,-1,-1,-1],"split_conditions":[1E0,1.4903197E-2,1.2765957E-1,1E1,1E0,1E0,1E0,1E1,1.7E1,-1.4853433E-2,-1.1527135E-2,1.4705882E-2,2.631579E-2,1.891892E-1,1.3216187E-2,1.4586602E-2,-0E0,-1.1280377E-2,-2.1066301E-4,-2.847902E-3,8.834581E-3,-8.790705E-3,4.112283E-3],"split_indices":[38,0,6,33,16,16,16,33,33,0,0,6,6,6,0,0,0,0,0,0,0,0,0],"split_type":[0,0,0,0,0,0,0,0,0,0,0,0,0,0,0,0,0,0,0,0,0,0,0],"sum_hessian":[2.5700159E3,1.1276027E3,1.4424132E3,1.339241E3,1.0317219E2,1.1603043E3,1.7893663E2,4.166255E1,6.1509636E1,1.077606E3,8.26984E1,1.2313764E2,5.5798992E1,2.1176792E1,2.0485758E1,6.0348377E1,1.1612593E0,1.1303112E2,1.0106524E1,4.3844242E1,1.1954749E1,1.1058612E1,1.011818E1],"tree_param":{"num_deleted":"0","num_feature":"39","num_nodes":"23","size_leaf_vector":"1"}},{"base_weights":[3.936621E-3,-1.1746367E0,1.4830587E-2,-1.4344804E0,1.0743499E0,1.5434683E-2,-1.4802213E0,-9.811716E-1,1.4152833E0,-1.4842249E0,-0E0,6.803689E-3,-1.1684867E-2,1.4667624E-2,7.3592037E-1,-1.4871455E-2,-5.3553842E-5,-5.847467E-4,1.2492534E-2],"categories":[],"categories_nodes":[],"categories_segments":[],"categories_sizes":[],"default_left":[0,0,0,0,0,0,0,0,0,0,0,0,0,0,0,0,0,0,0],"id":40,"left_children":[1,3,-1,5,7,-1,9,11,13,15,-1,-1,-1,-1,17,-1,-1,-1,-1],"loss_changes":[4.484568E3,8.38302E2,0E0,1.7709814E2,1.05827896E2,0E0,8.1657715E0,7.9082947E0,1.198761E0,3.9509277E0,0E0,0E0,0E0,0E0,6.320408E0,0E0,0E0,0E0,0E0],"parents":[2147483647,0,0,1,1,3,3,4,4,6,6,7,7,8,8,9,9,14,14],"right_children":[2,4,-1,6,8,-1,10,12,14,16,-1,-1,-1,-1,18,-1,-1,-1,-1],"split_conditions":[3E0,3E1,1.4830587E-2,1E0,2E0,1.5434683E-2,4.1899E0,1E0,8.3870965E-1,2.0481928E-1,-0E0,6.803689E-3,-1.1684867E-2,1.4667624E-2,3.6E1,-1.4871455E-2,-5.3553842E-5,-5.847467E-4,1.2492534E-2],"split_indices":[4,0,0,27,1,0,9,27,7,6,0,0,0,0,0,0,0,0,0],"split_type":[0,0,0,0,0,0,0,0,0,0,0,0,0,0,0,0,0,0,0],"sum_hessian":[2.5703508E3,1.4302494E3,1.1401014E3,1.2828394E3,1.4741006E2,1.8580093E1,1.2642593E3,2.0286955E1,1.2712311E2,1.2611493E3,3.1099534E0,1.2477988E0,1.9039156E1,1.1572312E2,1.1399984E1,1.2579832E3,3.1661325E0,4.0580654E0,7.341919E0],"tree_param":{"num_deleted":"0","num_feature":"39","num_nodes":"19","size_leaf_vector":"1"}},{"base_weights":[-2.4346972E-3,1.475894E-2,-1.1696554E0,-1.4097766E0,1.3016872E0,-1.4676578E0,-7.077096E-1,-4.432795E-1,1.4461967E-2,-0E0,-1.4705514E-2,1.4204499E-2,-1.103143E0,-0E0,-8.3326865E-3,1.027382E-3,-1.2236107E-2],"categories":[],"categories_nodes":[],"categories_segments":[],"categories_sizes":[],"default_left":[0,0,0,0,0,0,0,0,0,0,0,0,0,0,0,0,0],"id":41,"left_children":[1,-1,3,5,7,9,11,13,-1,-1,-1,-1,15,-1,-1,-1,-1],"loss_changes":[4.4049917E3,0E0,8.4875024E2,4.967285E1,3.3548355E1,5.010254E0,8.740122E1,1.6141273E0,0E0,0E0,0E0,0E0,1.392733E1,0E0,0E0,0E0,0E0],"parents":[2147483647,0,0,2,2,3,3,4,4,5,5,6,6,7,7,12,12],"right_children":[2,-1,4,6,8,10,12,14,-1,-1,-1,-1,16,-1,-1,-1,-1],"split_conditions":[1E0,1.475894E-2,2.4E1,1.8E1,2E0,5.060241E-1,8E0,1E0,1.4461967E-2,-0E0,-1.4705514E-2,1.4204499E-2,8.037975E-1,-0E0,-8.3326865E-3,1.027382E-3,-1.2236107E-2],"split_indices":[38,0,10,10,1,7,33,16,0,0,0,0,7,0,0,0,0],"split_type":[0,0,0,0,0,0,0,0,0,0,0,0,0,0,0,0,0],"sum_hessian":[2.5510022E3,1.1250116E3,1.4259905E3,1.3004683E3,1.2552218E2,1.1990952E3,1.01373085E2,8.91272E0,1.1660946E2,2.401308E0,1.1966938E3,1.5082177E1,8.629091E1,4.7827234E0,4.129996E0,7.09693E0,7.919398E1],"tree_param":{"num_deleted":"0","num_feature":"39","num_nodes":"17","size_leaf_vector":"1"}},{"base_weights":[-9.1658225E-3,1.4688847E-2,-1.1756425E0,-1.4208415E0,1.1414431E0,-1.4350557E0,3.337071E-1,-8.7824965E-1,1.4040631E0,-1.4709971E-2,-9.296856E-1,-7.977774E-3,1.0430524E-2,-9.8679954E-1,-0E0,1.4648376E-2,7.857852E-1,1.1198454E-2,-1.1554659E-2,-1.0916248E-2,-0E0,-0E0,9.1736885E-3],"categories":[],"categories_nodes":[],"categories_segments":[],"categories_sizes":[],"default_left":[0,0,0,0,0,0,0,0,0,0,0,0,0,0,0,0,0,0,0,0,0,0,0],"id":42,"left_children":[1,-1,3,5,7,9,11,13,15,-1,17,-1,-1,19,-1,-1,21,-1,-1,-1,-1,-1,-1],"loss_changes":[4.374306E3,0E0,8.078163E2,3.3592773E1,7.38461E1,1.9372314E1,9.554006E0,1.7563391E0,1.148468E0,0E0,4.2586037E1,0E0,0E0,7.6816463E-1,0E0,0E0,2.0272655E0,0E0,0E0,0E0,0E0,0E0,0E0],"parents":[2147483647,0,0,2,2,3,3,4,4,5,5,6,6,7,7,8,8,10,10,13,13,16,16],"right_children":[2,-1,4,6,8,10,12,14,16,-1,18,-1,-1,20,-1,-1,22,-1,-1,-1,-1,-1,-1],"split_conditions":[1E0,1.4688847E-2,2.3E1,1.7857143E-1,2E0,1.8E1,1.8E1,2.631579E-2,8.3870965E-1,-1.4709971E-2,8E0,-7.977774E-3,1.0430524E-2,2.8E1,-0E0,1.4648376E-2,2.4E1,1.1198454E-2,-1.1554659E-2,-1.0916248E-2,-0E0,-0E0,9.1736885E-3],"split_indices":[38,0,10,6,1,10,0,6,7,0,33,0,0,10,0,0,10,0,0,0,0,0,0],"split_type":[0,0,0,0,0,0,0,0,0,0,0,0,0,0,0,0,0,0,0,0,0,0,0],"sum_hessian":[2.5353047E3,1.1178071E3,1.4174977E3,1.2825896E3,1.3490802E2,1.2730283E3,9.561258E0,1.4815631E1,1.20092384E2,1.1848722E3,8.8156204E1,3.0930626E0,6.4681954E0,1.3331148E1,1.4844822E0,1.0662489E2,1.3467486E1,7.915344E0,8.024086E1,1.1355573E1,1.9755763E0,1.44374E0,1.20237465E1],"tree_param":{"num_deleted":"0","num_feature":"39","num_nodes":"23","size_leaf_vector":"1"}},{"base_weights":[5.7792044E-3,-1.1528224E0,1.4620304E-2,-1.407641E0,1.1647724E0,1.5256654E-2,-1.4484047E0,-9.425263E-1,1.4292391E-2,-1.4516379E0,2.4970893E-3,6.7680227E-3,-1.1963321E-2,-1.4741144E-2,-1.104093E-2],"categories":[],"categories_nodes":[],"categories_segments":[],"categories_sizes":[],"default_left":[0,0,0,0,0,0,0,0,0,0,0,0,0,0,0],"id":43,"left_children":[1,3,-1,5,7,-1,9,11,-1,13,-1,-1,-1,-1,-1],"loss_changes":[4.284336E3,8.367604E2,0E0,1.5452661E2,7.996658E1,0E0,8.470703E0,7.828576E0,0E0,5.6071777E0,0E0,0E0,0E0,0E0,0E0],"parents":[2147483647,0,0,1,1,3,3,4,4,6,6,7,7,9,9],"right_children":[2,4,-1,6,8,-1,10,12,-1,14,-1,-1,-1,-1,-1],"split_conditions":[3E0,2.3E1,1.4620304E-2,1E0,2E0,1.5256654E-2,4.2189E0,1E0,1.4292391E-2,2.6E1,2.4970893E-3,6.7680227E-3,-1.1963321E-2,-1.4741144E-2,-1.104093E-2],"split_indices":[4,10,0,27,1,0,9,27,0,0,0,0,0,0,0],"split_type":[0,0,0,0,0,0,0,0,0,0,0,0,0,0,0],"sum_hessian":[2.5371125E3,1.4126901E3,1.1244225E3,1.273494E3,1.3919609E2,1.661941E1,1.2568746E3,1.4813729E1,1.2438236E2,1.2552186E3,1.6559325E0,1.2475425E0,1.3566186E1,1.1732247E3,8.199397E1],"tree_param":{"num_deleted":"0","num_feature":"39","num_nodes":"15","size_leaf_vector":"1"}},{"base_weights":[-6.75337E-3,1.4552934E-2,-1.1583815E0,-1.4066454E0,1.0336803E0,1.5193418E-2,-1.452396E0,-1.0562316E0,1.39989145E-2,-1.4573294E-2,-2.590921E-1,-1.1278119E0,-0E0,-1.1287806E-2,8.843694E-3,-1.1948429E-2,-0E0],"categories":[],"categories_nodes":[],"categories_segments":[],"categories_sizes":[],"default_left":[0,0,0,0,0,0,0,0,0,0,0,0,0,0,0,0,0],"id":44,"left_children":[1,-1,3,5,7,-1,9,11,-1,-1,13,15,-1,-1,-1,-1,-1],"loss_changes":[4.2811147E3,0E0,7.7612036E2,1.7333691E2,1.1273059E2,0E0,5.3237305E0,8.9709854E-1,0E0,0E0,8.441059E0,1.0525265E0,0E0,0E0,0E0,0E0,0E0],"parents":[2147483647,0,0,2,2,3,3,4,4,6,6,7,7,10,10,11,11],"right_children":[2,-1,4,6,8,-1,10,12,-1,-1,14,16,-1,-1,-1,-1,-1],"split_conditions":[1E0,1.4552934E-2,3E1,1E0,2E0,1.5193418E-2,1.7857143E-1,3.6E1,1.39989145E-2,-1.4573294E-2,2E0,8.8235295E-1,-0E0,-1.1287806E-2,8.843694E-3,-1.1948429E-2,-0E0],"split_indices":[38,0,0,27,1,0,6,0,0,0,1,7,0,0,0,0,0],"split_type":[0,0,0,0,0,0,0,0,0,0,0,0,0,0,0,0,0],"sum_hessian":[2.540806E3,1.119022E3,1.4217839E3,1.2778718E3,1.4391206E2,1.884077E1,1.259031E3,2.0769396E1,1.2314267E2,1.2527925E3,6.2385244E0,1.8799044E1,1.9703528E0,4.0474844E0,2.19104E0,1.7377136E1,1.4219068E0],"tree_param":{"num_deleted":"0","num_feature":"39","num_nodes":"17","size_leaf_vector":"1"}},{"base_weights":[-0E0,-1.1490161E0,1.448666E-2,-1.3954697E0,1.1433682E0,1.5215378E-2,-1.4432546E0,-9.3157077E-1,1.3922284E0,-1.4571464E0,-9.485549E-1,-1.0018289E-2,-0E0,4.7652993E-1,1.4190088E-2,-1.4584677E-2,-0E0,-1.2601484E-2,3.1897505E-3,8.441995E-3,-0E0],"categories":[],"categories_nodes":[],"categories_segments":[],"categories_sizes":[],"default_left":[0,0,0,0,0,0,0,0,0,0,0,0,0,0,0,0,0,0,0,0,0],"id":45,"left_children":[1,3,-1,5,7,-1,9,11,13,15,17,-1,-1,19,-1,-1,-1,-1,-1,-1,-1],"loss_changes":[4.179872E3,7.930438E2,0E0,1.7849048E2,7.2035675E1,0E0,4.7736816E0,7.8338814E-1,4.2877197E-1,2.1152344E0,1.6690628E1,0E0,0E0,1.2696756E0,0E0,0E0,0E0,0E0,0E0,0E0,0E0],"parents":[2147483647,0,0,1,1,3,3,4,4,6,6,7,7,8,8,9,9,10,10,13,13],"right_children":[2,4,-1,6,8,-1,10,12,14,16,18,-1,-1,20,-1,-1,-1,-1,-1,-1,-1],"split_conditions":[3E0,2.3E1,1.448666E-2,1E0,1E0,1.5215378E-2,2.8E1,1E0,3.9149E0,4.1792E0,1E0,-1.0018289E-2,-0E0,1E0,1.4190088E-2,-1.4584677E-2,-0E0,-1.2601484E-2,3.1897505E-3,8.441995E-3,-0E0],"split_indices":[4,10,0,27,11,0,0,37,9,9,11,0,0,27,0,0,0,0,0,0,0],"split_type":[0,0,0,0,0,0,0,0,0,0,0,0,0,0,0,0,0,0,0,0,0],"sum_hessian":[2.5091392E3,1.3994307E3,1.1097085E3,1.2643303E3,1.351003E2,1.9543413E1,1.244787E3,1.374403E1,1.2135626E2,1.206928E3,3.7858936E1,1.2529082E1,1.2149475E0,5.043389E0,1.16312874E2,1.2057349E3,1.1931238E0,3.1026527E1,6.8324094E0,2.7071886E0,2.3362E0],"tree_param":{"num_deleted":"0","num_feature":"39","num_nodes":"21","size_leaf_vector":"1"}},{"base_weights":[-3.41078E-3,-1.1355956E0,1.442149E-2,-1.3889661E0,1.0585433E0,-1.4074752E0,-0E0,-9.667155E-3,1.360117E0,-1.4334219E0,-9.5420796E-1,1.2318647E-2,-6.614567E-1,3.9292365E-1,1.3966992E-2,3.1948905E-4,-1.43639175E-2,1.1751545E-2,-1.196958E-2,-8.335083E-3,-0E0,7.133534E-3,-0E0],"categories":[],"categories_nodes":[],"categories_segments":[],"categories_sizes":[],"default_left":[0,0,0,0,0,0,0,0,0,0,0,0,0,0,0,0,0,0,0,0,0,0,0],"id":46,"left_children":[1,3,-1,5,7,9,11,-1,13,15,17,-1,19,21,-1,-1,-1,-1,-1,-1,-1,-1,-1],"loss_changes":[4.0687388E3,7.7711145E2,0E0,3.1327637E1,8.9983475E1,1.076001E1,1.5040657E1,0E0,2.1425629E0,6.5131836E0,3.8595543E1,0E0,2.1202035E0,1.5165045E0,0E0,0E0,0E0,0E0,0E0,0E0,0E0,0E0,0E0],"parents":[2147483647,0,0,1,1,3,3,4,4,5,5,6,6,8,8,9,9,10,10,12,12,13,13],"right_children":[2,4,-1,6,8,10,12,-1,14,16,18,-1,20,22,-1,-1,-1,-1,-1,-1,-1,-1,-1],"split_conditions":[3E0,3E1,1.442149E-2,4.1153E0,2E0,2.6E1,7E0,-9.667155E-3,3.9263E0,4.827586E-1,8E0,1.2318647E-2,4.2189E0,8.372093E-1,1.3966992E-2,3.1948905E-4,-1.43639175E-2,1.1751545E-2,-1.196958E-2,-8.335083E-3,-0E0,7.133534E-3,-0E0],"split_indices":[4,0,0,9,1,0,33,0,9,7,33,0,9,7,0,0,0,0,0,0,0,0,0],"split_type":[0,0,0,0,0,0,0,0,0,0,0,0,0,0,0,0,0,0,0,0,0,0,0],"sum_hessian":[2.484217E3,1.3936193E3,1.0905979E3,1.2500869E3,1.4353235E2,1.2332124E3,1.6874496E1,1.7887161E1,1.25645195E2,1.1623088E3,7.0903496E1,5.28038E0,1.1594117E1,6.0032163E0,1.19641975E2,1.6501609E0,1.1606587E3,6.4412727E0,6.446222E1,9.98323E0,1.6108882E0,4.1048555E0,1.8983606E0],"tree_param":{"num_deleted":"0","num_feature":"39","num_nodes":"23","size_leaf_vector":"1"}},{"base_weights":[4.341601E-3,-1.1249956E0,1.4358024E-2,1.4735623E-2,-1.3240314E0,-1.3895148E0,3.9608082E-1,-1.4068774E0,1.5083459E-1,-1.37966415E-2,1.3275753E-2,-1.4377974E-2,-1.0420842E-2,-1.17515195E-2,1.19196875E-2],"categories":[],"categories_nodes":[],"categories_segments":[],"categories_sizes":[],"default_left":[0,0,0,0,0,0,0,0,0,0,0,0,0,0,0],"id":47,"left_children":[1,3,-1,-1,5,7,9,11,13,-1,-1,-1,-1,-1,-1],"loss_changes":[4.0191958E3,7.2033813E2,0E0,0E0,1.4699512E2,3.4758057E1,8.0472435E1,9.913818E0,2.093177E1,0E0,0E0,0E0,0E0,0E0,0E0],"parents":[2147483647,0,0,1,1,4,4,5,5,6,6,7,7,8,8],"right_children":[2,4,-1,-1,6,8,10,12,14,-1,-1,-1,-1,-1,-1],"split_conditions":[3E0,1E0,1.4358024E-2,1.4735623E-2,1.2765957E-1,2E0,2E0,2E0,2E0,-1.37966415E-2,1.3275753E-2,-1.4377974E-2,-1.0420842E-2,-1.17515195E-2,1.19196875E-2],"split_indices":[4,27,0,0,6,2,1,1,1,0,0,0,0,0,0],"split_type":[0,0,0,0,0,0,0,0,0,0,0,0,0,0,0],"sum_hessian":[2.4840083E3,1.3882654E3,1.0957429E3,9.795561E1,1.2903097E3,1.2437352E3,4.6574554E1,1.2305999E3,1.3135304E1,1.5490233E1,3.108432E1,1.1292053E3,1.0139455E2,5.2982497E0,7.8370543E0],"tree_param":{"num_deleted":"0","num_feature":"39","num_nodes":"15","size_leaf_vector":"1"}},{"base_weights":[8.1006745E-3,1.4295749E-2,-1.1250442E0,1.4597657E-2,-1.3233609E0,-1.3830608E0,4.3153355E-1,-1.3999419E0,1.9150737E-1,-1.2861074E-2,1.3475129E-2,-1.4293495E-2,-1.0503442E-2,-1.1275333E-2,1.1782072E-2],"categories":[],"categories_nodes":[],"categories_segments":[],"categories_sizes":[],"default_left":[0,0,0,0,0,0,0,0,0,0,0,0,0,0,0],"id":48,"left_children":[1,-1,3,-1,5,7,9,11,13,-1,-1,-1,-1,-1,-1],"loss_changes":[3.9881758E3,0E0,7.077803E2,0E0,1.3564795E2,3.440039E1,6.838106E1,8.626221E0,1.8806444E1,0E0,0E0,0E0,0E0,0E0,0E0],"parents":[2147483647,0,0,2,2,4,4,5,5,6,6,7,7,8,8],"right_children":[2,-1,4,-1,6,8,10,12,14,-1,-1,-1,-1,-1,-1],"split_conditions":[1E0,1.4295749E-2,1E0,1.4597657E-2,1.3095239E-1,2E0,2E0,2E0,2E0,-1.2861074E-2,1.3475129E-2,-1.4293495E-2,-1.0503442E-2,-1.1275333E-2,1.1782072E-2],"split_indices":[38,0,27,0,6,2,1,1,1,0,0,0,0,0,0],"split_type":[0,0,0,0,0,0,0,0,0,0,0,0,0,0,0],"sum_hessian":[2.4738079E3,1.0975751E3,1.3762328E3,9.725339E1,1.2789795E3,1.2376572E3,4.132225E1,1.225267E3,1.2390196E1,1.3851732E1,2.747052E1,1.1247089E3,1.0055809E2,4.80738E0,7.582816E0],"tree_param":{"num_deleted":"0","num_feature":"39","num_nodes":"15","size_leaf_vector":"1"}},{"base_weights":[6.829654E-4,1.4234198E-2,-1.1252786E0,-1.3547535E0,1.1305032E0,1.50068365E-2,-1.4025642E0,-7.204265E-1,1.3700671E-2,-1.415603E0,-4.1708288E-1,7.907533E-3,-1.0282055E-2,-1.4287435E-2,-8.027656E-3,8.492031E-3,-9.345629E-3],"categories":[],"categories_nodes":[],"categories_segments":[],"categories_sizes":[],"default_left":[0,0,0,0,0,0,0,0,0,0,0,0,0,0,0,0,0],"id":49,"left_children":[1,-1,3,5,7,-1,9,11,-1,13,15,-1,-1,-1,-1,-1,-1],"loss_changes":[3.9255906E3,0E0,7.0960034E2,1.7156885E2,5.7686142E1,0E0,1.3284424E1,7.870177E0,0E0,6.3259277E0,1.29242325E1,0E0,0E0,0E0,0E0,0E0,0E0],"parents":[2147483647,0,0,2,2,3,3,4,4,6,6,7,7,9,9,10,10],"right_children":[2,-1,4,6,8,-1,10,12,-1,14,16,-1,-1,-1,-1,-1,-1],"split_conditions":[1E0,1.4234198E-2,2.3E1,1E0,2E0,1.50068365E-2,4.1064E0,1E0,1.3700671E-2,2.8E1,7.3170733E-1,7.907533E-3,-1.0282055E-2,-1.4287435E-2,-8.027656E-3,8.492031E-3,-9.345629E-3],"split_indices":[38,0,10,27,1,0,9,27,0,0,7,0,0,0,0,0,0],"split_type":[0,0,0,0,0,0,0,0,0,0,0,0,0,0,0,0,0],"sum_hessian":[2.4483262E3,1.0818948E3,1.3664313E3,1.2410275E3,1.2540385E2,1.9592371E1,1.221435E3,1.36625E1,1.1174135E2,1.2040532E3,1.7381882E1,1.4964913E0,1.2166009E1,1.1758767E3,2.8176481E1,4.295997E0,1.3085884E1],"tree_param":{"num_deleted":"0","num_feature":"39","num_nodes":"17","size_leaf_vector":"1"}},{"base_weights":[-0E0,1.417379E-2,-1.1101764E0,-1.354158E0,1.1201373E0,-1.369857E0,3.4814015E-1,-8.38107E-1,1.3770821E-2,-1.4044899E-2,-8.7120587E-1,-8.041601E-3,1.028966E-2,-9.465988E-1,-0E0,1.2523969E-2,-1.1338178E-2,-1.1211382E-2,-0E0],"categories":[],"categories_nodes":[],"categories_segments":[],"categories_sizes":[],"default_left":[0,0,0,0,0,0,0,0,0,0,0,0,0,0,0,0,0,0,0],"id":50,"left_children":[1,-1,3,5,7,9,11,13,-1,-1,15,-1,-1,17,-1,-1,-1,-1,-1],"loss_changes":[3.8265977E3,0E0,7.4364124E2,3.4364258E1,6.940904E1,1.755835E1,1.0037364E1,1.7350664E0,0E0,0E0,4.7977585E1,0E0,0E0,2.685135E0,0E0,0E0,0E0,0E0,0E0],"parents":[2147483647,0,0,2,2,3,3,4,4,5,5,6,6,7,7,10,10,13,13],"right_children":[2,-1,4,6,8,10,12,14,-1,-1,16,-1,-1,18,-1,-1,-1,-1,-1],"split_conditions":[1E0,1.417379E-2,2.3E1,1.7857143E-1,2E0,1.8E1,1.1E1,3.0303031E-2,1.3770821E-2,-1.4044899E-2,8E0,-8.041601E-3,1.028966E-2,2.8E1,-0E0,1.2523969E-2,-1.1338178E-2,-1.1211382E-2,-0E0],"split_indices":[38,0,10,6,1,10,10,6,0,0,33,0,0,10,0,0,0,0,0],"split_type":[0,0,0,0,0,0,0,0,0,0,0,0,0,0,0,0,0,0,0],"sum_hessian":[2.4297131E3,1.0673342E3,1.362379E3,1.2287979E3,1.3358118E2,1.2183447E3,1.0453056E1,1.4780598E1,1.18800575E2,1.1356482E3,8.269656E1,3.269484E0,7.1835723E0,1.3306941E1,1.473656E0,8.2672E0,7.442936E1,1.1335297E1,1.971645E0],"tree_param":{"num_deleted":"0","num_feature":"39","num_nodes":"19","size_leaf_vector":"1"}},{"base_weights":[4.8952927E-3,-1.1162747E0,1.4114908E-2,1.4478715E-2,-1.3076135E0,-1.3664346E0,4.2743593E-1,-1.3831944E0,1.0676048E-1,-1.3373786E-2,1.32338535E-2,-1.4118518E-2,-1.0476133E-2,-1.1630911E-2,1.1745983E-2],"categories":[],"categories_nodes":[],"categories_segments":[],"categories_sizes":[],"default_left":[0,0,0,0,0,0,0,0,0,0,0,0,0,0,0],"id":51,"left_children":[1,3,-1,-1,5,7,9,11,13,-1,-1,-1,-1,-1,-1],"loss_changes":[3.8304966E3,6.6463E2,0E0,0E0,1.2992822E2,3.148999E1,6.731116E1,7.647461E0,2.030013E1,0E0,0E0,0E0,0E0,0E0,0E0],"parents":[2147483647,0,0,1,1,4,4,5,5,6,6,7,7,8,8],"right_children":[2,4,-1,-1,6,8,10,12,14,-1,-1,-1,-1,-1,-1],"split_conditions":[3E0,1E0,1.4114908E-2,1.4478715E-2,1.2765957E-1,2E0,2E0,2E0,2E0,-1.3373786E-2,1.32338535E-2,-1.4118518E-2,-1.0476133E-2,-1.1630911E-2,1.1745983E-2],"split_indices":[4,27,0,0,6,2,1,1,1,0,0,0,0,0,0],"split_type":[0,0,0,0,0,0,0,0,0,0,0,0,0,0,0],"sum_hessian":[2.4267402E3,1.3500985E3,1.0766418E3,9.293089E1,1.2571676E3,1.216708E3,4.0459602E1,1.2037533E3,1.2954659E1,1.3082081E1,2.7377522E1,1.1033448E3,1.0040848E2,5.4490647E0,7.5055943E0],"tree_param":{"num_deleted":"0","num_feature":"39","num_nodes":"15","size_leaf_vector":"1"}},{"base_weights":[-7.2834087E-3,1.4056793E-2,-1.1108493E0,-1.3575976E0,9.8641545E-1,-1.3703551E0,1.4295012E-1,-9.826502E-1,1.3403132E0,-1.398464E-2,-9.351456E-1,-9.557577E-3,8.93555E-3,-1.0638677E-2,-0E0,-0E0,1.3524448E-2,-1.1201315E-2,-0E0],"categories":[],"categories_nodes":[],"categories_segments":[],"categories_sizes":[],"default_left":[0,0,0,0,0,0,0,0,0,0,0,0,0,0,0,0,0,0,0],"id":52,"left_children":[1,-1,3,5,7,9,11,13,15,-1,17,-1,-1,-1,-1,-1,-1,-1,-1],"loss_changes":[3.7863328E3,0E0,7.0751624E2,2.4800293E1,1.0182939E2,1.1180664E1,9.483592E0,1.7382736E0,6.66275E-1,0E0,1.4321648E1,0E0,0E0,0E0,0E0,0E0,0E0,0E0,0E0],"parents":[2147483647,0,0,2,2,3,3,4,4,5,5,6,6,7,7,8,8,10,10],"right_children":[2,-1,4,6,8,10,12,14,16,-1,18,-1,-1,-1,-1,-1,-1,-1,-1],"split_conditions":[1E0,1.4056793E-2,3E1,1.7857143E-1,2E0,2.6E1,1.8E1,3.0303031E-2,3.8209E0,-1.398464E-2,2E0,-9.557577E-3,8.93555E-3,-1.0638677E-2,-0E0,-0E0,1.3524448E-2,-1.1201315E-2,-0E0],"split_indices":[38,0,0,6,1,0,0,6,9,0,1,0,0,0,0,0,0,0,0],"split_type":[0,0,0,0,0,0,0,0,0,0,0,0,0,0,0,0,0,0,0],"sum_hessian":[2.4264175E3,1.0635323E3,1.3628853E3,1.2201599E3,1.427253E2,1.2106205E3,9.539372E0,2.1042694E1,1.2168261E2,1.1329363E3,7.76843E1,3.2201948E0,6.3191776E0,1.9341434E1,1.7012589E0,1.8268261E0,1.1985578E2,6.5255844E1,1.2428453E1],"tree_param":{"num_deleted":"0","num_feature":"39","num_nodes":"19","size_leaf_vector":"1"}},{"base_weights":[-9.074585E-3,-1.1012399E0,1.3999714E-2,1.4397604E-2,-1.2904925E0,-1.3675021E0,9.8024905E-1,-1.3774035E0,-0E0,-9.246514E-3,1.35123115E-2,-1.3893125E-2,-6.0962797E-3,-1.0225487E-2,1.0329976E-2],"categories":[],"categories_nodes":[],"categories_segments":[],"categories_sizes":[],"default_left":[0,0,0,0,0,0,0,0,0,0,0,0,0,0,0],"id":53,"left_children":[1,3,-1,-1,5,7,9,11,13,-1,-1,-1,-1,-1,-1],"loss_changes":[3.7363474E3,6.596925E2,0E0,0E0,2.245647E2,1.7387207E1,3.1325417E1,8.353516E0,1.1100187E1,0E0,0E0,0E0,0E0,0E0,0E0],"parents":[2147483647,0,0,1,1,4,4,5,5,6,6,7,7,8,8],"right_children":[2,4,-1,-1,6,8,10,12,14,-1,-1,-1,-1,-1,-1],"split_conditions":[3E0,1E0,1.3999714E-2,1.4397604E-2,4.1792E0,2E0,1E0,4.0888E0,1E0,-9.246514E-3,1.35123115E-2,-1.3893125E-2,-6.0962797E-3,-1.0225487E-2,1.0329976E-2],"split_indices":[4,27,0,0,9,2,11,9,11,0,0,0,0,0,0],"split_type":[0,0,0,0,0,0,0,0,0,0,0,0,0,0,0],"sum_hessian":[2.4261086E3,1.3672601E3,1.0588486E3,9.394989E1,1.2733102E3,1.2323545E3,4.0955685E1,1.2238508E3,8.5037155E0,5.9933496E0,3.4962337E1,1.2030779E3,2.07729E1,4.0357947E0,4.4679213E0],"tree_param":{"num_deleted":"0","num_feature":"39","num_nodes":"15","size_leaf_vector":"1"}},{"base_weights":[7.867242E-4,1.3943743E-2,-1.0896943E0,-1.3303498E0,1.0621226E0,-1.3459665E0,2.2276114E-1,-8.9234626E-1,1.3236198E0,-1.3831686E-2,-8.575563E-1,-9.710369E-3,9.098167E-1,-1.01437755E-2,-0E0,1.39091E-2,6.5844715E-1,1.3585395E-2,-1.125295E-2,1.0873307E-2,-0E0,-1.0257771E-3,9.428578E-3],"categories":[],"categories_nodes":[],"categories_segments":[],"categories_sizes":[],"default_left":[0,0,0,0,0,0,0,0,0,0,0,0,0,0,0,0,0,0,0,0,0,0,0],"id":54,"left_children":[1,-1,3,5,7,9,11,13,15,-1,17,-1,19,-1,-1,-1,21,-1,-1,-1,-1,-1,-1],"loss_changes":[3.6339756E3,0E0,6.9612146E2,3.0697754E1,7.062413E1,1.829956E1,1.0858326E1,1.2210073E0,2.4036713E0,0E0,5.4201965E1,0E0,9.814167E-1,0E0,0E0,0E0,4.028615E0,0E0,0E0,0E0,0E0,0E0,0E0],"parents":[2147483647,0,0,2,2,3,3,4,4,5,5,6,6,7,7,8,8,10,10,12,12,16,16],"right_children":[2,-1,4,6,8,10,12,14,16,-1,18,-1,20,-1,-1,-1,22,-1,-1,-1,-1,-1,-1],"split_conditions":[1E0,1.3943743E-2,2.3E1,1.7857143E-1,2E0,1.8E1,1.8E1,2.8E1,8.3870965E-1,-1.3831686E-2,8E0,-9.710369E-3,8E0,-1.01437755E-2,-0E0,1.39091E-2,3.3E1,1.3585395E-2,-1.125295E-2,1.0873307E-2,-0E0,-1.0257771E-3,9.428578E-3],"split_indices":[38,0,10,6,1,10,0,10,7,0,33,0,33,0,0,0,0,0,0,0,0,0,0],"split_type":[0,0,0,0,0,0,0,0,0,0,0,0,0,0,0,0,0,0,0,0,0,0,0],"sum_hessian":[2.3890754E3,1.0490602E3,1.3400151E3,1.2059862E3,1.3402896E2,1.1947501E3,1.1236057E1,1.5080266E1,1.189487E2,1.1065823E3,8.8167946E1,3.4217517E0,7.814305E0,1.2630661E1,2.4496055E0,1.05664986E2,1.3283715E1,8.662081E0,7.950587E1,6.001341E0,1.8129643E0,2.8312254E0,1.045249E1],"tree_param":{"num_deleted":"0","num_feature":"39","num_nodes":"23","size_leaf_vector":"1"}},{"base_weights":[-3.0847765E-3,-1.0865277E0,1.3888577E-2,-1.3316364E0,9.818934E-1,1.4697744E-2,-1.3737271E0,-8.9395565E-1,1.3118658E0,-1.3768528E0,-0E0,-9.798993E-3,-0E0,1.3790502E-2,5.7414025E-1,-1.3862542E-2,-8.650968E-3,-2.7912296E-3,1.0228555E-2],"categories":[],"categories_nodes":[],"categories_segments":[],"categories_sizes":[],"default_left":[0,0,0,0,0,0,0,0,0,0,0,0,0,0,0,0,0,0,0],"id":55,"left_children":[1,3,-1,5,7,-1,9,11,13,15,-1,-1,-1,-1,17,-1,-1,-1,-1],"loss_changes":[3.5896194E3,6.804928E2,0E0,1.4317773E2,8.948573E1,0E0,4.9018555E0,2.2605553E0,3.2828217E0,2.21875E0,0E0,0E0,0E0,0E0,6.047471E0,0E0,0E0,0E0,0E0],"parents":[2147483647,0,0,1,1,3,3,4,4,6,6,7,7,8,8,9,9,14,14],"right_children":[2,4,-1,6,8,-1,10,12,14,16,-1,-1,-1,-1,18,-1,-1,-1,-1],"split_conditions":[1E0,2.2E1,1.3888577E-2,1E0,1E0,1.4697744E-2,4.1792E0,2.9E1,8.3870965E-1,2.8E1,-0E0,-9.798993E-3,-0E0,1.3790502E-2,2.6E1,-1.3862542E-2,-8.650968E-3,-2.7912296E-3,1.0228555E-2],"split_indices":[21,10,0,27,11,0,9,10,7,0,0,0,0,0,10,0,0,0,0],"split_type":[0,0,0,0,0,0,0,0,0,0,0,0,0,0,0,0,0,0,0],"sum_hessian":[2.3784417E3,1.3379572E3,1.0404846E3,1.1969569E3,1.410002E2,1.6864067E1,1.1800929E3,2.0383425E1,1.2061677E2,1.1773221E3,2.770669E0,1.9151224E1,1.2321992E0,1.0850996E2,1.2106817E1,1.1524868E3,2.4835342E1,3.5347013E0,8.572116E0],"tree_param":{"num_deleted":"0","num_feature":"39","num_nodes":"19","size_leaf_vector":"1"}},{"base_weights":[9.4897365E-3,-1.0691916E0,1.3834698E-2,-1.3135644E0,1.1174294E0,1.4932839E-2,-1.3605633E0,-7.863803E-1,1.3440049E-2,-1.3775226E0,-7.395582E-1,-8.527286E-3,-0E0,-1.3813625E-2,2.8354358E-3,1.2545956E-2,-1.0776274E-2],"categories":[],"categories_nodes":[],"categories_segments":[],"categories_sizes":[],"default_left":[0,0,0,0,0,0,0,0,0,0,0,0,0,0,0,0,0],"id":56,"left_children":[1,3,-1,5,7,-1,9,11,-1,13,15,-1,-1,-1,-1,-1,-1],"loss_changes":[3.5116436E3,7.1064636E2,0E0,1.5945044E2,5.920288E1,0E0,9.244385E0,7.0224476E-1,0E0,8.770508E0,2.4754429E1,0E0,0E0,0E0,0E0,0E0,0E0],"parents":[2147483647,0,0,1,1,3,3,4,4,6,6,7,7,9,9,10,10],"right_children":[2,4,-1,6,8,-1,10,12,-1,14,16,-1,-1,-1,-1,-1,-1],"split_conditions":[1E0,2.3E1,1.3834698E-2,1E0,1E0,1.4932839E-2,2E1,1E0,1.3440049E-2,4.1792E0,9E0,-8.527286E-3,-0E0,-1.3813625E-2,2.8354358E-3,1.2545956E-2,-1.0776274E-2],"split_indices":[18,10,0,27,11,0,10,37,0,9,33,0,0,0,0,0,0],"split_type":[0,0,0,0,0,0,0,0,0,0,0,0,0,0,0,0,0],"sum_hessian":[2.3671816E3,1.3258109E3,1.0413707E3,1.1933058E3,1.3250511E2,1.8794905E1,1.1745109E3,1.336032E1,1.191448E2,1.140535E3,3.397588E1,1.2178341E1,1.1819797E0,1.1386731E3,1.8619057E0,4.1032414E0,2.9872637E1],"tree_param":{"num_deleted":"0","num_feature":"39","num_nodes":"17","size_leaf_vector":"1"}},{"base_weights":[2.4986682E-3,1.3781648E-2,-1.0815465E0,-1.3437557E0,2.7995378E-1,-1.3458905E0,-0E0,-4.8665142E-1,1.3474623E-2,-1.3689234E-2,-1.1382878E-2,-1.0153517E0,5.96617E-1,-1.3232397E-2,7.4662425E-4,1.772804E-3,1.2756448E-2],"categories":[],"categories_nodes":[],"categories_segments":[],"categories_sizes":[],"default_left":[0,0,0,0,0,0,0,0,0,0,0,0,0,0,0,0,0],"id":57,"left_children":[1,-1,3,5,7,9,-1,11,-1,-1,-1,13,15,-1,-1,-1,-1],"loss_changes":[3.494941E3,0E0,4.691781E2,2.9945068E0,1.7483868E2,1.1827393E0,0E0,7.17325E1,0E0,0E0,0E0,2.9523521E1,9.853558E0,0E0,0E0,0E0,0E0],"parents":[2147483647,0,0,2,2,3,3,4,4,5,5,7,7,11,11,12,12],"right_children":[2,-1,4,6,8,10,-1,12,-1,-1,-1,14,16,-1,-1,-1,-1],"split_conditions":[1E0,1.3781648E-2,2E0,2.406639E-1,8.888889E-2,8.292683E-1,-0E0,7.9310346E-1,1.3474623E-2,-1.3689234E-2,-1.1382878E-2,1E0,1E0,-1.3232397E-2,7.4662425E-4,1.772804E-3,1.2756448E-2],"split_indices":[38,0,1,6,6,7,0,7,0,0,0,2,2,0,0,0,0],"split_type":[0,0,0,0,0,0,0,0,0,0,0,0,0,0,0,0,0],"sum_hessian":[2.3413794E3,1.0321808E3,1.3091985E3,1.0984058E3,2.1079268E2,1.0965739E3,1.8319073E0,1.2245906E2,8.8333626E1,9.776913E2,1.1888263E2,8.295692E1,3.9502144E1,6.523416E1,1.772275E1,2.6110975E1,1.339117E1],"tree_param":{"num_deleted":"0","num_feature":"39","num_nodes":"17","size_leaf_vector":"1"}},{"base_weights":[1.1848694E-2,1.3729419E-2,-1.0646551E0,-1.3013387E0,1.0885372E0,1.4570471E-2,-1.3478253E0,-8.7429225E-1,1.3147014E0,-1.3759677E0,-9.3566054E-1,-9.478675E-3,-0E0,1.3693386E-2,6.8734205E-1,-1.3772846E-2,-0E0,1.3827196E-2,-1.1869475E-2,-0E0,1.0123232E-2],"categories":[],"categories_nodes":[],"categories_segments":[],"categories_sizes":[],"default_left":[0,0,0,0,0,0,0,0,0,0,0,0,0,0,0,0,0,0,0,0,0],"id":58,"left_children":[1,-1,3,5,7,-1,9,11,13,15,17,-1,-1,-1,19,-1,-1,-1,-1,-1,-1],"loss_changes":[3.3963835E3,0E0,6.609784E2,1.5143665E2,5.8526337E1,0E0,9.717529E0,7.102175E-1,9.735718E-1,1.6851807E0,4.7338623E1,0E0,0E0,0E0,1.8447423E0,0E0,0E0,0E0,0E0,0E0,0E0],"parents":[2147483647,0,0,2,2,3,3,4,4,6,6,7,7,8,8,9,9,10,10,14,14],"right_children":[2,-1,4,6,8,-1,10,12,14,16,18,-1,-1,-1,20,-1,-1,-1,-1,-1,-1],"split_conditions":[1E0,1.3729419E-2,2.3E1,1E0,1E0,1.4570471E-2,1.8E1,1E0,8.372093E-1,4.1899E0,8E0,-9.478675E-3,-0E0,1.3693386E-2,2.8E1,-1.3772846E-2,-0E0,1.3827196E-2,-1.1869475E-2,-0E0,1.0123232E-2],"split_indices":[38,0,10,27,11,0,10,36,7,9,33,0,0,0,10,0,0,0,0,0,0],"split_type":[0,0,0,0,0,0,0,0,0,0,0,0,0,0,0,0,0,0,0,0,0],"sum_hessian":[2.3157915E3,1.02300006E3,1.2927915E3,1.1655334E3,1.2725794E2,1.8457577E1,1.1470759E3,1.2395227E1,1.1486272E2,1.0693E3,7.777591E1,1.1186901E1,1.208327E0,1.03106415E2,1.1756302E1,1.0681425E3,1.1575141E0,6.7762265E0,7.099969E1,5.075457E0,6.680845E0],"tree_param":{"num_deleted":"0","num_feature":"39","num_nodes":"21","size_leaf_vector":"1"}},{"base_weights":[-7.0895148E-3,-1.0701326E0,1.3678242E-2,-1.306942E0,1.1085763E0,-1.35106705E-2,-7.4960715E-1,-6.3953153E-3,1.321263E-2,1.2418471E-2,-1.0585796E0,-1.0900333E-2,-0E0],"categories":[],"categories_nodes":[],"categories_segments":[],"categories_sizes":[],"default_left":[0,0,0,0,0,0,0,0,0,0,0,0,0],"id":59,"left_children":[1,3,-1,5,7,-1,9,-1,-1,-1,11,-1,-1],"loss_changes":[3.4404316E3,6.8682715E2,0E0,2.6365723E1,4.9980423E1,0E0,5.76469E1,0E0,0E0,0E0,3.5713272E0,0E0,0E0],"parents":[2147483647,0,0,1,1,3,3,4,4,6,6,10,10],"right_children":[2,4,-1,6,8,-1,10,-1,-1,-1,12,-1,-1],"split_conditions":[3E0,2.3E1,1.3678242E-2,1.8E1,1E0,-1.35106705E-2,8E0,-6.3953153E-3,1.321263E-2,1.2418471E-2,4.2017E0,-1.0900333E-2,-0E0],"split_indices":[4,10,0,10,11,0,33,0,0,0,9,0,0],"split_type":[0,0,0,0,0,0,0,0,0,0,0,0,0],"sum_hessian":[2.3520942E3,1.3270258E3,1.0250684E3,1.1977035E3,1.293223E2,1.1068536E3,9.084978E1,1.329985E1,1.16022446E2,1.1361892E1,7.948789E1,7.791557E1,1.5723191E0],"tree_param":{"num_deleted":"0","num_feature":"39","num_nodes":"13","size_leaf_vector":"1"}},{"base_weights":[1.9441498E-3,-7.9497916E-1,1.196376E0,-1.224479E0,1.3549285E-2,1.2983322E0,1.3697343E-1,1.4195422E-2,-1.2593281E0,9.18044E-1,1.3358373E-2,-1.0278411E0,1.2550585E-2,-1.3365514E0,-6.952505E-1,1.2538668E0,-2.2818595E-2,-1.0920395E-2,5.874309E-4,-1.3573495E-2,-1.0257291E-2,7.122259E-3,-1.1266305E-2,1.30752325E-2,2.0852475E-4,1.0483E-2,-6.1130435E-3],"categories":[],"categories_nodes":[],"categories_segments":[],"categories_sizes":[],"default_left":[0,0,0,0,0,0,0,0,0,0,0,0,0,0,0,0,0,0,0,0,0,0,0,0,0,0,0],"id":60,"left_children":[1,3,5,7,-1,9,11,-1,13,15,-1,17,-1,19,21,23,25,-1,-1,-1,-1,-1,-1,-1,-1,-1,-1],"loss_changes":[2.21515E3,1.2897368E3,9.901587E1,1.0885376E2,0E0,8.626831E0,1.1061364E2,0E0,4.7109985E1,2.710344E1,0E0,3.9671478E0,0E0,2.7436523E0,8.746901E1,2.6853333E0,1.3891044E1,0E0,0E0,0E0,0E0,0E0,0E0,0E0,0E0,0E0,0E0],"parents":[2147483647,0,0,1,1,2,2,3,3,5,5,6,6,8,8,9,9,11,11,13,13,14,14,15,15,16,16],"right_children":[2,4,6,8,-1,10,12,-1,14,16,-1,18,-1,20,22,24,26,-1,-1,-1,-1,-1,-1,-1,-1,-1,-1],"split_conditions":[2.7E1,9.183E-1,8.518519E-1,1E0,1.3549285E-2,3E1,3.5E1,1.4195422E-2,2.4E1,7.941176E-1,1.3358373E-2,2E0,1.2550585E-2,1E0,7.7272725E-1,2E0,1.9E1,-1.0920395E-2,5.874309E-4,-1.3573495E-2,-1.0257291E-2,7.122259E-3,-1.1266305E-2,1.30752325E-2,2.0852475E-4,1.0483E-2,-6.1130435E-3],"split_indices":[0,24,7,27,0,0,0,0,0,7,0,1,0,2,7,2,10,0,0,0,0,0,0,0,0,0,0],"split_type":[0,0,0,0,0,0,0,0,0,0,0,0,0,0,0,0,0,0,0,0,0,0,0,0,0,0,0],"sum_hessian":[2.3247334E3,1.3940935E3,9.3064E2,1.162708E3,2.313855E2,8.478719E2,8.2768135E1,1.4235365E1,1.1484727E3,8.0793655E1,7.6707825E2,4.0138454E1,4.2629677E1,1.0074135E3,1.4105908E2,6.007958E1,2.0714075E1,3.876349E1,1.3749659E0,9.380608E2,6.935272E1,3.2394707E1,1.0866437E2,5.6739044E1,3.3405335E0,6.4654713E0,1.4248605E1],"tree_param":{"num_deleted":"0","num_feature":"39","num_nodes":"27","size_leaf_vector":"1"}},{"base_weights":[-1.2467711E-3,1.3581971E-2,-1.0642159E0,-1.2768253E0,1.192925E0,-1.3324051E0,-4.7289836E-1,-6.545031E-1,1.3246104E-2,5.0084636E-4,-1.3353664E0,8.456827E-1,-1.0396962E0,-8.173385E-3,-0E0,-1.3720655E-2,-1.1369296E-2,1.3389943E-2,8.044421E-4,4.410078E-3,-1.0977409E-2],"categories":[],"categories_nodes":[],"categories_segments":[],"categories_sizes":[],"default_left":[0,0,0,0,0,0,0,0,0,0,0,0,0,0,0,0,0,0,0,0,0],"id":61,"left_children":[1,-1,3,5,7,9,11,13,-1,-1,15,17,19,-1,-1,-1,-1,-1,-1,-1,-1],"loss_changes":[3.3210854E3,0E0,6.208052E2,5.029419E1,2.8586716E1,5.8640137E0,6.013408E1,6.665108E-1,0E0,0E0,3.9453125E0,7.4491367E0,5.9750786E0,0E0,0E0,0E0,0E0,0E0,0E0,0E0,0E0],"parents":[2147483647,0,0,2,2,3,3,4,4,5,5,6,6,7,7,10,10,11,11,12,12],"right_children":[2,-1,4,6,8,10,12,14,-1,-1,16,18,20,-1,-1,-1,-1,-1,-1,-1,-1],"split_conditions":[1E0,1.3581971E-2,2.5E1,1.9E1,2E0,5.060241E-1,1.1E1,2.9E1,1.3246104E-2,5.0084636E-4,1.5E1,8.148148E-1,2.7E1,-8.173385E-3,-0E0,-1.3720655E-2,-1.1369296E-2,1.3389943E-2,8.044421E-4,4.410078E-3,-1.0977409E-2],"split_indices":[38,0,10,10,1,7,33,10,0,0,10,7,0,0,0,0,0,0,0,0,0],"split_type":[0,0,0,0,0,0,0,0,0,0,0,0,0,0,0,0,0,0,0,0,0],"sum_hessian":[2.296458E3,1.0071646E3,1.2892933E3,1.1791058E3,1.1018747E2,1.1010808E3,7.802497E1,6.5621653E0,1.03625305E2,1.5976477E0,1.0994832E3,2.2778183E1,5.5246788E1,4.8468585E0,1.7153066E0,9.186356E2,1.8084756E2,1.2599407E1,1.0178775E1,1.1852579E0,5.406153E1],"tree_param":{"num_deleted":"0","num_feature":"39","num_nodes":"21","size_leaf_vector":"1"}},{"base_weights":[-9.317931E-3,1.353283E-2,-1.0611078E0,-1.292824E0,1.0344211E0,1.440272E-2,-1.3340576E0,-7.97669E-1,1.2940847E0,-1.3407279E0,-3.39334E-2,6.394916E-3,-1.0297728E-2,1.3497033E-2,6.656852E-1,-1.34663815E-2,-4.191455E-3,-1.0057517E-2,9.439439E-3,-0E0,1.0289559E-2],"categories":[],"categories_nodes":[],"categories_segments":[],"categories_sizes":[],"default_left":[0,0,0,0,0,0,0,0,0,0,0,0,0,0,0,0,0,0,0,0,0],"id":62,"left_children":[1,-1,3,5,7,-1,9,11,13,15,17,-1,-1,-1,19,-1,-1,-1,-1,-1,-1],"loss_changes":[3.2614895E3,0E0,6.254844E2,1.3229431E2,6.2448135E1,0E0,8.479126E0,6.398279E0,1.0362244E0,3.8511963E0,8.2504835E0,0E0,0E0,0E0,3.1242247E0,0E0,0E0,0E0,0E0,0E0,0E0],"parents":[2147483647,0,0,2,2,3,3,4,4,6,6,7,7,8,8,9,9,10,10,14,14],"right_children":[2,-1,4,6,8,-1,10,12,14,16,18,-1,-1,-1,20,-1,-1,-1,-1,-1,-1],"split_conditions":[1E0,1.353283E-2,2.3E1,1E0,1E0,1.440272E-2,1.7857143E-1,1E0,8.3870965E-1,3E1,1E0,6.394916E-3,-1.0297728E-2,1.3497033E-2,2.7E1,-1.34663815E-2,-4.191455E-3,-1.0057517E-2,9.439439E-3,-0E0,1.0289559E-2],"split_indices":[38,0,10,27,11,0,6,27,7,0,11,0,0,0,10,0,0,0,0,0,0],"split_type":[0,0,0,0,0,0,0,0,0,0,0,0,0,0,0,0,0,0,0,0,0],"sum_hessian":[2.2739194E3,9.900567E2,1.2838628E3,1.1568073E3,1.2705551E2,1.6328327E1,1.1404789E3,1.5036996E1,1.1201852E2,1.1338612E3,6.6177597E0,1.2477087E0,1.3789288E1,1.00393654E2,1.1624861E1,1.1250995E3,8.761662E0,3.8177664E0,2.7999935E0,4.3899016E0,7.2349596E0],"tree_param":{"num_deleted":"0","num_feature":"39","num_nodes":"21","size_leaf_vector":"1"}},{"base_weights":[-1.9553733E-4,1.3484824E-2,-1.041305E0,-1.2794565E0,9.3876976E-1,-1.2974184E0,3.672608E-1,-9.444962E-3,1.2805793E-2,-1.3278078E-2,-8.2277673E-1,-8.852868E-3,9.813376E-1,1.1468734E-2,-1.0867612E-2,-0E0,1.0838079E-2],"categories":[],"categories_nodes":[],"categories_segments":[],"categories_sizes":[],"default_left":[0,0,0,0,0,0,0,0,0,0,0,0,0,0,0,0,0],"id":63,"left_children":[1,-1,3,5,7,9,11,-1,-1,-1,13,-1,15,-1,-1,-1,-1],"loss_changes":[3.1709536E3,0E0,6.0279016E2,3.509619E1,8.974422E1,1.3020874E1,1.0555104E1,0E0,0E0,0E0,3.8861176E1,0E0,6.7362595E-1,0E0,0E0,0E0,0E0],"parents":[2147483647,0,0,2,2,3,3,4,4,5,5,6,6,10,10,12,12],"right_children":[2,-1,4,6,8,10,12,-1,-1,-1,14,-1,16,-1,-1,-1,-1],"split_conditions":[1E0,1.3484824E-2,3E1,1.7857143E-1,1E0,2.6E1,1.8E1,-9.444962E-3,1.2805793E-2,-1.3278078E-2,8E0,-8.852868E-3,2.2E1,1.1468734E-2,-1.0867612E-2,-0E0,1.0838079E-2],"split_indices":[38,0,0,6,11,0,0,0,0,0,33,0,0,0,0,0,0],"split_type":[0,0,0,0,0,0,0,0,0,0,0,0,0,0,0,0,0],"sum_hessian":[2.2565374E3,9.8251196E2,1.2740253E3,1.138011E3,1.3601434E2,1.1265425E3,1.1468514E1,2.017384E1,1.1584051E2,1.0550847E3,7.145771E1,3.0918584E0,8.376656E0,7.602336E0,6.3855373E1,1.1157687E0,7.260887E0],"tree_param":{"num_deleted":"0","num_feature":"39","num_nodes":"17","size_leaf_vector":"1"}},{"base_weights":[-7.582052E-4,1.3437838E-2,-1.0562644E0,-1.2547886E0,1.0296696E0,-1.3105483E0,-6.7872435E-1,-1.0729498E0,1.3222792E-2,-1.3127392E-2,-0E0,-1.2195021E0,4.3239616E-2,-0E0,-1.172751E-2,-1.2420829E-2,-0E0,-5.2027666E-4,7.1500316E-3],"categories":[],"categories_nodes":[],"categories_segments":[],"categories_sizes":[],"default_left":[0,0,0,0,0,0,0,0,0,0,0,0,0,0,0,0,0,0,0],"id":64,"left_children":[1,-1,3,5,7,9,11,13,-1,-1,-1,15,17,-1,-1,-1,-1,-1,-1],"loss_changes":[3.1972888E3,0E0,5.243916E2,3.4183228E1,6.924585E1,3.7264404E0,4.2411972E1,9.5938206E-1,0E0,0E0,0E0,1.6780853E0,3.6022983E0,0E0,0E0,0E0,0E0,0E0,0E0],"parents":[2147483647,0,0,2,2,3,3,4,4,5,5,6,6,7,7,11,11,12,12],"right_children":[2,-1,4,6,8,10,12,14,-1,-1,-1,16,18,-1,-1,-1,-1,-1,-1],"split_conditions":[1E0,1.3437838E-2,4.1212E0,2E0,2E0,2.406639E-1,3.8424E0,4.1337E0,1.3222792E-2,-1.3127392E-2,-0E0,5.102041E-2,4.0576E0,-0E0,-1.172751E-2,-1.2420829E-2,-0E0,-5.2027666E-4,7.1500316E-3],"split_indices":[38,0,9,1,1,6,9,9,0,0,0,6,9,0,0,0,0,0,0],"split_type":[0,0,0,0,0,0,0,0,0,0,0,0,0,0,0,0,0,0,0],"sum_hessian":[2.2511272E3,9.894761E2,1.261651E3,1.1528125E3,1.0883856E2,1.0483292E3,1.0448321E2,1.25528145E1,9.628574E1,1.0469923E3,1.3370235E0,6.0135475E1,4.4347733E1,1.5109863E0,1.1041828E1,5.9020527E1,1.114948E0,3.8343864E1,6.0038686E0],"tree_param":{"num_deleted":"0","num_feature":"39","num_nodes":"19","size_leaf_vector":"1"}},{"base_weights":[-1.4213451E-2,-8.972604E-1,1.0147487E0,-1.0680357E0,3.5580802E-1,5.125652E-1,1.2456281E0,-1.1766958E0,-1.5387712E-1,1.2164631E0,1.7229285E-2,1.3177899E-2,9.3243785E-2,1.0447438E0,1.3332104E-2,-1.2029608E0,1.125767E-2,-6.92752E-1,8.7784564E-1,-0E0,1.2673926E-2,-6.970928E-1,6.0845053E-1,-4.2270324E-1,9.6391046E-1,1.1260011E0,-4.787107E-2,1.1953685E-2,-1.2229193E-2,9.177335E-3,-9.163331E-3,1.2418819E-2,5.2666236E-3,6.9560455E-3,-8.120866E-3,2.295321E-3,1.2261177E-2,1.1604311E-2,-5.4163453E-3,1.1870786E-2,-6.420807E-4,1.3103834E-2,8.956261E-3,-5.367186E-3,7.935194E-3],"categories":[],"categories_nodes":[],"categories_segments":[],"categories_sizes":[],"default_left":[0,0,0,0,0,0,0,0,0,0,0,0,0,0,0,0,0,0,0,0,0,0,0,0,0,0,0,0,0,0,0,0,0,0,0,0,0,0,0,0,0,0,0,0,0],"id":65,"left_children":[1,3,5,7,9,11,13,15,17,19,21,-1,23,25,-1,27,-1,29,31,-1,-1,33,35,37,39,41,43,-1,-1,-1,-1,-1,-1,-1,-1,-1,-1,-1,-1,-1,-1,-1,-1,-1,-1],"loss_changes":[2.0506873E3,2.6112866E2,1.1840344E2,1.0481079E2,4.1229626E1,1.1029737E2,8.750366E0,5.9216553E1,6.482638E1,2.9115524E0,4.5304504E1,0E0,9.963483E1,2.1033905E1,0E0,4.6755615E1,0E0,2.8669872E1,2.6335087E0,0E0,0E0,8.35586E0,1.2202694E1,2.5977095E1,2.0189812E1,5.5209656E0,6.5955462E0,0E0,0E0,0E0,0E0,0E0,0E0,0E0,0E0,0E0,0E0,0E0,0E0,0E0,0E0,0E0,0E0,0E0,0E0],"parents":[2147483647,0,0,1,1,2,2,3,3,4,4,5,5,6,6,7,7,8,8,9,9,10,10,12,12,13,13,15,15,17,17,18,18,21,21,22,22,23,23,24,24,25,25,26,26],"right_children":[2,4,6,8,10,12,14,16,18,20,22,-1,24,26,-1,28,-1,30,32,-1,-1,34,36,38,40,42,44,-1,-1,-1,-1,-1,-1,-1,-1,-1,-1,-1,-1,-1,-1,-1,-1,-1,-1],"split_conditions":[3.9362E0,1E0,4.0615E0,1E0,3E0,4E0,1E0,1E0,1.7E1,3.6292E0,1.5E1,1.3177899E-2,2E1,8.5714287E-1,1.3332104E-2,1E0,1.125767E-2,9E0,8E0,-0E0,1.2673926E-2,6.5E-1,1E0,1E0,8.5714287E-1,1.3E1,4.2189E0,1.1953685E-2,-1.2229193E-2,9.177335E-3,-9.163331E-3,1.2418819E-2,5.2666236E-3,6.9560455E-3,-8.120866E-3,2.295321E-3,1.2261177E-2,1.1604311E-2,-5.4163453E-3,1.1870786E-2,-6.420807E-4,1.3103834E-2,8.956261E-3,-5.367186E-3,7.935194E-3],"split_indices":[9,2,9,11,33,33,11,23,10,9,10,0,10,7,0,27,0,10,33,0,0,7,11,27,7,10,9,0,0,0,0,0,0,0,0,0,0,0,0,0,0,0,0,0,0],"split_type":[0,0,0,0,0,0,0,0,0,0,0,0,0,0,0,0,0,0,0,0,0,0,0,0,0,0,0,0,0,0,0,0,0,0,0,0,0,0,0,0,0,0,0,0,0],"sum_hessian":[2.2550476E3,1.2141627E3,1.0408848E3,1.0693688E3,1.4479393E2,3.302068E2,7.1067804E2,9.5452905E2,1.14839714E2,3.9313652E1,1.0548027E2,1.11522385E2,2.1868442E2,2.2316318E2,4.8751483E2,9.4466473E2,9.864328E0,7.629052E1,3.854919E1,1.36227E0,3.795138E1,4.6920166E1,5.856011E1,1.3691571E2,8.176871E1,2.085389E2,1.4624284E1,6.8968763E0,9.377679E2,8.376451E0,6.791407E1,1.6284697E1,2.2264494E1,2.5303042E0,4.4389862E1,3.814811E1,2.0411999E1,8.367519E0,1.2854819E2,6.785732E1,1.3911387E1,1.10816956E2,9.772195E1,1.0230804E1,4.393479E0],"tree_param":{"num_deleted":"0","num_feature":"39","num_nodes":"45","size_leaf_vector":"1"}},{"base_weights":[1.1244457E-2,1.3357632E-2,-1.0292128E0,-1.2655562E0,9.380281E-1,-1.2807207E0,3.9688426E-1,-8.761594E-1,1.2653784E0,-1.3310341E-2,-9.549518E-1,-3.510936E-1,9.908216E-3,-9.2722774E-1,-0E0,6.349873E-1,1.313765E-2,-1.08909495E-2,-1.6150232E-3,-7.0068943E-3,-0E0,-1.0030124E-2,-0E0,4.8464743E-4,9.965837E-3],"categories":[],"categories_nodes":[],"categories_segments":[],"categories_sizes":[],"default_left":[0,0,0,0,0,0,0,0,0,0,0,0,0,0,0,0,0,0,0,0,0,0,0,0,0],"id":66,"left_children":[1,-1,3,5,7,9,11,13,15,-1,17,19,-1,21,-1,23,-1,-1,-1,-1,-1,-1,-1,-1,-1],"loss_changes":[3.0714766E3,0E0,5.816228E2,2.9494873E1,8.10419E1,1.4562988E1,5.538509E0,8.653717E-1,7.0477295E-1,0E0,1.497493E1,1.0052373E0,0E0,8.868828E-1,0E0,1.3582764E0,0E0,0E0,0E0,0E0,0E0,0E0,0E0,0E0,0E0],"parents":[2147483647,0,0,2,2,3,3,4,4,5,5,6,6,7,7,8,8,10,10,11,11,13,13,15,15],"right_children":[2,-1,4,6,8,10,12,14,16,-1,18,20,-1,22,-1,24,-1,-1,-1,-1,-1,-1,-1,-1,-1],"split_conditions":[1E0,1.3357632E-2,3E1,1.7857143E-1,1E0,2.4E1,2.2E1,2.631579E-2,4.0114E0,-1.3310341E-2,1E0,2.406639E-1,9.908216E-3,3.6E1,-0E0,1E0,1.313765E-2,-1.08909495E-2,-1.6150232E-3,-7.0068943E-3,-0E0,-1.0030124E-2,-0E0,4.8464743E-4,9.965837E-3],"split_indices":[38,0,0,6,11,0,0,6,9,0,11,6,0,0,0,16,0,0,0,0,0,0,0,0,0],"split_type":[0,0,0,0,0,0,0,0,0,0,0,0,0,0,0,0,0,0,0,0,0,0,0,0,0],"sum_hessian":[2.2265479E3,9.798546E2,1.2466934E3,1.1137526E3,1.329407E2,1.1045087E3,9.243982E0,1.959777E1,1.13342926E2,9.514118E2,1.530968E2,3.5271904E0,5.716792E0,1.839789E1,1.1998811E0,1.0559661E1,1.0278327E2,1.2956004E2,2.353677E1,2.184111E0,1.3430793E0,1.6458899E1,1.9389914E0,5.5144944E0,5.0451665E0],"tree_param":{"num_deleted":"0","num_feature":"39","num_nodes":"25","size_leaf_vector":"1"}},{"base_weights":[8.621927E-3,-1.0295347E0,1.331303E-2,-1.255766E0,1.0402914E0,1.4377089E-2,-1.3090596E0,-8.3508545E-1,1.291869E-2,-1.3155313E0,3.13828E-2,-9.0300083E-1,-0E0,-1.3354341E-2,-1.0185024E-2,-4.5479E-3,8.0788275E-3,-1.0280339E-2,-0E0],"categories":[],"categories_nodes":[],"categories_segments":[],"categories_sizes":[],"default_left":[0,0,0,0,0,0,0,0,0,0,0,0,0,0,0,0,0,0,0],"id":67,"left_children":[1,3,-1,5,7,-1,9,11,-1,13,15,17,-1,-1,-1,-1,-1,-1,-1],"loss_changes":[3.0610208E3,5.8608997E2,0E0,1.6342358E2,5.9621735E1,0E0,1.09140625E1,7.510433E-1,0E0,2.793335E0,2.8138278E0,1.4656591E0,0E0,0E0,0E0,0E0,0E0,0E0,0E0],"parents":[2147483647,0,0,1,1,3,3,4,4,6,6,7,7,9,9,10,10,11,11],"right_children":[2,4,-1,6,8,-1,10,12,-1,14,16,18,-1,-1,-1,-1,-1,-1,-1],"split_conditions":[1E0,3.1E1,1.331303E-2,1E0,1E0,1.4377089E-2,1.7857143E-1,1.4705882E-2,1.291869E-2,2.6E1,2.3E1,3.6E1,-0E0,-1.3354341E-2,-1.0185024E-2,-4.5479E-3,8.0788275E-3,-1.0280339E-2,-0E0],"split_indices":[18,0,0,27,11,0,6,6,0,0,0,0,0,0,0,0,0,0,0],"split_type":[0,0,0,0,0,0,0,0,0,0,0,0,0,0,0,0,0,0,0],"sum_hessian":[2.2269778E3,1.2473854E3,9.795924E2,1.1252703E3,1.22115234E2,2.0964708E1,1.1043055E3,1.3699377E1,1.08415855E2,1.0997605E3,4.5450206E0,1.2492488E1,1.2068897E0,1.0242655E3,7.549496E1,2.257844E0,2.2871764E0,1.0796875E1,1.6956122E0],"tree_param":{"num_deleted":"0","num_feature":"39","num_nodes":"19","size_leaf_vector":"1"}},{"base_weights":[1.3607453E-3,1.32680405E-2,-1.020223E0,-1.248007E0,1.06514E0,1.445299E-2,-1.2947154E0,1.323168E-2,3.5852307E-1,-1.3022147E0,-0E0,-5.814011E-1,9.9720824E-1,-1.3261217E-2,-9.285257E-3,-7.3112897E-3,9.1457125E-3,4.194093E-3,-7.7123675E-3,1.0467942E-2,-0E0],